<?xml version="1.0"?>
<MethodSetup Method="BDT::BDTG">
  <GeneralInfo>
    <Info name="TMVA Release" value="4.1.0 [262400]"/>
    <Info name="ROOT Release" value="5.28/00 [334848]"/>
    <Info name="Creator" value="sixie"/>
    <Info name="Date" value="Fri Jul 20 14:05:01 2012"/>
    <Info name="Host" value="Linux x86-03.phx2.fedoraproject.org 2.6.32-220.17.1.el6.x86_64 #1 SMP Thu Apr 26 13:37:13 EDT 2012 x86_64 x86_64 x86_64 GNU/Linux"/>
    <Info name="Dir" value="/data/blue/sixie/LeptonSelection/Electrons/HWW/IDMVA"/>
    <Info name="Training events" value="150745"/>
    <Info name="TrainingTime" value="738.939"/>
    <Info name="AnalysisType" value="Classification"/>
  </GeneralInfo>
  <Options>
    <Option name="V" modified="Yes">False</Option>
    <Option name="VerbosityLevel" modified="No">Default</Option>
    <Option name="VarTransform" modified="No">None</Option>
    <Option name="H" modified="Yes">False</Option>
    <Option name="CreateMVAPdfs" modified="No">False</Option>
    <Option name="IgnoreNegWeightsInTraining" modified="No">False</Option>
    <Option name="NTrees" modified="Yes">2000</Option>
    <Option name="RenormByClass" modified="No">False</Option>
    <Option name="BoostType" modified="Yes">Grad</Option>
    <Option name="AdaBoostR2Loss" modified="No">quadratic</Option>
    <Option name="UseBaggedGrad" modified="Yes">False</Option>
    <Option name="GradBaggingFraction" modified="No">6.000000e-01</Option>
    <Option name="Shrinkage" modified="Yes">1.000000e-01</Option>
    <Option name="AdaBoostBeta" modified="No">1.000000e+00</Option>
    <Option name="UseRandomisedTrees" modified="No">False</Option>
    <Option name="UseNvars" modified="Yes">4</Option>
    <Option name="UsePoissonNvars" modified="No">True</Option>
    <Option name="UseNTrainEvents" modified="No">150745</Option>
    <Option name="UseWeightedTrees" modified="No">True</Option>
    <Option name="UseYesNoLeaf" modified="No">True</Option>
    <Option name="NodePurityLimit" modified="No">5.000000e-01</Option>
    <Option name="SeparationType" modified="No">giniindex</Option>
    <Option name="nEventsMin" modified="Yes">100</Option>
    <Option name="nCuts" modified="Yes">2000</Option>
    <Option name="UseFisherCuts" modified="No">False</Option>
    <Option name="MinLinCorrForFisher" modified="No">8.000000e-01</Option>
    <Option name="UseExclusiveVars" modified="No">False</Option>
    <Option name="PruneStrength" modified="Yes">5.000000e+00</Option>
    <Option name="PruneMethod" modified="Yes">costcomplexity</Option>
    <Option name="PruneBeforeBoost" modified="No">False</Option>
    <Option name="PruningValFraction" modified="No">5.000000e-01</Option>
    <Option name="NNodesMax" modified="Yes">5</Option>
    <Option name="MaxDepth" modified="Yes">6</Option>
  </Options>
  <Variables NVar="19">
    <Variable VarIndex="0" Expression="fbrem" Label="fbrem" Title="fbrem" Unit="" Internal="fbrem" Type="F" Min="-1" Max="0.997528"/>
    <Variable VarIndex="1" Expression="kfchi2" Label="kfchi2" Title="kfchi2" Unit="" Internal="kfchi2" Type="F" Min="0" Max="10"/>
    <Variable VarIndex="2" Expression="kflayers" Label="kflayers" Title="kflayers" Unit="" Internal="kflayers" Type="F" Min="-1" Max="13"/>
    <Variable VarIndex="3" Expression="gsfchi2" Label="gsfchi2" Title="gsfchi2" Unit="" Internal="gsfchi2" Type="F" Min="0.0487569" Max="200"/>
    <Variable VarIndex="4" Expression="deta" Label="deta" Title="deta" Unit="" Internal="deta" Type="F" Min="0" Max="0.00699902"/>
    <Variable VarIndex="5" Expression="dphi" Label="dphi" Title="dphi" Unit="" Internal="dphi" Type="F" Min="-0.149704" Max="0.149658"/>
    <Variable VarIndex="6" Expression="detacalo" Label="detacalo" Title="detacalo" Unit="" Internal="detacalo" Type="F" Min="-0.121822" Max="0.2"/>
    <Variable VarIndex="7" Expression="see" Label="see" Title="see" Unit="" Internal="see" Type="F" Min="0" Max="0.00999975"/>
    <Variable VarIndex="8" Expression="spp" Label="spp" Title="spp" Unit="" Internal="spp" Type="F" Min="0" Max="0.0283468"/>
    <Variable VarIndex="9" Expression="etawidth" Label="etawidth" Title="etawidth" Unit="" Internal="etawidth" Type="F" Min="0.00515604" Max="0.0329723"/>
    <Variable VarIndex="10" Expression="phiwidth" Label="phiwidth" Title="phiwidth" Unit="" Internal="phiwidth" Type="F" Min="0.00536561" Max="0.295441"/>
    <Variable VarIndex="11" Expression="OneMinusSeedE1x5OverE5x5" Label="OneMinusSeedE1x5OverE5x5" Title="OneMinusSeedE1x5OverE5x5" Unit="" Internal="OneMinusSeedE1x5OverE5x5" Type="F" Min="-0.379858" Max="0.823969"/>
    <Variable VarIndex="12" Expression="R9" Label="R9" Title="R9" Unit="" Internal="R9" Type="F" Min="0.0152541" Max="2.83893"/>
    <Variable VarIndex="13" Expression="HoE" Label="HoE" Title="HoE" Unit="" Internal="HoE" Type="F" Min="0" Max="0.119968"/>
    <Variable VarIndex="14" Expression="EoP" Label="EoP" Title="EoP" Unit="" Internal="EoP" Type="F" Min="0.000258073" Max="14.0063"/>
    <Variable VarIndex="15" Expression="IoEmIoP" Label="IoEmIoP" Title="IoEmIoP" Unit="" Internal="IoEmIoP" Type="F" Min="-0.407321" Max="0.0986664"/>
    <Variable VarIndex="16" Expression="EEleoPout" Label="EEleoPout" Title="EEleoPout" Unit="" Internal="EEleoPout" Type="F" Min="0.00122805" Max="20"/>
    <Variable VarIndex="17" Expression="d0" Label="d0" Title="d0" Unit="" Internal="d0" Type="F" Min="-0.0199943" Max="0.0199583"/>
    <Variable VarIndex="18" Expression="ip3d" Label="ip3d" Title="ip3d" Unit="" Internal="ip3d" Type="F" Min="-0.205086" Max="0.0948982"/>
  </Variables>
  <Spectators NSpec="2">
    <Spectator SpecIndex="0" Expression="eta" Label="eta" Title="eta" Unit="" Internal="eta" Type="F" Min="-0.799957" Max="0.799988"/>
    <Spectator SpecIndex="1" Expression="pt" Label="pt" Title="pt" Unit="" Internal="pt" Type="F" Min="20.001" Max="35"/>
  </Spectators>
  <Transformations NTransformations="0"/>
  <MVAPdfs/>
  <Weights NTrees="2000" AnalysisType="1">
    <BinaryTree type="DecisionTree" boostWeight="1.0000000000000000e+00" itree="0">
      <Node pos="s" depth="0" NCoef="0" IVar="15" Cut="-2.8020074591040611e-02" cType="0" res="3.9580005407333374e-01" rms="3.0551975965499878e-01" purity="8.9580005407333374e-01" nType="0">
        <Node pos="l" depth="1" NCoef="0" IVar="-1" Cut="0.0000000000000000e+00" cType="1" res="5.9259012341499329e-02" rms="2.5204262137413025e-01" purity="9.3182694911956787e-01" nType="1"/>
        <Node pos="r" depth="1" NCoef="0" IVar="0" Cut="6.8698346614837646e-02" cType="0" res="-6.2438972294330597e-02" rms="4.9608606100082397e-01" purity="4.3756100535392761e-01" nType="0">
          <Node pos="l" depth="2" NCoef="0" IVar="-1" Cut="0.0000000000000000e+00" cType="1" res="3.4550577402114868e-02" rms="4.3294453620910645e-01" purity="7.5011801719665527e-01" nType="1"/>
          <Node pos="r" depth="2" NCoef="0" IVar="-1" Cut="0.0000000000000000e+00" cType="1" res="-5.0665505230426788e-02" rms="3.7713614106178284e-01" purity="1.7171911895275116e-01" nType="-1"/>
        </Node>
      </Node>
    </BinaryTree>
    <BinaryTree type="DecisionTree" boostWeight="1.0000000000000000e+00" itree="1">
      <Node pos="s" depth="0" NCoef="0" IVar="15" Cut="-3.0548745766282082e-02" cType="0" res="3.6878079175949097e-01" rms="3.0034536123275757e-01" purity="8.9580005407333374e-01" nType="0">
        <Node pos="l" depth="1" NCoef="0" IVar="-1" Cut="0.0000000000000000e+00" cType="1" res="5.5232394486665726e-02" rms="2.5392457842826843e-01" purity="9.3059998750686646e-01" nType="1"/>
        <Node pos="r" depth="1" NCoef="0" IVar="0" Cut="6.8698346614837646e-02" cType="0" res="-7.2176113724708557e-02" rms="4.8182600736618042e-01" purity="4.2152512073516846e-01" nType="0">
          <Node pos="l" depth="2" NCoef="0" IVar="-1" Cut="0.0000000000000000e+00" cType="1" res="3.1102309003472328e-02" rms="4.3829494714736938e-01" purity="7.4061906337738037e-01" nType="1"/>
          <Node pos="r" depth="2" NCoef="0" IVar="-1" Cut="0.0000000000000000e+00" cType="1" res="-4.8228103667497635e-02" rms="3.7036830186843872e-01" purity="1.6410222649574280e-01" nType="-1"/>
        </Node>
      </Node>
    </BinaryTree>
    <BinaryTree type="DecisionTree" boostWeight="1.0000000000000000e+00" itree="2">
      <Node pos="s" depth="0" NCoef="0" IVar="4" Cut="2.9905838891863823e-03" cType="1" res="3.4368503093719482e-01" rms="2.9590487480163574e-01" purity="8.9580005407333374e-01" nType="0">
        <Node pos="l" depth="1" NCoef="0" IVar="-1" Cut="0.0000000000000000e+00" cType="1" res="5.1805723458528519e-02" rms="2.5571689009666443e-01" purity="9.2637908458709717e-01" nType="1"/>
        <Node pos="r" depth="1" NCoef="0" IVar="0" Cut="6.8357907235622406e-02" cType="0" res="-8.9866511523723602e-02" rms="4.7139537334442139e-01" purity="4.3362718820571899e-01" nType="0">
          <Node pos="l" depth="2" NCoef="0" IVar="-1" Cut="0.0000000000000000e+00" cType="1" res="2.3781770840287209e-02" rms="4.4119068980216980e-01" purity="7.2687315940856934e-01" nType="1"/>
          <Node pos="r" depth="2" NCoef="0" IVar="-1" Cut="0.0000000000000000e+00" cType="1" res="-5.5829230695962906e-02" rms="3.3834531903266907e-01" purity="1.4797100424766541e-01" nType="-1"/>
        </Node>
      </Node>
    </BinaryTree>
    <BinaryTree type="DecisionTree" boostWeight="1.0000000000000000e+00" itree="3">
      <Node pos="s" depth="0" NCoef="0" IVar="15" Cut="-2.3974198848009109e-02" cType="0" res="3.2035955786705017e-01" rms="2.9191711544990540e-01" purity="8.9580005407333374e-01" nType="0">
        <Node pos="l" depth="1" NCoef="0" IVar="-1" Cut="0.0000000000000000e+00" cType="1" res="4.9704242497682571e-02" rms="2.4681186676025391e-01" purity="9.3380147218704224e-01" nType="1"/>
        <Node pos="r" depth="1" NCoef="0" IVar="0" Cut="6.2750115990638733e-02" cType="0" res="-4.1077796369791031e-02" rms="4.6518278121948242e-01" purity="4.6819573640823364e-01" nType="0">
          <Node pos="l" depth="2" NCoef="0" IVar="-1" Cut="0.0000000000000000e+00" cType="1" res="2.7081351727247238e-02" rms="4.2624670267105103e-01" purity="7.5338476896286011e-01" nType="1"/>
          <Node pos="r" depth="2" NCoef="0" IVar="-1" Cut="0.0000000000000000e+00" cType="1" res="-4.2940255254507065e-02" rms="3.7537980079650879e-01" purity="1.8559679388999939e-01" nType="-1"/>
        </Node>
      </Node>
    </BinaryTree>
    <BinaryTree type="DecisionTree" boostWeight="1.0000000000000000e+00" itree="4">
      <Node pos="s" depth="0" NCoef="0" IVar="4" Cut="3.3368621952831745e-03" cType="1" res="2.9866507649421692e-01" rms="2.8810080885887146e-01" purity="8.9580005407333374e-01" nType="0">
        <Node pos="l" depth="1" NCoef="0" IVar="-1" Cut="0.0000000000000000e+00" cType="1" res="4.6234961599111557e-02" rms="2.5779920816421509e-01" purity="9.2307531833648682e-01" nType="1"/>
        <Node pos="r" depth="1" NCoef="0" IVar="0" Cut="8.9286565780639648e-02" cType="0" res="-1.3939975202083588e-01" rms="4.4150552153587341e-01" purity="3.7815311551094055e-01" nType="0">
          <Node pos="l" depth="2" NCoef="0" IVar="-1" Cut="0.0000000000000000e+00" cType="1" res="1.6384322196245193e-02" rms="4.4942048192024231e-01" purity="7.0472520589828491e-01" nType="1"/>
          <Node pos="r" depth="2" NCoef="0" IVar="-1" Cut="0.0000000000000000e+00" cType="1" res="-5.3219806402921677e-02" rms="3.2437610626220703e-01" purity="1.4046958088874817e-01" nType="-1"/>
        </Node>
      </Node>
    </BinaryTree>
    <BinaryTree type="DecisionTree" boostWeight="1.0000000000000000e+00" itree="5">
      <Node pos="s" depth="0" NCoef="0" IVar="14" Cut="1.7991411685943604e+00" cType="1" res="2.7844670414924622e-01" rms="2.8506973385810852e-01" purity="8.9580005407333374e-01" nType="0">
        <Node pos="l" depth="1" NCoef="0" IVar="-1" Cut="0.0000000000000000e+00" cType="1" res="4.4758059084415436e-02" rms="2.4747909605503082e-01" purity="9.3232816457748413e-01" nType="1"/>
        <Node pos="r" depth="1" NCoef="0" IVar="16" Cut="7.9072326421737671e-01" cType="0" res="-6.2701866030693054e-02" rms="4.4720640778541565e-01" purity="4.4941797852516174e-01" nType="0">
          <Node pos="l" depth="2" NCoef="0" IVar="-1" Cut="0.0000000000000000e+00" cType="1" res="1.4064199291169643e-02" rms="4.4748410582542419e-01" purity="6.3484054803848267e-01" nType="1"/>
          <Node pos="r" depth="2" NCoef="0" IVar="-1" Cut="0.0000000000000000e+00" cType="1" res="-5.9033107012510300e-02" rms="2.5555935502052307e-01" purity="8.8959410786628723e-02" nType="-1"/>
        </Node>
      </Node>
    </BinaryTree>
    <BinaryTree type="DecisionTree" boostWeight="1.0000000000000000e+00" itree="6">
      <Node pos="s" depth="0" NCoef="0" IVar="16" Cut="9.4070059061050415e-01" cType="0" res="2.5970485806465149e-01" rms="2.8192985057830811e-01" purity="8.9580005407333374e-01" nType="0">
        <Node pos="l" depth="1" NCoef="0" IVar="-1" Cut="0.0000000000000000e+00" cType="1" res="4.3925181031227112e-02" rms="2.3666718602180481e-01" purity="9.3540579080581665e-01" nType="1"/>
        <Node pos="r" depth="1" NCoef="0" IVar="0" Cut="9.6671678125858307e-02" cType="0" res="-3.7956859450787306e-03" rms="4.3584325909614563e-01" purity="5.7766109704971313e-01" nType="0">
          <Node pos="l" depth="2" NCoef="0" IVar="-1" Cut="0.0000000000000000e+00" cType="1" res="4.0328852832317352e-02" rms="2.5965005159378052e-01" purity="9.2311781644821167e-01" nType="1"/>
          <Node pos="r" depth="2" NCoef="0" IVar="-1" Cut="0.0000000000000000e+00" cType="1" res="-5.2081726491451263e-02" rms="3.6853137612342834e-01" purity="2.0189319550991058e-01" nType="-1"/>
        </Node>
      </Node>
    </BinaryTree>
    <BinaryTree type="DecisionTree" boostWeight="1.0000000000000000e+00" itree="7">
      <Node pos="s" depth="0" NCoef="0" IVar="4" Cut="2.7037677355110645e-03" cType="1" res="2.4230553209781647e-01" rms="2.7733340859413147e-01" purity="8.9580005407333374e-01" nType="0">
        <Node pos="l" depth="1" NCoef="0" IVar="-1" Cut="0.0000000000000000e+00" cType="1" res="4.1269332170486450e-02" rms="2.4411612749099731e-01" purity="9.2950206995010376e-01" nType="1"/>
        <Node pos="r" depth="1" NCoef="0" IVar="0" Cut="8.0317139625549316e-02" cType="0" res="-6.2778390944004059e-02" rms="4.2945814132690430e-01" purity="4.9043965339660645e-01" nType="0">
          <Node pos="l" depth="2" NCoef="0" IVar="-1" Cut="0.0000000000000000e+00" cType="1" res="1.9771903753280640e-02" rms="4.0381008386611938e-01" purity="7.7769428491592407e-01" nType="1"/>
          <Node pos="r" depth="2" NCoef="0" IVar="-1" Cut="0.0000000000000000e+00" cType="1" res="-4.4237021356821060e-02" rms="3.5324132442474365e-01" purity="1.9897015392780304e-01" nType="-1"/>
        </Node>
      </Node>
    </BinaryTree>
    <BinaryTree type="DecisionTree" boostWeight="1.0000000000000000e+00" itree="8">
      <Node pos="s" depth="0" NCoef="0" IVar="15" Cut="-2.2456994280219078e-02" cType="0" res="2.2599631547927856e-01" rms="2.7469879388809204e-01" purity="8.9580005407333374e-01" nType="0">
        <Node pos="l" depth="1" NCoef="0" IVar="-1" Cut="0.0000000000000000e+00" cType="1" res="4.0013533085584641e-02" rms="2.4006390571594238e-01" purity="9.3462240695953369e-01" nType="1"/>
        <Node pos="r" depth="1" NCoef="0" IVar="4" Cut="2.0741920452564955e-03" cType="1" res="-5.3333356976509094e-02" rms="4.2494916915893555e-01" purity="4.8108932375907898e-01" nType="0">
          <Node pos="l" depth="2" NCoef="0" IVar="-1" Cut="0.0000000000000000e+00" cType="1" res="1.5134044922888279e-02" rms="4.1630330681800842e-01" purity="6.9949203729629517e-01" nType="1"/>
          <Node pos="r" depth="2" NCoef="0" IVar="-1" Cut="0.0000000000000000e+00" cType="1" res="-4.4930830597877502e-02" rms="3.3259129524230957e-01" purity="1.7831899225711823e-01" nType="-1"/>
        </Node>
      </Node>
    </BinaryTree>
    <BinaryTree type="DecisionTree" boostWeight="1.0000000000000000e+00" itree="9">
      <Node pos="s" depth="0" NCoef="0" IVar="16" Cut="9.0072304010391235e-01" cType="0" res="2.1078972518444061e-01" rms="2.7224346995353699e-01" purity="8.9580005407333374e-01" nType="0">
        <Node pos="l" depth="1" NCoef="0" IVar="-1" Cut="0.0000000000000000e+00" cType="1" res="3.8501445204019547e-02" rms="2.4076934158802032e-01" purity="9.3103867769241333e-01" nType="1"/>
        <Node pos="r" depth="1" NCoef="0" IVar="0" Cut="1.2356553971767426e-01" cType="0" res="-5.3206842392683029e-02" rms="4.0751659870147705e-01" purity="5.2842962741851807e-01" nType="0">
          <Node pos="l" depth="2" NCoef="0" IVar="-1" Cut="0.0000000000000000e+00" cType="1" res="3.5100121051073074e-02" rms="2.6114821434020996e-01" purity="9.2013573646545410e-01" nType="1"/>
          <Node pos="r" depth="2" NCoef="0" IVar="-1" Cut="0.0000000000000000e+00" cType="1" res="-5.5956963449716568e-02" rms="3.3103817701339722e-01" purity="1.5647080540657043e-01" nType="-1"/>
        </Node>
      </Node>
    </BinaryTree>
    <BinaryTree type="DecisionTree" boostWeight="1.0000000000000000e+00" itree="10">
      <Node pos="s" depth="0" NCoef="0" IVar="15" Cut="-1.6388181596994400e-02" cType="0" res="1.9672514498233795e-01" rms="2.6883378624916077e-01" purity="8.9580005407333374e-01" nType="0">
        <Node pos="l" depth="1" NCoef="0" IVar="-1" Cut="0.0000000000000000e+00" cType="1" res="3.7699449807405472e-02" rms="2.3271755874156952e-01" purity="9.3812972307205200e-01" nType="1"/>
        <Node pos="r" depth="1" NCoef="0" IVar="4" Cut="2.0811876747757196e-03" cType="1" res="-2.7335138991475105e-02" rms="4.1041943430900574e-01" purity="5.3979617357254028e-01" nType="0">
          <Node pos="l" depth="2" NCoef="0" IVar="-1" Cut="0.0000000000000000e+00" cType="1" res="1.5782309696078300e-02" rms="3.9254277944564819e-01" purity="7.3995441198348999e-01" nType="1"/>
          <Node pos="r" depth="2" NCoef="0" IVar="-1" Cut="0.0000000000000000e+00" cType="1" res="-4.0129553526639938e-02" rms="3.4868425130844116e-01" purity="2.1552149951457977e-01" nType="-1"/>
        </Node>
      </Node>
    </BinaryTree>
    <BinaryTree type="DecisionTree" boostWeight="1.0000000000000000e+00" itree="11">
      <Node pos="s" depth="0" NCoef="0" IVar="16" Cut="9.4070059061050415e-01" cType="0" res="1.8350723385810852e-01" rms="2.6671794056892395e-01" purity="8.9580005407333374e-01" nType="0">
        <Node pos="l" depth="1" NCoef="0" IVar="-1" Cut="0.0000000000000000e+00" cType="1" res="3.6480583250522614e-02" rms="2.3295287787914276e-01" purity="9.3540579080581665e-01" nType="1"/>
        <Node pos="r" depth="1" NCoef="0" IVar="0" Cut="1.2356553971767426e-01" cType="0" res="-2.7977377176284790e-02" rms="3.9543259143829346e-01" purity="5.7766109704971313e-01" nType="0">
          <Node pos="l" depth="2" NCoef="0" IVar="-1" Cut="0.0000000000000000e+00" cType="1" res="3.4182079136371613e-02" rms="2.4689599871635437e-01" purity="9.2855441570281982e-01" nType="1"/>
          <Node pos="r" depth="2" NCoef="0" IVar="-1" Cut="0.0000000000000000e+00" cType="1" res="-4.8413943499326706e-02" rms="3.6608999967575073e-01" purity="2.0960378646850586e-01" nType="-1"/>
        </Node>
      </Node>
    </BinaryTree>
    <BinaryTree type="DecisionTree" boostWeight="1.0000000000000000e+00" itree="12">
      <Node pos="s" depth="0" NCoef="0" IVar="4" Cut="2.9835884924978018e-03" cType="1" res="1.7128799855709076e-01" rms="2.6361423730850220e-01" purity="8.9580005407333374e-01" nType="0">
        <Node pos="l" depth="1" NCoef="0" IVar="-1" Cut="0.0000000000000000e+00" cType="1" res="3.3974837511777878e-02" rms="2.4161504209041595e-01" purity="9.2644119262695312e-01" nType="1"/>
        <Node pos="r" depth="1" NCoef="0" IVar="0" Cut="9.4269573688507080e-02" cType="0" res="-1.0195861756801605e-01" rms="3.9631333947181702e-01" purity="4.3486067652702332e-01" nType="0">
          <Node pos="l" depth="2" NCoef="0" IVar="-1" Cut="0.0000000000000000e+00" cType="1" res="9.4526354223489761e-03" rms="4.1022431850433350e-01" purity="7.5022941827774048e-01" nType="1"/>
          <Node pos="r" depth="2" NCoef="0" IVar="-1" Cut="0.0000000000000000e+00" cType="1" res="-4.2397357523441315e-02" rms="3.3060273528099060e-01" purity="1.7764706909656525e-01" nType="-1"/>
        </Node>
      </Node>
    </BinaryTree>
    <BinaryTree type="DecisionTree" boostWeight="1.0000000000000000e+00" itree="13">
      <Node pos="s" depth="0" NCoef="0" IVar="15" Cut="-1.5123846009373665e-02" cType="0" res="1.5978714823722839e-01" rms="2.6215231418609619e-01" purity="8.9580005407333374e-01" nType="0">
        <Node pos="l" depth="1" NCoef="0" IVar="-1" Cut="0.0000000000000000e+00" cType="1" res="3.4326009452342987e-02" rms="2.2884057462215424e-01" purity="9.3898278474807739e-01" nType="1"/>
        <Node pos="r" depth="1" NCoef="0" IVar="9" Cut="1.1331726796925068e-02" cType="1" res="-3.3109284937381744e-02" rms="3.9553871750831604e-01" purity="5.5354851484298706e-01" nType="0">
          <Node pos="l" depth="2" NCoef="0" IVar="-1" Cut="0.0000000000000000e+00" cType="1" res="1.2317827902734280e-02" rms="3.6947882175445557e-01" purity="7.0586812496185303e-01" nType="1"/>
          <Node pos="r" depth="2" NCoef="0" IVar="-1" Cut="0.0000000000000000e+00" cType="1" res="-4.0555272251367569e-02" rms="3.6500635743141174e-01" purity="2.7177533507347107e-01" nType="-1"/>
        </Node>
      </Node>
    </BinaryTree>
    <BinaryTree type="DecisionTree" boostWeight="1.0000000000000000e+00" itree="14">
      <Node pos="s" depth="0" NCoef="0" IVar="16" Cut="9.5069497823715210e-01" cType="0" res="1.4906382560729980e-01" rms="2.6044774055480957e-01" purity="8.9580005407333374e-01" nType="0">
        <Node pos="l" depth="1" NCoef="0" IVar="-1" Cut="0.0000000000000000e+00" cType="1" res="3.3298917114734650e-02" rms="2.2925983369350433e-01" purity="9.3651908636093140e-01" nType="1"/>
        <Node pos="r" depth="1" NCoef="0" IVar="0" Cut="9.6671678125858307e-02" cType="0" res="-3.2234769314527512e-02" rms="3.8005408644676208e-01" purity="5.9217226505279541e-01" nType="0">
          <Node pos="l" depth="2" NCoef="0" IVar="-1" Cut="0.0000000000000000e+00" cType="1" res="3.0613349750638008e-02" rms="2.5020998716354370e-01" purity="9.2482328414916992e-01" nType="1"/>
          <Node pos="r" depth="2" NCoef="0" IVar="-1" Cut="0.0000000000000000e+00" cType="1" res="-4.6756632626056671e-02" rms="3.7069299817085266e-01" purity="2.2121512889862061e-01" nType="-1"/>
        </Node>
      </Node>
    </BinaryTree>
    <BinaryTree type="DecisionTree" boostWeight="1.0000000000000000e+00" itree="15">
      <Node pos="s" depth="0" NCoef="0" IVar="4" Cut="2.3854717146605253e-03" cType="1" res="1.3916550576686859e-01" rms="2.5790539383888245e-01" purity="8.9580005407333374e-01" nType="0">
        <Node pos="l" depth="1" NCoef="0" IVar="-1" Cut="0.0000000000000000e+00" cType="1" res="3.1797777861356735e-02" rms="2.3100426793098450e-01" purity="9.3318134546279907e-01" nType="1"/>
        <Node pos="r" depth="1" NCoef="0" IVar="15" Cut="-1.0897438041865826e-02" cType="0" res="-4.9222521483898163e-02" rms="3.8254979252815247e-01" purity="5.5691236257553101e-01" nType="0">
          <Node pos="l" depth="2" NCoef="0" IVar="-1" Cut="0.0000000000000000e+00" cType="1" res="1.1451734229922295e-02" rms="3.6656099557876587e-01" purity="7.8830951452255249e-01" nType="1"/>
          <Node pos="r" depth="2" NCoef="0" IVar="-1" Cut="0.0000000000000000e+00" cType="1" res="-3.8970738649368286e-02" rms="3.4456405043601990e-01" purity="2.2579579055309296e-01" nType="-1"/>
        </Node>
      </Node>
    </BinaryTree>
    <BinaryTree type="DecisionTree" boostWeight="1.0000000000000000e+00" itree="16">
      <Node pos="s" depth="0" NCoef="0" IVar="16" Cut="9.6068936586380005e-01" cType="0" res="1.2981463968753815e-01" rms="2.5658592581748962e-01" purity="8.9580005407333374e-01" nType="0">
        <Node pos="l" depth="1" NCoef="0" IVar="-1" Cut="0.0000000000000000e+00" cType="1" res="3.1523592770099640e-02" rms="2.2624203562736511e-01" purity="9.3776059150695801e-01" nType="1"/>
        <Node pos="r" depth="1" NCoef="0" IVar="0" Cut="1.2356553971767426e-01" cType="0" res="-2.8466003015637398e-02" rms="3.7018999457359314e-01" purity="6.0959690809249878e-01" nType="0">
          <Node pos="l" depth="2" NCoef="0" IVar="-1" Cut="0.0000000000000000e+00" cType="1" res="2.9673712328076363e-02" rms="2.3963499069213867e-01" purity="9.3169558048248291e-01" nType="1"/>
          <Node pos="r" depth="2" NCoef="0" IVar="-1" Cut="0.0000000000000000e+00" cType="1" res="-4.1818510740995407e-02" rms="3.8230580091476440e-01" purity="2.6144990324974060e-01" nType="-1"/>
        </Node>
      </Node>
    </BinaryTree>
    <BinaryTree type="DecisionTree" boostWeight="1.0000000000000000e+00" itree="17">
      <Node pos="s" depth="0" NCoef="0" IVar="15" Cut="-1.2089438736438751e-02" cType="0" res="1.2119774520397186e-01" rms="2.5443670153617859e-01" purity="8.9580005407333374e-01" nType="0">
        <Node pos="l" depth="1" NCoef="0" IVar="-1" Cut="0.0000000000000000e+00" cType="1" res="3.0817760154604912e-02" rms="2.2208422422409058e-01" purity="9.4098740816116333e-01" nType="1"/>
        <Node pos="r" depth="1" NCoef="0" IVar="9" Cut="1.1880097910761833e-02" cType="1" res="-3.1069092452526093e-02" rms="3.7686133384704590e-01" purity="5.9122741222381592e-01" nType="0">
          <Node pos="l" depth="2" NCoef="0" IVar="-1" Cut="0.0000000000000000e+00" cType="1" res="6.8868915550410748e-03" rms="3.5880813002586365e-01" purity="7.0307904481887817e-01" nType="1"/>
          <Node pos="r" depth="2" NCoef="0" IVar="-1" Cut="0.0000000000000000e+00" cType="1" res="-4.8771779984235764e-02" rms="3.4430569410324097e-01" purity="2.1555221080780029e-01" nType="-1"/>
        </Node>
      </Node>
    </BinaryTree>
    <BinaryTree type="DecisionTree" boostWeight="1.0000000000000000e+00" itree="18">
      <Node pos="s" depth="0" NCoef="0" IVar="4" Cut="3.4522882197052240e-03" cType="1" res="1.1306940019130707e-01" rms="2.5313469767570496e-01" purity="8.9580005407333374e-01" nType="0">
        <Node pos="l" depth="1" NCoef="0" IVar="-1" Cut="0.0000000000000000e+00" cType="1" res="2.7405468747019768e-02" rms="2.3941092193126678e-01" purity="9.2203849554061890e-01" nType="1"/>
        <Node pos="r" depth="1" NCoef="0" IVar="0" Cut="9.6262782812118530e-02" cType="0" res="-1.3785426318645477e-01" rms="3.6875897645950317e-01" purity="3.6031109094619751e-01" nType="0">
          <Node pos="l" depth="2" NCoef="0" IVar="-1" Cut="0.0000000000000000e+00" cType="1" res="-3.8228887133300304e-03" rms="4.2453911900520325e-01" purity="6.9640737771987915e-01" nType="1"/>
          <Node pos="r" depth="2" NCoef="0" IVar="-1" Cut="0.0000000000000000e+00" cType="1" res="-4.4309608638286591e-02" rms="3.0132719874382019e-01" purity="1.3220174610614777e-01" nType="-1"/>
        </Node>
      </Node>
    </BinaryTree>
    <BinaryTree type="DecisionTree" boostWeight="1.0000000000000000e+00" itree="19">
      <Node pos="s" depth="0" NCoef="0" IVar="16" Cut="9.7068375349044800e-01" cType="0" res="1.0547328740358353e-01" rms="2.5242292881011963e-01" purity="8.9580005407333374e-01" nType="0">
        <Node pos="l" depth="1" NCoef="0" IVar="-1" Cut="0.0000000000000000e+00" cType="1" res="2.9129646718502045e-02" rms="2.2261968255043030e-01" purity="9.3906933069229126e-01" nType="1"/>
        <Node pos="r" depth="1" NCoef="0" IVar="0" Cut="9.1691337525844574e-02" cType="0" res="-3.0440388247370720e-02" rms="3.6034092307090759e-01" purity="6.2811595201492310e-01" nType="0">
          <Node pos="l" depth="2" NCoef="0" IVar="-1" Cut="0.0000000000000000e+00" cType="1" res="2.6613539084792137e-02" rms="2.4316143989562988e-01" purity="9.2760711908340454e-01" nType="1"/>
          <Node pos="r" depth="2" NCoef="0" IVar="-1" Cut="0.0000000000000000e+00" cType="1" res="-4.0152084082365036e-02" rms="3.8582226634025574e-01" purity="2.8763511776924133e-01" nType="-1"/>
        </Node>
      </Node>
    </BinaryTree>
    <BinaryTree type="DecisionTree" boostWeight="1.0000000000000000e+00" itree="20">
      <Node pos="s" depth="0" NCoef="0" IVar="15" Cut="-1.4365243725478649e-02" cType="0" res="9.8478958010673523e-02" rms="2.5063583254814148e-01" purity="8.9580005407333374e-01" nType="0">
        <Node pos="l" depth="1" NCoef="0" IVar="-1" Cut="0.0000000000000000e+00" cType="1" res="2.7950843796133995e-02" rms="2.2329859435558319e-01" purity="9.3943709135055542e-01" nType="1"/>
        <Node pos="r" depth="1" NCoef="0" IVar="9" Cut="1.1024103499948978e-02" cType="1" res="-4.7892104834318161e-02" rms="3.7118810415267944e-01" purity="5.6173557043075562e-01" nType="0">
          <Node pos="l" depth="2" NCoef="0" IVar="-1" Cut="0.0000000000000000e+00" cType="1" res="8.8341897353529930e-03" rms="3.4729865193367004e-01" purity="7.3202770948410034e-01" nType="1"/>
          <Node pos="r" depth="2" NCoef="0" IVar="-1" Cut="0.0000000000000000e+00" cType="1" res="-3.5589557141065598e-02" rms="3.6263340711593628e-01" purity="3.1856104731559753e-01" nType="-1"/>
        </Node>
      </Node>
    </BinaryTree>
    <BinaryTree type="DecisionTree" boostWeight="1.0000000000000000e+00" itree="21">
      <Node pos="s" depth="0" NCoef="0" IVar="4" Cut="2.3609872441738844e-03" cType="1" res="9.1887265443801880e-02" rms="2.4963748455047607e-01" purity="8.9580005407333374e-01" nType="0">
        <Node pos="l" depth="1" NCoef="0" IVar="-1" Cut="0.0000000000000000e+00" cType="1" res="2.6541810482740402e-02" rms="2.2679235041141510e-01" purity="9.3346047401428223e-01" nType="1"/>
        <Node pos="r" depth="1" NCoef="0" IVar="0" Cut="6.8357907235622406e-02" cType="0" res="-5.9003811329603195e-02" rms="3.6522927880287170e-01" purity="5.6220221519470215e-01" nType="0">
          <Node pos="l" depth="2" NCoef="0" IVar="-1" Cut="0.0000000000000000e+00" cType="1" res="6.8179918453097343e-03" rms="3.5772183537483215e-01" purity="8.0455708503723145e-01" nType="1"/>
          <Node pos="r" depth="2" NCoef="0" IVar="-1" Cut="0.0000000000000000e+00" cType="1" res="-3.8361962884664536e-02" rms="3.3704003691673279e-01" purity="2.4083489179611206e-01" nType="-1"/>
        </Node>
      </Node>
    </BinaryTree>
    <BinaryTree type="DecisionTree" boostWeight="1.0000000000000000e+00" itree="22">
      <Node pos="s" depth="0" NCoef="0" IVar="16" Cut="9.7068375349044800e-01" cType="0" res="8.5739202797412872e-02" rms="2.4878895282745361e-01" purity="8.9580005407333374e-01" nType="0">
        <Node pos="l" depth="1" NCoef="0" IVar="-1" Cut="0.0000000000000000e+00" cType="1" res="2.6680544018745422e-02" rms="2.2153800725936890e-01" purity="9.3906933069229126e-01" nType="1"/>
        <Node pos="r" depth="1" NCoef="0" IVar="0" Cut="1.2356553971767426e-01" cType="0" res="-3.6094605922698975e-02" rms="3.5205698013305664e-01" purity="6.2811595201492310e-01" nType="0">
          <Node pos="l" depth="2" NCoef="0" IVar="-1" Cut="0.0000000000000000e+00" cType="1" res="2.5341337546706200e-02" rms="2.3360069096088409e-01" purity="9.3418407440185547e-01" nType="1"/>
          <Node pos="r" depth="2" NCoef="0" IVar="-1" Cut="0.0000000000000000e+00" cType="1" res="-3.8143657147884369e-02" rms="3.8727605342864990e-01" purity="2.9889732599258423e-01" nType="-1"/>
        </Node>
      </Node>
    </BinaryTree>
    <BinaryTree type="DecisionTree" boostWeight="1.0000000000000000e+00" itree="23">
      <Node pos="s" depth="0" NCoef="0" IVar="15" Cut="-1.0319367982447147e-02" cType="0" res="8.0065548419952393e-02" rms="2.4734202027320862e-01" purity="8.9580005407333374e-01" nType="0">
        <Node pos="l" depth="1" NCoef="0" IVar="-1" Cut="0.0000000000000000e+00" cType="1" res="2.6224449276924133e-02" rms="2.1715775132179260e-01" purity="9.4213002920150757e-01" nType="1"/>
        <Node pos="r" depth="1" NCoef="0" IVar="9" Cut="1.2027221731841564e-02" cType="1" res="-3.7753511220216751e-02" rms="3.6008203029632568e-01" purity="6.1604362726211548e-01" nType="0">
          <Node pos="l" depth="2" NCoef="0" IVar="-1" Cut="0.0000000000000000e+00" cType="1" res="2.4521318264305592e-03" rms="3.4692409634590149e-01" purity="7.1344673633575439e-01" nType="1"/>
          <Node pos="r" depth="2" NCoef="0" IVar="-1" Cut="0.0000000000000000e+00" cType="1" res="-4.9848902970552444e-02" rms="3.4063994884490967e-01" purity="2.1060547232627869e-01" nType="-1"/>
        </Node>
      </Node>
    </BinaryTree>
    <BinaryTree type="DecisionTree" boostWeight="1.0000000000000000e+00" itree="24">
      <Node pos="s" depth="0" NCoef="0" IVar="9" Cut="1.2551477178931236e-02" cType="1" res="7.4702180922031403e-02" rms="2.4645949900150299e-01" purity="8.9580005407333374e-01" nType="0">
        <Node pos="l" depth="1" NCoef="0" IVar="-1" Cut="0.0000000000000000e+00" cType="1" res="2.2274224087595940e-02" rms="2.3447804152965546e-01" purity="9.1397774219512939e-01" nType="1"/>
        <Node pos="r" depth="1" NCoef="0" IVar="15" Cut="-4.1854763403534889e-03" cType="0" res="-1.4501146972179413e-01" rms="3.7766554951667786e-01" purity="4.7855633497238159e-01" nType="0">
          <Node pos="l" depth="2" NCoef="0" IVar="-1" Cut="0.0000000000000000e+00" cType="1" res="-7.4171245796605945e-04" rms="3.6261337995529175e-01" purity="7.9493200778961182e-01" nType="1"/>
          <Node pos="r" depth="2" NCoef="0" IVar="-1" Cut="0.0000000000000000e+00" cType="1" res="-5.3653586655855179e-02" rms="3.5179305076599121e-01" purity="2.3426349461078644e-01" nType="-1"/>
        </Node>
      </Node>
    </BinaryTree>
    <BinaryTree type="DecisionTree" boostWeight="1.0000000000000000e+00" itree="25">
      <Node pos="s" depth="0" NCoef="0" IVar="4" Cut="2.3644850589334965e-03" cType="1" res="6.9646134972572327e-02" rms="2.4594148993492126e-01" purity="8.9580005407333374e-01" nType="0">
        <Node pos="l" depth="1" NCoef="0" IVar="-1" Cut="0.0000000000000000e+00" cType="1" res="2.3431265726685524e-02" rms="2.2507353127002716e-01" purity="9.3342369794845581e-01" nType="1"/>
        <Node pos="r" depth="1" NCoef="0" IVar="15" Cut="-5.4762624204158783e-03" cType="0" res="-6.3663929700851440e-02" rms="3.5791024565696716e-01" purity="5.6131768226623535e-01" nType="0">
          <Node pos="l" depth="2" NCoef="0" IVar="-1" Cut="0.0000000000000000e+00" cType="1" res="5.2791810594499111e-03" rms="3.4133219718933105e-01" purity="8.0339193344116211e-01" nType="1"/>
          <Node pos="r" depth="2" NCoef="0" IVar="-1" Cut="0.0000000000000000e+00" cType="1" res="-3.3781196922063828e-02" rms="3.5107600688934326e-01" purity="2.9941576719284058e-01" nType="-1"/>
        </Node>
      </Node>
    </BinaryTree>
    <BinaryTree type="DecisionTree" boostWeight="1.0000000000000000e+00" itree="26">
      <Node pos="s" depth="0" NCoef="0" IVar="16" Cut="9.8067814111709595e-01" cType="0" res="6.4971730113029480e-02" rms="2.4534344673156738e-01" purity="8.9580005407333374e-01" nType="0">
        <Node pos="l" depth="1" NCoef="0" IVar="-1" Cut="0.0000000000000000e+00" cType="1" res="2.4097593501210213e-02" rms="2.1770736575126648e-01" purity="9.4031512737274170e-01" nType="1"/>
        <Node pos="r" depth="1" NCoef="0" IVar="0" Cut="9.1691337525844574e-02" cType="0" res="-3.9088416844606400e-02" rms="3.4384468197822571e-01" purity="6.4944392442703247e-01" nType="0">
          <Node pos="l" depth="2" NCoef="0" IVar="-1" Cut="0.0000000000000000e+00" cType="1" res="2.2142603993415833e-02" rms="2.3709191381931305e-01" purity="9.2980849742889404e-01" nType="1"/>
          <Node pos="r" depth="2" NCoef="0" IVar="-1" Cut="0.0000000000000000e+00" cType="1" res="-3.7315841764211655e-02" rms="3.8670077919960022e-01" purity="3.3773201704025269e-01" nType="-1"/>
        </Node>
      </Node>
    </BinaryTree>
    <BinaryTree type="DecisionTree" boostWeight="1.0000000000000000e+00" itree="27">
      <Node pos="s" depth="0" NCoef="0" IVar="15" Cut="-1.2089438736438751e-02" cType="0" res="6.0678958892822266e-02" rms="2.4412918090820312e-01" purity="8.9580005407333374e-01" nType="0">
        <Node pos="l" depth="1" NCoef="0" IVar="-1" Cut="0.0000000000000000e+00" cType="1" res="2.3016991093754768e-02" rms="2.1827006340026855e-01" purity="9.4098740816116333e-01" nType="1"/>
        <Node pos="r" depth="1" NCoef="0" IVar="9" Cut="1.1144477874040604e-02" cType="1" res="-4.9628477543592453e-02" rms="3.5527515411376953e-01" purity="5.9122741222381592e-01" nType="0">
          <Node pos="l" depth="2" NCoef="0" IVar="-1" Cut="0.0000000000000000e+00" cType="1" res="3.9470070041716099e-03" rms="3.3607307076454163e-01" purity="7.4630570411682129e-01" nType="1"/>
          <Node pos="r" depth="2" NCoef="0" IVar="-1" Cut="0.0000000000000000e+00" cType="1" res="-3.4625269472599030e-02" rms="3.5790500044822693e-01" purity="3.3261400461196899e-01" nType="-1"/>
        </Node>
      </Node>
    </BinaryTree>
    <BinaryTree type="DecisionTree" boostWeight="1.0000000000000000e+00" itree="28">
      <Node pos="s" depth="0" NCoef="0" IVar="16" Cut="9.4070059061050415e-01" cType="0" res="5.6624218821525574e-02" rms="2.4349442124366760e-01" purity="8.9580005407333374e-01" nType="0">
        <Node pos="l" depth="1" NCoef="0" IVar="-1" Cut="0.0000000000000000e+00" cType="1" res="2.1489705890417099e-02" rms="2.2509706020355225e-01" purity="9.3540579080581665e-01" nType="1"/>
        <Node pos="r" depth="1" NCoef="0" IVar="2" Cut="1.0005496978759766e+01" cType="1" res="-5.8995671570301056e-02" rms="3.3690607547760010e-01" purity="5.7766109704971313e-01" nType="0">
          <Node pos="l" depth="2" NCoef="0" IVar="-1" Cut="0.0000000000000000e+00" cType="1" res="1.2819143012166023e-02" rms="2.7762788534164429e-01" purity="8.2950556278228760e-01" nType="1"/>
          <Node pos="r" depth="2" NCoef="0" IVar="-1" Cut="0.0000000000000000e+00" cType="1" res="-5.1660038530826569e-02" rms="3.4665715694427490e-01" purity="1.6894426941871643e-01" nType="-1"/>
        </Node>
      </Node>
    </BinaryTree>
    <BinaryTree type="DecisionTree" boostWeight="1.0000000000000000e+00" itree="29">
      <Node pos="s" depth="0" NCoef="0" IVar="10" Cut="5.7118132710456848e-02" cType="1" res="5.2899464964866638e-02" rms="2.4244737625122070e-01" purity="8.9580005407333374e-01" nType="0">
        <Node pos="l" depth="1" NCoef="0" IVar="-1" Cut="0.0000000000000000e+00" cType="1" res="1.9822396337985992e-02" rms="2.2560095787048340e-01" purity="9.1763192415237427e-01" nType="1"/>
        <Node pos="r" depth="1" NCoef="0" IVar="0" Cut="1.3014726340770721e-01" cType="0" res="-8.9568689465522766e-02" rms="3.6931681632995605e-01" purity="6.2024915218353271e-01" nType="0">
          <Node pos="l" depth="2" NCoef="0" IVar="-1" Cut="0.0000000000000000e+00" cType="1" res="-2.6938279625028372e-03" rms="3.5552635788917542e-01" purity="8.2127940654754639e-01" nType="1"/>
          <Node pos="r" depth="2" NCoef="0" IVar="-1" Cut="0.0000000000000000e+00" cType="1" res="-5.1391519606113434e-02" rms="3.5516104102134705e-01" purity="2.8505870699882507e-01" nType="-1"/>
        </Node>
      </Node>
    </BinaryTree>
    <BinaryTree type="DecisionTree" boostWeight="1.0000000000000000e+00" itree="30">
      <Node pos="s" depth="0" NCoef="0" IVar="13" Cut="3.7171620875597000e-02" cType="1" res="4.9304001033306122e-02" rms="2.4196682870388031e-01" purity="8.9580005407333374e-01" nType="0">
        <Node pos="l" depth="1" NCoef="0" IVar="-1" Cut="0.0000000000000000e+00" cType="1" res="1.8581984564661980e-02" rms="2.2865433990955353e-01" purity="9.1367161273956299e-01" nType="1"/>
        <Node pos="r" depth="1" NCoef="0" IVar="0" Cut="6.8325214087963104e-02" cType="0" res="-1.0280409455299377e-01" rms="3.5953196883201599e-01" purity="6.2374758720397949e-01" nType="0">
          <Node pos="l" depth="2" NCoef="0" IVar="-1" Cut="0.0000000000000000e+00" cType="1" res="6.6134001826867461e-04" rms="3.1832543015480042e-01" purity="8.5813403129577637e-01" nType="1"/>
          <Node pos="r" depth="2" NCoef="0" IVar="-1" Cut="0.0000000000000000e+00" cType="1" res="-5.0623692572116852e-02" rms="3.6589771509170532e-01" purity="3.4988114237785339e-01" nType="-1"/>
        </Node>
      </Node>
    </BinaryTree>
    <BinaryTree type="DecisionTree" boostWeight="1.0000000000000000e+00" itree="31">
      <Node pos="s" depth="0" NCoef="0" IVar="15" Cut="-8.8021652773022652e-03" cType="0" res="4.5961681753396988e-02" rms="2.4145242571830750e-01" purity="8.9580005407333374e-01" nType="0">
        <Node pos="l" depth="1" NCoef="0" IVar="-1" Cut="0.0000000000000000e+00" cType="1" res="2.1030353382229805e-02" rms="2.1300815045833588e-01" purity="9.4330579042434692e-01" nType="1"/>
        <Node pos="r" depth="1" NCoef="0" IVar="9" Cut="1.1331726796925068e-02" cType="1" res="-4.3917454779148102e-02" rms="3.4360805153846741e-01" purity="6.4093542098999023e-01" nType="0">
          <Node pos="l" depth="2" NCoef="0" IVar="-1" Cut="0.0000000000000000e+00" cType="1" res="2.3523131385445595e-03" rms="3.2177218794822693e-01" purity="7.7336215972900391e-01" nType="1"/>
          <Node pos="r" depth="2" NCoef="0" IVar="-1" Cut="0.0000000000000000e+00" cType="1" res="-3.6135829985141754e-02" rms="3.6053198575973511e-01" purity="3.5099101066589355e-01" nType="-1"/>
        </Node>
      </Node>
    </BinaryTree>
    <BinaryTree type="DecisionTree" boostWeight="1.0000000000000000e+00" itree="32">
      <Node pos="s" depth="0" NCoef="0" IVar="4" Cut="2.3609872441738844e-03" cType="1" res="4.2894475162029266e-02" rms="2.4087430536746979e-01" purity="8.9580005407333374e-01" nType="0">
        <Node pos="l" depth="1" NCoef="0" IVar="-1" Cut="0.0000000000000000e+00" cType="1" res="1.8785040825605392e-02" rms="2.2177518904209137e-01" purity="9.3346047401428223e-01" nType="1"/>
        <Node pos="r" depth="1" NCoef="0" IVar="0" Cut="9.4269573688507080e-02" cType="0" res="-7.0398598909378052e-02" rms="3.4929588437080383e-01" purity="5.6220221519470215e-01" nType="0">
          <Node pos="l" depth="2" NCoef="0" IVar="-1" Cut="0.0000000000000000e+00" cType="1" res="3.5589985782280564e-04" rms="3.4240207076072693e-01" purity="8.2194811105728149e-01" nType="1"/>
          <Node pos="r" depth="2" NCoef="0" IVar="-1" Cut="0.0000000000000000e+00" cType="1" res="-3.5434573888778687e-02" rms="3.3962461352348328e-01" purity="2.7712997794151306e-01" nType="-1"/>
        </Node>
      </Node>
    </BinaryTree>
    <BinaryTree type="DecisionTree" boostWeight="1.0000000000000000e+00" itree="33">
      <Node pos="s" depth="0" NCoef="0" IVar="0" Cut="4.8178151249885559e-02" cType="0" res="4.0038146078586578e-02" rms="2.4042683839797974e-01" purity="8.9580005407333374e-01" nType="0">
        <Node pos="l" depth="1" NCoef="0" IVar="-1" Cut="0.0000000000000000e+00" cType="1" res="2.0381664857268333e-02" rms="2.1317897737026215e-01" purity="9.4119918346405029e-01" nType="1"/>
        <Node pos="r" depth="1" NCoef="0" IVar="16" Cut="9.7737324237823486e-01" cType="0" res="-3.0471539124846458e-02" rms="3.1019496917724609e-01" purity="7.3138976097106934e-01" nType="0">
          <Node pos="l" depth="2" NCoef="0" IVar="-1" Cut="0.0000000000000000e+00" cType="1" res="6.7281234078109264e-03" rms="2.6880204677581787e-01" purity="8.8607138395309448e-01" nType="1"/>
          <Node pos="r" depth="2" NCoef="0" IVar="-1" Cut="0.0000000000000000e+00" cType="1" res="-3.8476634770631790e-02" rms="3.6865344643592834e-01" purity="3.0347374081611633e-01" nType="-1"/>
        </Node>
      </Node>
    </BinaryTree>
    <BinaryTree type="DecisionTree" boostWeight="1.0000000000000000e+00" itree="34">
      <Node pos="s" depth="0" NCoef="0" IVar="9" Cut="1.2620982713997364e-02" cType="1" res="3.7409093230962753e-02" rms="2.3967783153057098e-01" purity="8.9580005407333374e-01" nType="0">
        <Node pos="l" depth="1" NCoef="0" IVar="-1" Cut="0.0000000000000000e+00" cType="1" res="1.5386774204671383e-02" rms="2.3029874265193939e-01" purity="9.1319692134857178e-01" nType="1"/>
        <Node pos="r" depth="1" NCoef="0" IVar="14" Cut="1.1006098985671997e+00" cType="1" res="-1.4206109941005707e-01" rms="3.6534485220909119e-01" purity="4.6348929405212402e-01" nType="0">
          <Node pos="l" depth="2" NCoef="0" IVar="-1" Cut="0.0000000000000000e+00" cType="1" res="-6.4734057523310184e-03" rms="3.5343775153160095e-01" purity="7.9433387517929077e-01" nType="1"/>
          <Node pos="r" depth="2" NCoef="0" IVar="-1" Cut="0.0000000000000000e+00" cType="1" res="-5.3072411566972733e-02" rms="3.5202097892761230e-01" purity="2.4200052022933960e-01" nType="-1"/>
        </Node>
      </Node>
    </BinaryTree>
    <BinaryTree type="DecisionTree" boostWeight="1.0000000000000000e+00" itree="35">
      <Node pos="s" depth="0" NCoef="0" IVar="10" Cut="5.7118132710456848e-02" cType="1" res="3.4875504672527313e-02" rms="2.3937819898128510e-01" purity="8.9580005407333374e-01" nType="0">
        <Node pos="l" depth="1" NCoef="0" IVar="-1" Cut="0.0000000000000000e+00" cType="1" res="1.6022691503167152e-02" rms="2.2387377917766571e-01" purity="9.1763192415237427e-01" nType="1"/>
        <Node pos="r" depth="1" NCoef="0" IVar="0" Cut="1.3014726340770721e-01" cType="0" res="-9.0467557311058044e-02" rms="3.6193829774856567e-01" purity="6.2024915218353271e-01" nType="0">
          <Node pos="l" depth="2" NCoef="0" IVar="-1" Cut="0.0000000000000000e+00" cType="1" res="-6.6490652970969677e-03" rms="3.5335671901702881e-01" purity="8.2127940654754639e-01" nType="1"/>
          <Node pos="r" depth="2" NCoef="0" IVar="-1" Cut="0.0000000000000000e+00" cType="1" res="-4.8719048500061035e-02" rms="3.5083490610122681e-01" purity="2.8505870699882507e-01" nType="-1"/>
        </Node>
      </Node>
    </BinaryTree>
    <BinaryTree type="DecisionTree" boostWeight="1.0000000000000000e+00" itree="36">
      <Node pos="s" depth="0" NCoef="0" IVar="16" Cut="9.9067252874374390e-01" cType="0" res="3.2497607171535492e-02" rms="2.3902966082096100e-01" purity="8.9580005407333374e-01" nType="0">
        <Node pos="l" depth="1" NCoef="0" IVar="-1" Cut="0.0000000000000000e+00" cType="1" res="1.8216853961348534e-02" rms="2.1285066008567810e-01" purity="9.4162195920944214e-01" nType="1"/>
        <Node pos="r" depth="1" NCoef="0" IVar="0" Cut="1.2356553971767426e-01" cType="0" res="-4.4591620564460754e-02" rms="3.2772678136825562e-01" purity="6.7332339286804199e-01" nType="0">
          <Node pos="l" depth="2" NCoef="0" IVar="-1" Cut="0.0000000000000000e+00" cType="1" res="1.7529919743537903e-02" rms="2.2743366658687592e-01" purity="9.3614602088928223e-01" nType="1"/>
          <Node pos="r" depth="2" NCoef="0" IVar="-1" Cut="0.0000000000000000e+00" cType="1" res="-3.3683665096759796e-02" rms="3.7836098670959473e-01" purity="4.1331812739372253e-01" nType="-1"/>
        </Node>
      </Node>
    </BinaryTree>
    <BinaryTree type="DecisionTree" boostWeight="1.0000000000000000e+00" itree="37">
      <Node pos="s" depth="0" NCoef="0" IVar="15" Cut="-8.8021652773022652e-03" cType="0" res="3.0374839901924133e-02" rms="2.3825161159038544e-01" purity="8.9580005407333374e-01" nType="0">
        <Node pos="l" depth="1" NCoef="0" IVar="-1" Cut="0.0000000000000000e+00" cType="1" res="1.7595024779438972e-02" rms="2.1154914796352386e-01" purity="9.4330579042434692e-01" nType="1"/>
        <Node pos="r" depth="1" NCoef="0" IVar="9" Cut="1.0061110369861126e-02" cType="1" res="-4.9027178436517715e-02" rms="3.3722528815269470e-01" purity="6.4093542098999023e-01" nType="0">
          <Node pos="l" depth="2" NCoef="0" IVar="-1" Cut="0.0000000000000000e+00" cType="1" res="9.0191559866070747e-03" rms="2.8998401761054993e-01" purity="8.4092557430267334e-01" nType="1"/>
          <Node pos="r" depth="2" NCoef="0" IVar="-1" Cut="0.0000000000000000e+00" cType="1" res="-2.6492420583963394e-02" rms="3.5617250204086304e-01" purity="4.9789598584175110e-01" nType="-1"/>
        </Node>
      </Node>
    </BinaryTree>
    <BinaryTree type="DecisionTree" boostWeight="1.0000000000000000e+00" itree="38">
      <Node pos="s" depth="0" NCoef="0" IVar="13" Cut="3.5672765225172043e-02" cType="1" res="2.8354149311780930e-02" rms="2.3777693510055542e-01" purity="8.9580005407333374e-01" nType="0">
        <Node pos="l" depth="1" NCoef="0" IVar="-1" Cut="0.0000000000000000e+00" cType="1" res="1.4096375554800034e-02" rms="2.2540114820003510e-01" purity="9.1433078050613403e-01" nType="1"/>
        <Node pos="r" depth="1" NCoef="0" IVar="0" Cut="6.9321781396865845e-02" cType="0" res="-9.9446326494216919e-02" rms="3.4685358405113220e-01" purity="6.3312357664108276e-01" nType="0">
          <Node pos="l" depth="2" NCoef="0" IVar="-1" Cut="0.0000000000000000e+00" cType="1" res="-4.8922309651970863e-03" rms="3.1277692317962646e-01" purity="8.6231100559234619e-01" nType="1"/>
          <Node pos="r" depth="2" NCoef="0" IVar="-1" Cut="0.0000000000000000e+00" cType="1" res="-4.7599896788597107e-02" rms="3.5846725106239319e-01" purity="3.6802041530609131e-01" nType="-1"/>
        </Node>
      </Node>
    </BinaryTree>
    <BinaryTree type="DecisionTree" boostWeight="1.0000000000000000e+00" itree="39">
      <Node pos="s" depth="0" NCoef="0" IVar="4" Cut="2.1546196658164263e-03" cType="1" res="2.6429288089275360e-02" rms="2.3735912144184113e-01" purity="8.9580005407333374e-01" nType="0">
        <Node pos="l" depth="1" NCoef="0" IVar="-1" Cut="0.0000000000000000e+00" cType="1" res="1.5373844653367996e-02" rms="2.1711884438991547e-01" purity="9.3553578853607178e-01" nType="1"/>
        <Node pos="r" depth="1" NCoef="0" IVar="15" Cut="-5.5101858451962471e-03" cType="0" res="-6.2449946999549866e-02" rms="3.3711278438568115e-01" purity="6.0939925909042358e-01" nType="0">
          <Node pos="l" depth="2" NCoef="0" IVar="-1" Cut="0.0000000000000000e+00" cType="1" res="-1.7264683265239000e-03" rms="3.1679287552833557e-01" purity="8.2815825939178467e-01" nType="1"/>
          <Node pos="r" depth="2" NCoef="0" IVar="-1" Cut="0.0000000000000000e+00" cType="1" res="-3.3110421150922775e-02" rms="3.4825673699378967e-01" purity="3.3442938327789307e-01" nType="-1"/>
        </Node>
      </Node>
    </BinaryTree>
    <BinaryTree type="DecisionTree" boostWeight="1.0000000000000000e+00" itree="40">
      <Node pos="s" depth="0" NCoef="0" IVar="0" Cut="5.9159066528081894e-02" cType="0" res="2.4669144302606583e-02" rms="2.3698846995830536e-01" purity="8.9580005407333374e-01" nType="0">
        <Node pos="l" depth="1" NCoef="0" IVar="-1" Cut="0.0000000000000000e+00" cType="1" res="1.7582673579454422e-02" rms="2.0796898007392883e-01" purity="9.4624161720275879e-01" nType="1"/>
        <Node pos="r" depth="1" NCoef="0" IVar="15" Cut="2.4613044224679470e-03" cType="1" res="-2.9201680794358253e-02" rms="2.9850101470947266e-01" purity="7.5181639194488525e-01" nType="0">
          <Node pos="l" depth="2" NCoef="0" IVar="-1" Cut="0.0000000000000000e+00" cType="1" res="-4.3674274347722530e-03" rms="2.7897149324417114e-01" purity="7.7674776315689087e-01" nType="1"/>
          <Node pos="r" depth="2" NCoef="0" IVar="-1" Cut="0.0000000000000000e+00" cType="1" res="-6.0473028570413589e-02" rms="4.4457286596298218e-01" purity="2.8872758150100708e-01" nType="-1"/>
        </Node>
      </Node>
    </BinaryTree>
    <BinaryTree type="DecisionTree" boostWeight="1.0000000000000000e+00" itree="41">
      <Node pos="s" depth="0" NCoef="0" IVar="5" Cut="3.2666087150573730e-02" cType="1" res="2.3060888051986694e-02" rms="2.3635485768318176e-01" purity="8.9580005407333374e-01" nType="0">
        <Node pos="l" depth="1" NCoef="0" IVar="-1" Cut="0.0000000000000000e+00" cType="1" res="1.1504609137773514e-02" rms="2.2924062609672546e-01" purity="9.1491174697875977e-01" nType="1"/>
        <Node pos="r" depth="1" NCoef="0" IVar="17" Cut="4.1123782284557819e-03" cType="0" res="-1.4668567478656769e-01" rms="3.4838572144508362e-01" purity="3.4579846262931824e-01" nType="0">
          <Node pos="l" depth="2" NCoef="0" IVar="-1" Cut="0.0000000000000000e+00" cType="1" res="1.0036664083600044e-02" rms="3.3944532275199890e-01" purity="7.8369659185409546e-01" nType="1"/>
          <Node pos="r" depth="2" NCoef="0" IVar="-1" Cut="0.0000000000000000e+00" cType="1" res="-5.2661176770925522e-02" rms="3.2806190848350525e-01" purity="2.0499779284000397e-01" nType="-1"/>
        </Node>
      </Node>
    </BinaryTree>
    <BinaryTree type="DecisionTree" boostWeight="1.0000000000000000e+00" itree="42">
      <Node pos="s" depth="0" NCoef="0" IVar="10" Cut="4.8130299896001816e-02" cType="1" res="2.1514864638447762e-02" rms="2.3604720830917358e-01" purity="8.9580005407333374e-01" nType="0">
        <Node pos="l" depth="1" NCoef="0" IVar="-1" Cut="0.0000000000000000e+00" cType="1" res="1.3842662796378136e-02" rms="2.1667076647281647e-01" purity="9.2522180080413818e-01" nType="1"/>
        <Node pos="r" depth="1" NCoef="0" IVar="0" Cut="1.3030838966369629e-01" cType="0" res="-6.1480138450860977e-02" rms="3.3210909366607666e-01" purity="6.8639385700225830e-01" nType="0">
          <Node pos="l" depth="2" NCoef="0" IVar="-1" Cut="0.0000000000000000e+00" cType="1" res="-2.9073806945234537e-03" rms="3.1291744112968445e-01" purity="8.6478376388549805e-01" nType="1"/>
          <Node pos="r" depth="2" NCoef="0" IVar="-1" Cut="0.0000000000000000e+00" cType="1" res="-4.2246006429195404e-02" rms="3.4499913454055786e-01" purity="3.4990772604942322e-01" nType="-1"/>
        </Node>
      </Node>
    </BinaryTree>
    <BinaryTree type="DecisionTree" boostWeight="1.0000000000000000e+00" itree="43">
      <Node pos="s" depth="0" NCoef="0" IVar="13" Cut="3.9929516613483429e-02" cType="1" res="2.0049719139933586e-02" rms="2.3565275967121124e-01" purity="8.9580005407333374e-01" nType="0">
        <Node pos="l" depth="1" NCoef="0" IVar="-1" Cut="0.0000000000000000e+00" cType="1" res="1.1316396296024323e-02" rms="2.2521801292896271e-01" purity="9.1270512342453003e-01" nType="1"/>
        <Node pos="r" depth="1" NCoef="0" IVar="0" Cut="6.8325214087963104e-02" cType="0" res="-1.0612141340970993e-01" rms="3.4596601128578186e-01" purity="6.1097961664199829e-01" nType="0">
          <Node pos="l" depth="2" NCoef="0" IVar="-1" Cut="0.0000000000000000e+00" cType="1" res="-1.0006132535636425e-02" rms="3.1995174288749695e-01" purity="8.5306644439697266e-01" nType="1"/>
          <Node pos="r" depth="2" NCoef="0" IVar="-1" Cut="0.0000000000000000e+00" cType="1" res="-4.7862239181995392e-02" rms="3.5317462682723999e-01" purity="3.3076396584510803e-01" nType="-1"/>
        </Node>
      </Node>
    </BinaryTree>
    <BinaryTree type="DecisionTree" boostWeight="1.0000000000000000e+00" itree="44">
      <Node pos="s" depth="0" NCoef="0" IVar="16" Cut="9.9067252874374390e-01" cType="0" res="1.8695404753088951e-02" rms="2.3532037436962128e-01" purity="8.9580005407333374e-01" nType="0">
        <Node pos="l" depth="1" NCoef="0" IVar="-1" Cut="0.0000000000000000e+00" cType="1" res="1.4257894828915596e-02" rms="2.1123810112476349e-01" purity="9.4162195920944214e-01" nType="1"/>
        <Node pos="r" depth="1" NCoef="0" IVar="2" Cut="9.0049972534179688e+00" cType="1" res="-4.7454245388507843e-02" rms="3.1986337900161743e-01" purity="6.7332339286804199e-01" nType="0">
          <Node pos="l" depth="2" NCoef="0" IVar="-1" Cut="0.0000000000000000e+00" cType="1" res="9.5665352419018745e-03" rms="2.5175234675407410e-01" purity="8.7806087732315063e-01" nType="1"/>
          <Node pos="r" depth="2" NCoef="0" IVar="-1" Cut="0.0000000000000000e+00" cType="1" res="-3.7578754127025604e-02" rms="3.6823207139968872e-01" purity="4.0837502479553223e-01" nType="-1"/>
        </Node>
      </Node>
    </BinaryTree>
    <BinaryTree type="DecisionTree" boostWeight="1.0000000000000000e+00" itree="45">
      <Node pos="s" depth="0" NCoef="0" IVar="15" Cut="-8.8021652773022652e-03" cType="0" res="1.7499934881925583e-02" rms="2.3466278612613678e-01" purity="8.9580005407333374e-01" nType="0">
        <Node pos="l" depth="1" NCoef="0" IVar="-1" Cut="0.0000000000000000e+00" cType="1" res="1.3814130797982216e-02" rms="2.0963460206985474e-01" purity="9.4330579042434692e-01" nType="1"/>
        <Node pos="r" depth="1" NCoef="0" IVar="9" Cut="9.9273612722754478e-03" cType="1" res="-5.1643401384353638e-02" rms="3.3023077249526978e-01" purity="6.4093542098999023e-01" nType="0">
          <Node pos="l" depth="2" NCoef="0" IVar="-1" Cut="0.0000000000000000e+00" cType="1" res="7.2155375964939594e-03" rms="2.8208893537521362e-01" purity="8.4774267673492432e-01" nType="1"/>
          <Node pos="r" depth="2" NCoef="0" IVar="-1" Cut="0.0000000000000000e+00" cType="1" res="-2.6222674176096916e-02" rms="3.4930977225303650e-01" purity="5.0906920433044434e-01" nType="1"/>
        </Node>
      </Node>
    </BinaryTree>
    <BinaryTree type="DecisionTree" boostWeight="1.0000000000000000e+00" itree="46">
      <Node pos="s" depth="0" NCoef="0" IVar="4" Cut="2.0601800642907619e-03" cType="1" res="1.6347650438547134e-02" rms="2.3426809906959534e-01" purity="8.9580005407333374e-01" nType="0">
        <Node pos="l" depth="1" NCoef="0" IVar="-1" Cut="0.0000000000000000e+00" cType="1" res="1.2486773543059826e-02" rms="2.1390728652477264e-01" purity="9.3653076887130737e-01" nType="1"/>
        <Node pos="r" depth="1" NCoef="0" IVar="15" Cut="-5.5101858451962471e-03" cType="0" res="-5.7509478181600571e-02" rms="3.2834401726722717e-01" purity="6.3145315647125244e-01" nType="0">
          <Node pos="l" depth="2" NCoef="0" IVar="-1" Cut="0.0000000000000000e+00" cType="1" res="-3.9232550188899040e-03" rms="3.0694955587387085e-01" purity="8.3827799558639526e-01" nType="1"/>
          <Node pos="r" depth="2" NCoef="0" IVar="-1" Cut="0.0000000000000000e+00" cType="1" res="-3.1098611652851105e-02" rms="3.4580543637275696e-01" purity="3.5286408662796021e-01" nType="-1"/>
        </Node>
      </Node>
    </BinaryTree>
    <BinaryTree type="DecisionTree" boostWeight="1.0000000000000000e+00" itree="47">
      <Node pos="s" depth="0" NCoef="0" IVar="9" Cut="1.2454168871045113e-02" cType="1" res="1.5268702059984207e-02" rms="2.3395729064941406e-01" purity="8.9580005407333374e-01" nType="0">
        <Node pos="l" depth="1" NCoef="0" IVar="-1" Cut="0.0000000000000000e+00" cType="1" res="9.4450758770108223e-03" rms="2.2483159601688385e-01" purity="9.1493970155715942e-01" nType="1"/>
        <Node pos="r" depth="1" NCoef="0" IVar="14" Cut="1.1006098985671997e+00" cType="1" res="-1.1324537545442581e-01" rms="3.5033017396926880e-01" purity="5.0575476884841919e-01" nType="0">
          <Node pos="l" depth="2" NCoef="0" IVar="-1" Cut="0.0000000000000000e+00" cType="1" res="-9.2468475922942162e-03" rms="3.3504673838615417e-01" purity="8.1532180309295654e-01" nType="1"/>
          <Node pos="r" depth="2" NCoef="0" IVar="-1" Cut="0.0000000000000000e+00" cType="1" res="-4.7523122280836105e-02" rms="3.4837767481803894e-01" purity="2.6772946119308472e-01" nType="-1"/>
        </Node>
      </Node>
    </BinaryTree>
    <BinaryTree type="DecisionTree" boostWeight="1.0000000000000000e+00" itree="48">
      <Node pos="s" depth="0" NCoef="0" IVar="13" Cut="3.4893363714218140e-02" cType="1" res="1.4237958006560802e-02" rms="2.3371729254722595e-01" purity="8.9580005407333374e-01" nType="0">
        <Node pos="l" depth="1" NCoef="0" IVar="-1" Cut="0.0000000000000000e+00" cType="1" res="9.6911378204822540e-03" rms="2.2270822525024414e-01" purity="9.1462099552154541e-01" nType="1"/>
        <Node pos="r" depth="1" NCoef="0" IVar="0" Cut="7.6297789812088013e-02" cType="0" res="-8.8006451725959778e-02" rms="3.3478865027427673e-01" purity="6.3855755329132080e-01" nType="0">
          <Node pos="l" depth="2" NCoef="0" IVar="-1" Cut="0.0000000000000000e+00" cType="1" res="-7.7178049832582474e-03" rms="3.0561873316764832e-01" purity="8.7057113647460938e-01" nType="1"/>
          <Node pos="r" depth="2" NCoef="0" IVar="-1" Cut="0.0000000000000000e+00" cType="1" res="-4.1015315800905228e-02" rms="3.4960266947746277e-01" purity="3.8811188936233521e-01" nType="-1"/>
        </Node>
      </Node>
    </BinaryTree>
    <BinaryTree type="DecisionTree" boostWeight="1.0000000000000000e+00" itree="49">
      <Node pos="s" depth="0" NCoef="0" IVar="10" Cut="5.8132886886596680e-02" cType="1" res="1.3270945288240910e-02" rms="2.3341673612594604e-01" purity="8.9580005407333374e-01" nType="0">
        <Node pos="l" depth="1" NCoef="0" IVar="-1" Cut="0.0000000000000000e+00" cType="1" res="9.4870720058679581e-03" rms="2.2020782530307770e-01" purity="9.1676151752471924e-01" nType="1"/>
        <Node pos="r" depth="1" NCoef="0" IVar="15" Cut="-4.7116898931562901e-03" cType="0" res="-8.7868437170982361e-02" rms="3.5257256031036377e-01" purity="6.1309617757797241e-01" nType="0">
          <Node pos="l" depth="2" NCoef="0" IVar="-1" Cut="0.0000000000000000e+00" cType="1" res="-2.6501368847675622e-04" rms="2.7527108788490295e-01" purity="8.8787686824798584e-01" nType="1"/>
          <Node pos="r" depth="2" NCoef="0" IVar="-1" Cut="0.0000000000000000e+00" cType="1" res="-3.3188983798027039e-02" rms="3.7815088033676147e-01" purity="4.7476324439048767e-01" nType="-1"/>
        </Node>
      </Node>
    </BinaryTree>
    <BinaryTree type="DecisionTree" boostWeight="1.0000000000000000e+00" itree="50">
      <Node pos="s" depth="0" NCoef="0" IVar="0" Cut="4.8178151249885559e-02" cType="0" res="1.2347397394478321e-02" rms="2.3321075737476349e-01" purity="8.9580005407333374e-01" nType="0">
        <Node pos="l" depth="1" NCoef="0" IVar="-1" Cut="0.0000000000000000e+00" cType="1" res="1.2580942362546921e-02" rms="2.1007515490055084e-01" purity="9.4119918346405029e-01" nType="1"/>
        <Node pos="r" depth="1" NCoef="0" IVar="15" Cut="2.0119817927479744e-03" cType="1" res="-3.9475210011005402e-02" rms="2.9681724309921265e-01" purity="7.3138976097106934e-01" nType="0">
          <Node pos="l" depth="2" NCoef="0" IVar="-1" Cut="0.0000000000000000e+00" cType="1" res="-8.5238674655556679e-03" rms="2.7603921294212341e-01" purity="7.5823211669921875e-01" nType="1"/>
          <Node pos="r" depth="2" NCoef="0" IVar="-1" Cut="0.0000000000000000e+00" cType="1" res="-5.8059856295585632e-02" rms="4.4521054625511169e-01" purity="3.0843937397003174e-01" nType="-1"/>
        </Node>
      </Node>
    </BinaryTree>
    <BinaryTree type="DecisionTree" boostWeight="1.0000000000000000e+00" itree="51">
      <Node pos="s" depth="0" NCoef="0" IVar="16" Cut="9.9067252874374390e-01" cType="0" res="1.1572380550205708e-02" rms="2.3270139098167419e-01" purity="8.9580005407333374e-01" nType="0">
        <Node pos="l" depth="1" NCoef="0" IVar="-1" Cut="0.0000000000000000e+00" cType="1" res="1.1520698666572571e-02" rms="2.0991049706935883e-01" purity="9.4162195920944214e-01" nType="1"/>
        <Node pos="r" depth="1" NCoef="0" IVar="2" Cut="9.0049972534179688e+00" cType="1" res="-4.6241953969001770e-02" rms="3.1479576230049133e-01" purity="6.7332339286804199e-01" nType="0">
          <Node pos="l" depth="2" NCoef="0" IVar="-1" Cut="0.0000000000000000e+00" cType="1" res="7.5783589854836464e-03" rms="2.4986290931701660e-01" purity="8.7806087732315063e-01" nType="1"/>
          <Node pos="r" depth="2" NCoef="0" IVar="-1" Cut="0.0000000000000000e+00" cType="1" res="-3.5241320729255676e-02" rms="3.6493796110153198e-01" purity="4.0837502479553223e-01" nType="-1"/>
        </Node>
      </Node>
    </BinaryTree>
    <BinaryTree type="DecisionTree" boostWeight="1.0000000000000000e+00" itree="52">
      <Node pos="s" depth="0" NCoef="0" IVar="15" Cut="-8.5492972284555435e-03" cType="0" res="1.0850016959011555e-02" rms="2.3216845095157623e-01" purity="8.9580005407333374e-01" nType="0">
        <Node pos="l" depth="1" NCoef="0" IVar="-1" Cut="0.0000000000000000e+00" cType="1" res="1.1225872673094273e-02" rms="2.0803843438625336e-01" purity="9.4347894191741943e-01" nType="1"/>
        <Node pos="r" depth="1" NCoef="0" IVar="9" Cut="9.8738614469766617e-03" cType="1" res="-4.8823289573192596e-02" rms="3.2452934980392456e-01" purity="6.4597499370574951e-01" nType="0">
          <Node pos="l" depth="2" NCoef="0" IVar="-1" Cut="0.0000000000000000e+00" cType="1" res="5.6330817751586437e-03" rms="2.7767670154571533e-01" purity="8.5403686761856079e-01" nType="1"/>
          <Node pos="r" depth="2" NCoef="0" IVar="-1" Cut="0.0000000000000000e+00" cType="1" res="-2.4482829496264458e-02" rms="3.4415578842163086e-01" purity="5.1760929822921753e-01" nType="1"/>
        </Node>
      </Node>
    </BinaryTree>
    <BinaryTree type="DecisionTree" boostWeight="1.0000000000000000e+00" itree="53">
      <Node pos="s" depth="0" NCoef="0" IVar="4" Cut="1.8817943055182695e-03" cType="1" res="1.0142724029719830e-02" rms="2.3184981942176819e-01" purity="8.9580005407333374e-01" nType="0">
        <Node pos="l" depth="1" NCoef="0" IVar="-1" Cut="0.0000000000000000e+00" cType="1" res="1.0561528615653515e-02" rms="2.1002776920795441e-01" purity="9.3845272064208984e-01" nType="1"/>
        <Node pos="r" depth="1" NCoef="0" IVar="0" Cut="8.9286565780639648e-02" cType="0" res="-4.8036698251962662e-02" rms="3.1703507900238037e-01" purity="6.7116403579711914e-01" nType="0">
          <Node pos="l" depth="2" NCoef="0" IVar="-1" Cut="0.0000000000000000e+00" cType="1" res="-2.8705205768346786e-03" rms="2.9575148224830627e-01" purity="8.6998349428176880e-01" nType="1"/>
          <Node pos="r" depth="2" NCoef="0" IVar="-1" Cut="0.0000000000000000e+00" cType="1" res="-3.0468698590993881e-02" rms="3.3666533231735229e-01" purity="3.9620223641395569e-01" nType="-1"/>
        </Node>
      </Node>
    </BinaryTree>
    <BinaryTree type="DecisionTree" boostWeight="1.0000000000000000e+00" itree="54">
      <Node pos="s" depth="0" NCoef="0" IVar="10" Cut="4.8130299896001816e-02" cType="1" res="9.4956457614898682e-03" rms="2.3155409097671509e-01" purity="8.9580005407333374e-01" nType="0">
        <Node pos="l" depth="1" NCoef="0" IVar="-1" Cut="0.0000000000000000e+00" cType="1" res="9.3745402991771698e-03" rms="2.1385256946086884e-01" purity="9.2522180080413818e-01" nType="1"/>
        <Node pos="r" depth="1" NCoef="0" IVar="0" Cut="1.9914448261260986e-01" cType="0" res="-5.7002555578947067e-02" rms="3.2355850934982300e-01" purity="6.8639385700225830e-01" nType="0">
          <Node pos="l" depth="2" NCoef="0" IVar="-1" Cut="0.0000000000000000e+00" cType="1" res="-4.3528578244149685e-03" rms="3.0358171463012695e-01" purity="8.7104833126068115e-01" nType="1"/>
          <Node pos="r" depth="2" NCoef="0" IVar="-1" Cut="0.0000000000000000e+00" cType="1" res="-3.5895746201276779e-02" rms="3.4097540378570557e-01" purity="4.1047698259353638e-01" nType="-1"/>
        </Node>
      </Node>
    </BinaryTree>
    <BinaryTree type="DecisionTree" boostWeight="1.0000000000000000e+00" itree="55">
      <Node pos="s" depth="0" NCoef="0" IVar="13" Cut="2.4521280080080032e-02" cType="1" res="8.8462587445974350e-03" rms="2.3128141462802887e-01" purity="8.9580005407333374e-01" nType="0">
        <Node pos="l" depth="1" NCoef="0" IVar="-1" Cut="0.0000000000000000e+00" cType="1" res="8.5724350064992905e-03" rms="2.1800965070724487e-01" purity="9.1940730810165405e-01" nType="1"/>
        <Node pos="r" depth="1" NCoef="0" IVar="0" Cut="7.6297789812088013e-02" cType="0" res="-6.0864862054586411e-02" rms="3.0964952707290649e-01" purity="7.0633345842361450e-01" nType="0">
          <Node pos="l" depth="2" NCoef="0" IVar="-1" Cut="0.0000000000000000e+00" cType="1" res="-4.4533782638609409e-03" rms="2.7485576272010803e-01" purity="8.9507412910461426e-01" nType="1"/>
          <Node pos="r" depth="2" NCoef="0" IVar="-1" Cut="0.0000000000000000e+00" cType="1" res="-3.5556215792894363e-02" rms="3.3752295374870300e-01" purity="4.7401422262191772e-01" nType="-1"/>
        </Node>
      </Node>
    </BinaryTree>
    <BinaryTree type="DecisionTree" boostWeight="1.0000000000000000e+00" itree="56">
      <Node pos="s" depth="0" NCoef="0" IVar="9" Cut="1.2120540253818035e-02" cType="1" res="8.2597397267818451e-03" rms="2.3095598816871643e-01" purity="8.9580005407333374e-01" nType="0">
        <Node pos="l" depth="1" NCoef="0" IVar="-1" Cut="0.0000000000000000e+00" cType="1" res="7.3620802722871304e-03" rms="2.1989175677299500e-01" purity="9.1887485980987549e-01" nType="1"/>
        <Node pos="r" depth="1" NCoef="0" IVar="10" Cut="2.8491033241152763e-02" cType="1" res="-7.9238615930080414e-02" rms="3.3150762319564819e-01" purity="5.9603881835937500e-01" nType="0">
          <Node pos="l" depth="2" NCoef="0" IVar="-1" Cut="0.0000000000000000e+00" cType="1" res="2.4094512627925724e-04" rms="2.9269081354141235e-01" purity="8.5410720109939575e-01" nType="1"/>
          <Node pos="r" depth="2" NCoef="0" IVar="-1" Cut="0.0000000000000000e+00" cType="1" res="-3.7001695483922958e-02" rms="3.4362557530403137e-01" purity="4.4698560237884521e-01" nType="-1"/>
        </Node>
      </Node>
    </BinaryTree>
    <BinaryTree type="DecisionTree" boostWeight="1.0000000000000000e+00" itree="57">
      <Node pos="s" depth="0" NCoef="0" IVar="10" Cut="6.4221419394016266e-02" cType="1" res="7.6953289099037647e-03" rms="2.3071785271167755e-01" purity="8.9580005407333374e-01" nType="0">
        <Node pos="l" depth="1" NCoef="0" IVar="-1" Cut="0.0000000000000000e+00" cType="1" res="6.3810348510742188e-03" rms="2.2112844884395599e-01" purity="9.1213977336883545e-01" nType="1"/>
        <Node pos="r" depth="1" NCoef="0" IVar="5" Cut="2.3020522668957710e-02" cType="1" res="-9.7329095005989075e-02" rms="3.5987171530723572e-01" purity="5.6450814008712769e-01" nType="0">
          <Node pos="l" depth="2" NCoef="0" IVar="-1" Cut="0.0000000000000000e+00" cType="1" res="-1.6226757317781448e-02" rms="3.4507310390472412e-01" purity="6.6907137632369995e-01" nType="1"/>
          <Node pos="r" depth="2" NCoef="0" IVar="-1" Cut="0.0000000000000000e+00" cType="1" res="-5.1664650440216064e-02" rms="3.7708878517150879e-01" purity="2.8069439530372620e-01" nType="-1"/>
        </Node>
      </Node>
    </BinaryTree>
    <BinaryTree type="DecisionTree" boostWeight="1.0000000000000000e+00" itree="58">
      <Node pos="s" depth="0" NCoef="0" IVar="0" Cut="5.9159066528081894e-02" cType="0" res="7.1525536477565765e-03" rms="2.3054839670658112e-01" purity="8.9580005407333374e-01" nType="0">
        <Node pos="l" depth="1" NCoef="0" IVar="-1" Cut="0.0000000000000000e+00" cType="1" res="1.1009324342012405e-02" rms="2.0551727712154388e-01" purity="9.4624161720275879e-01" nType="1"/>
        <Node pos="r" depth="1" NCoef="0" IVar="15" Cut="2.0119817927479744e-03" cType="1" res="-3.2153863459825516e-02" rms="2.8674617409706116e-01" purity="7.5181639194488525e-01" nType="0">
          <Node pos="l" depth="2" NCoef="0" IVar="-1" Cut="0.0000000000000000e+00" cType="1" res="-7.0762881077826023e-03" rms="2.6621946692466736e-01" purity="7.7845770120620728e-01" nType="1"/>
          <Node pos="r" depth="2" NCoef="0" IVar="-1" Cut="0.0000000000000000e+00" cType="1" res="-4.9015499651432037e-02" rms="4.4651669263839722e-01" purity="3.4323802590370178e-01" nType="-1"/>
        </Node>
      </Node>
    </BinaryTree>
    <BinaryTree type="DecisionTree" boostWeight="1.0000000000000000e+00" itree="59">
      <Node pos="s" depth="0" NCoef="0" IVar="15" Cut="-5.2620237693190575e-03" cType="0" res="6.7185820080339909e-03" rms="2.3010300099849701e-01" purity="8.9580005407333374e-01" nType="0">
        <Node pos="l" depth="1" NCoef="0" IVar="-1" Cut="0.0000000000000000e+00" cType="1" res="1.0272979736328125e-02" rms="2.0237757265567780e-01" purity="9.4578737020492554e-01" nType="1"/>
        <Node pos="r" depth="1" NCoef="0" IVar="9" Cut="1.1335195973515511e-02" cType="1" res="-3.7241704761981964e-02" rms="3.0752572417259216e-01" purity="7.1202576160430908e-01" nType="0">
          <Node pos="l" depth="2" NCoef="0" IVar="-1" Cut="0.0000000000000000e+00" cType="1" res="-3.9370274171233177e-03" rms="2.8766709566116333e-01" purity="8.2222115993499756e-01" nType="1"/>
          <Node pos="r" depth="2" NCoef="0" IVar="-1" Cut="0.0000000000000000e+00" cType="1" res="-2.9778163880109787e-02" rms="3.4412094950675964e-01" purity="4.3029630184173584e-01" nType="-1"/>
        </Node>
      </Node>
    </BinaryTree>
    <BinaryTree type="DecisionTree" boostWeight="1.0000000000000000e+00" itree="60">
      <Node pos="s" depth="0" NCoef="0" IVar="13" Cut="4.9222424626350403e-02" cType="1" res="6.2805390916764736e-03" rms="2.2983129322528839e-01" purity="8.9580005407333374e-01" nType="0">
        <Node pos="l" depth="1" NCoef="0" IVar="-1" Cut="0.0000000000000000e+00" cType="1" res="5.5015794932842255e-03" rms="2.2259187698364258e-01" purity="9.0977978706359863e-01" nType="1"/>
        <Node pos="r" depth="1" NCoef="0" IVar="0" Cut="9.6229232847690582e-02" cType="0" res="-1.0265602171421051e-01" rms="3.4117797017097473e-01" purity="5.7158732414245605e-01" nType="0">
          <Node pos="l" depth="2" NCoef="0" IVar="-1" Cut="0.0000000000000000e+00" cType="1" res="-1.8453259021043777e-02" rms="3.2511040568351746e-01" purity="8.5381823778152466e-01" nType="1"/>
          <Node pos="r" depth="2" NCoef="0" IVar="-1" Cut="0.0000000000000000e+00" cType="1" res="-4.0554020553827286e-02" rms="3.4675705432891846e-01" purity="3.3897927403450012e-01" nType="-1"/>
        </Node>
      </Node>
    </BinaryTree>
    <BinaryTree type="DecisionTree" boostWeight="1.0000000000000000e+00" itree="61">
      <Node pos="s" depth="0" NCoef="0" IVar="16" Cut="9.9067252874374390e-01" cType="0" res="5.8657978661358356e-03" rms="2.2964490950107574e-01" purity="8.9580005407333374e-01" nType="0">
        <Node pos="l" depth="1" NCoef="0" IVar="-1" Cut="0.0000000000000000e+00" cType="1" res="8.6787957698106766e-03" rms="2.0814676582813263e-01" purity="9.4162195920944214e-01" nType="1"/>
        <Node pos="r" depth="1" NCoef="0" IVar="2" Cut="9.0049972534179688e+00" cType="1" res="-4.2634513229131699e-02" rms="3.0918624997138977e-01" purity="6.7332339286804199e-01" nType="0">
          <Node pos="l" depth="2" NCoef="0" IVar="-1" Cut="0.0000000000000000e+00" cType="1" res="5.8234352618455887e-03" rms="2.4765689671039581e-01" purity="8.7806087732315063e-01" nType="1"/>
          <Node pos="r" depth="2" NCoef="0" IVar="-1" Cut="0.0000000000000000e+00" cType="1" res="-3.2252773642539978e-02" rms="3.6076471209526062e-01" purity="4.0837502479553223e-01" nType="-1"/>
        </Node>
      </Node>
    </BinaryTree>
    <BinaryTree type="DecisionTree" boostWeight="1.0000000000000000e+00" itree="62">
      <Node pos="s" depth="0" NCoef="0" IVar="4" Cut="3.4522882197052240e-03" cType="1" res="5.5205360986292362e-03" rms="2.2923567891120911e-01" purity="8.9580005407333374e-01" nType="0">
        <Node pos="l" depth="1" NCoef="0" IVar="-1" Cut="0.0000000000000000e+00" cType="1" res="5.3281150758266449e-03" rms="2.2126065194606781e-01" purity="9.2203849554061890e-01" nType="1"/>
        <Node pos="r" depth="1" NCoef="0" IVar="16" Cut="2.6352615356445312e+00" cType="1" res="-9.2518590390682220e-02" rms="3.4027749300003052e-01" purity="3.6031109094619751e-01" nType="0">
          <Node pos="l" depth="2" NCoef="0" IVar="-1" Cut="0.0000000000000000e+00" cType="1" res="-2.2622872143983841e-02" rms="3.3333715796470642e-01" purity="3.6131632328033447e-01" nType="-1"/>
          <Node pos="r" depth="2" NCoef="0" IVar="-1" Cut="0.0000000000000000e+00" cType="1" res="-7.4403047561645508e-02" rms="3.6746492981910706e-01" purity="3.4658798575401306e-01" nType="-1"/>
        </Node>
      </Node>
    </BinaryTree>
    <BinaryTree type="DecisionTree" boostWeight="1.0000000000000000e+00" itree="63">
      <Node pos="s" depth="0" NCoef="0" IVar="10" Cut="3.8997501134872437e-02" cType="1" res="5.1658703014254570e-03" rms="2.2906443476676941e-01" purity="8.9580005407333374e-01" nType="0">
        <Node pos="l" depth="1" NCoef="0" IVar="-1" Cut="0.0000000000000000e+00" cType="1" res="8.8001722469925880e-03" rms="2.0621362328529358e-01" purity="9.3355184793472290e-01" nType="1"/>
        <Node pos="r" depth="1" NCoef="0" IVar="0" Cut="1.2931077182292938e-01" cType="0" res="-3.7980765104293823e-02" rms="3.0040791630744934e-01" purity="7.4360865354537964e-01" nType="0">
          <Node pos="l" depth="2" NCoef="0" IVar="-1" Cut="0.0000000000000000e+00" cType="1" res="-2.6399320922791958e-03" rms="2.7809911966323853e-01" purity="8.9417791366577148e-01" nType="1"/>
          <Node pos="r" depth="2" NCoef="0" IVar="-1" Cut="0.0000000000000000e+00" cType="1" res="-3.2091438770294189e-02" rms="3.3284738659858704e-01" purity="4.3157258629798889e-01" nType="-1"/>
        </Node>
      </Node>
    </BinaryTree>
    <BinaryTree type="DecisionTree" boostWeight="1.0000000000000000e+00" itree="64">
      <Node pos="s" depth="0" NCoef="0" IVar="13" Cut="2.4461325258016586e-02" cType="1" res="4.8191822133958340e-03" rms="2.2878699004650116e-01" purity="8.9580005407333374e-01" nType="0">
        <Node pos="l" depth="1" NCoef="0" IVar="-1" Cut="0.0000000000000000e+00" cType="1" res="6.4310897141695023e-03" rms="2.1661786735057831e-01" purity="9.1941803693771362e-01" nType="1"/>
        <Node pos="r" depth="1" NCoef="0" IVar="0" Cut="7.9287506639957428e-02" cType="0" res="-5.3616151213645935e-02" rms="3.0312278866767883e-01" purity="7.0676952600479126e-01" nType="0">
          <Node pos="l" depth="2" NCoef="0" IVar="-1" Cut="0.0000000000000000e+00" cType="1" res="-5.5987895466387272e-03" rms="2.7194419503211975e-01" purity="8.9693450927734375e-01" nType="1"/>
          <Node pos="r" depth="2" NCoef="0" IVar="-1" Cut="0.0000000000000000e+00" cType="1" res="-3.0548876151442528e-02" rms="3.2982349395751953e-01" purity="4.8057094216346741e-01" nType="-1"/>
        </Node>
      </Node>
    </BinaryTree>
    <BinaryTree type="DecisionTree" boostWeight="1.0000000000000000e+00" itree="65">
      <Node pos="s" depth="0" NCoef="0" IVar="5" Cut="-2.6278791949152946e-02" cType="0" res="4.5030536130070686e-03" rms="2.2854898869991302e-01" purity="8.9580005407333374e-01" nType="0">
        <Node pos="l" depth="1" NCoef="0" IVar="-1" Cut="0.0000000000000000e+00" cType="1" res="4.5304051600396633e-03" rms="2.2148165106773376e-01" purity="9.1462320089340210e-01" nType="1"/>
        <Node pos="r" depth="1" NCoef="0" IVar="17" Cut="-3.9071738719940186e-03" cType="1" res="-9.8700344562530518e-02" rms="3.4796947240829468e-01" purity="4.2279633879661560e-01" nType="0">
          <Node pos="l" depth="2" NCoef="0" IVar="-1" Cut="0.0000000000000000e+00" cType="1" res="8.7750479578971863e-03" rms="3.2880949974060059e-01" purity="7.9952645301818848e-01" nType="1"/>
          <Node pos="r" depth="2" NCoef="0" IVar="-1" Cut="0.0000000000000000e+00" cType="1" res="-4.1498787701129913e-02" rms="3.4238034486770630e-01" purity="2.9279789328575134e-01" nType="-1"/>
        </Node>
      </Node>
    </BinaryTree>
    <BinaryTree type="DecisionTree" boostWeight="1.0000000000000000e+00" itree="66">
      <Node pos="s" depth="0" NCoef="0" IVar="5" Cut="2.7130652219057083e-02" cType="1" res="4.2093670926988125e-03" rms="2.2835549712181091e-01" purity="8.9580005407333374e-01" nType="0">
        <Node pos="l" depth="1" NCoef="0" IVar="-1" Cut="0.0000000000000000e+00" cType="1" res="4.4419798068702221e-03" rms="2.2165645658969879e-01" purity="9.1621583700180054e-01" nType="1"/>
        <Node pos="r" depth="1" NCoef="0" IVar="17" Cut="4.1168257594108582e-03" cType="0" res="-9.7661860287189484e-02" rms="3.3891674876213074e-01" purity="3.9789766073226929e-01" nType="0">
          <Node pos="l" depth="2" NCoef="0" IVar="-1" Cut="0.0000000000000000e+00" cType="1" res="1.1772200465202332e-02" rms="3.2226502895355225e-01" purity="8.0572879314422607e-01" nType="1"/>
          <Node pos="r" depth="2" NCoef="0" IVar="-1" Cut="0.0000000000000000e+00" cType="1" res="-4.3003935366868973e-02" rms="3.3008712530136108e-01" purity="2.5872832536697388e-01" nType="-1"/>
        </Node>
      </Node>
    </BinaryTree>
    <BinaryTree type="DecisionTree" boostWeight="1.0000000000000000e+00" itree="67">
      <Node pos="s" depth="0" NCoef="0" IVar="4" Cut="1.8817943055182695e-03" cType="1" res="3.9389659650623798e-03" rms="2.2812655568122864e-01" purity="8.9580005407333374e-01" nType="0">
        <Node pos="l" depth="1" NCoef="0" IVar="-1" Cut="0.0000000000000000e+00" cType="1" res="7.1952180005609989e-03" rms="2.0759788155555725e-01" purity="9.3845272064208984e-01" nType="1"/>
        <Node pos="r" depth="1" NCoef="0" IVar="15" Cut="-5.5148908868432045e-03" cType="0" res="-4.2125746607780457e-02" rms="3.1084737181663513e-01" purity="6.7116403579711914e-01" nType="0">
          <Node pos="l" depth="2" NCoef="0" IVar="-1" Cut="0.0000000000000000e+00" cType="1" res="-5.2318423986434937e-03" rms="2.8722679615020752e-01" purity="8.5691189765930176e-01" nType="1"/>
          <Node pos="r" depth="2" NCoef="0" IVar="-1" Cut="0.0000000000000000e+00" cType="1" res="-2.5068875402212143e-02" rms="3.3908078074455261e-01" purity="3.8750395178794861e-01" nType="-1"/>
        </Node>
      </Node>
    </BinaryTree>
    <BinaryTree type="DecisionTree" boostWeight="1.0000000000000000e+00" itree="68">
      <Node pos="s" depth="0" NCoef="0" IVar="0" Cut="6.8143449723720551e-02" cType="0" res="3.6920586135238409e-03" rms="2.2793368995189667e-01" purity="8.9580005407333374e-01" nType="0">
        <Node pos="l" depth="1" NCoef="0" IVar="-1" Cut="0.0000000000000000e+00" cType="1" res="9.3999858945608139e-03" rms="2.0202168822288513e-01" purity="9.4889420270919800e-01" nType="1"/>
        <Node pos="r" depth="1" NCoef="0" IVar="15" Cut="2.0119817927479744e-03" cType="1" res="-2.7093676850199699e-02" rms="2.7897346019744873e-01" purity="7.6613485813140869e-01" nType="0">
          <Node pos="l" depth="2" NCoef="0" IVar="-1" Cut="0.0000000000000000e+00" cType="1" res="-6.0786036774516106e-03" rms="2.5839260220527649e-01" purity="7.9249143600463867e-01" nType="1"/>
          <Node pos="r" depth="2" NCoef="0" IVar="-1" Cut="0.0000000000000000e+00" cType="1" res="-4.4812045991420746e-02" rms="4.4765564799308777e-01" purity="3.6574009060859680e-01" nType="-1"/>
        </Node>
      </Node>
    </BinaryTree>
    <BinaryTree type="DecisionTree" boostWeight="1.0000000000000000e+00" itree="69">
      <Node pos="s" depth="0" NCoef="0" IVar="9" Cut="1.2120540253818035e-02" cType="1" res="3.4872456453740597e-03" rms="2.2754664719104767e-01" purity="8.9580005407333374e-01" nType="0">
        <Node pos="l" depth="1" NCoef="0" IVar="-1" Cut="0.0000000000000000e+00" cType="1" res="4.8532886430621147e-03" rms="2.1731813251972198e-01" purity="9.1887485980987549e-01" nType="1"/>
        <Node pos="r" depth="1" NCoef="0" IVar="10" Cut="1.9736232236027718e-02" cType="1" res="-6.6953241825103760e-02" rms="3.2487821578979492e-01" purity="5.9603881835937500e-01" nType="0">
          <Node pos="l" depth="2" NCoef="0" IVar="-1" Cut="0.0000000000000000e+00" cType="1" res="1.1411341838538647e-02" rms="2.6537618041038513e-01" purity="9.0103375911712646e-01" nType="1"/>
          <Node pos="r" depth="2" NCoef="0" IVar="-1" Cut="0.0000000000000000e+00" cType="1" res="-3.0407819896936417e-02" rms="3.3549866080284119e-01" purity="5.0547522306442261e-01" nType="1"/>
        </Node>
      </Node>
    </BinaryTree>
    <BinaryTree type="DecisionTree" boostWeight="1.0000000000000000e+00" itree="70">
      <Node pos="s" depth="0" NCoef="0" IVar="10" Cut="6.9295197725296021e-02" cType="1" res="3.2484941184520721e-03" rms="2.2736033797264099e-01" purity="8.9580005407333374e-01" nType="0">
        <Node pos="l" depth="1" NCoef="0" IVar="-1" Cut="0.0000000000000000e+00" cType="1" res="3.6896185483783484e-03" rms="2.2043003141880035e-01" purity="9.0877598524093628e-01" nType="1"/>
        <Node pos="r" depth="1" NCoef="0" IVar="5" Cut="2.2722270339727402e-02" cType="1" res="-9.9578112363815308e-02" rms="3.6132675409317017e-01" purity="5.2030646800994873e-01" nType="0">
          <Node pos="l" depth="2" NCoef="0" IVar="-1" Cut="0.0000000000000000e+00" cType="1" res="-1.7912967130541801e-02" rms="3.5242915153503418e-01" purity="6.2972879409790039e-01" nType="1"/>
          <Node pos="r" depth="2" NCoef="0" IVar="-1" Cut="0.0000000000000000e+00" cType="1" res="-4.6164352446794510e-02" rms="3.6845871806144714e-01" purity="2.6285281777381897e-01" nType="-1"/>
        </Node>
      </Node>
    </BinaryTree>
    <BinaryTree type="DecisionTree" boostWeight="1.0000000000000000e+00" itree="71">
      <Node pos="s" depth="0" NCoef="0" IVar="15" Cut="5.3583998233079910e-03" cType="1" res="3.0135184060782194e-03" rms="2.2723877429962158e-01" purity="8.9580005407333374e-01" nType="0">
        <Node pos="l" depth="1" NCoef="0" IVar="-1" Cut="0.0000000000000000e+00" cType="1" res="3.0958577990531921e-03" rms="2.2266602516174316e-01" purity="9.0096676349639893e-01" nType="1"/>
        <Node pos="r" depth="1" NCoef="0" IVar="0" Cut="1.2390889972448349e-01" cType="0" res="-1.2581574916839600e-01" rms="3.6033707857131958e-01" purity="6.5681308507919312e-01" nType="0">
          <Node pos="l" depth="2" NCoef="0" IVar="-1" Cut="0.0000000000000000e+00" cType="1" res="-1.3219472020864487e-02" rms="2.8169536590576172e-01" purity="9.1079276800155640e-01" nType="1"/>
          <Node pos="r" depth="2" NCoef="0" IVar="-1" Cut="0.0000000000000000e+00" cType="1" res="-5.9879828244447708e-02" rms="4.1165682673454285e-01" purity="1.8435887992382050e-01" nType="-1"/>
        </Node>
      </Node>
    </BinaryTree>
    <BinaryTree type="DecisionTree" boostWeight="1.0000000000000000e+00" itree="72">
      <Node pos="s" depth="0" NCoef="0" IVar="15" Cut="-5.2620237693190575e-03" cType="0" res="2.8342788573354483e-03" rms="2.2701627016067505e-01" purity="8.9580005407333374e-01" nType="0">
        <Node pos="l" depth="1" NCoef="0" IVar="-1" Cut="0.0000000000000000e+00" cType="1" res="7.7317147515714169e-03" rms="2.0067095756530762e-01" purity="9.4578737020492554e-01" nType="1"/>
        <Node pos="r" depth="1" NCoef="0" IVar="9" Cut="1.0032579302787781e-02" cType="1" res="-3.3355414867401123e-02" rms="3.0215010046958923e-01" purity="7.1202576160430908e-01" nType="0">
          <Node pos="l" depth="2" NCoef="0" IVar="-1" Cut="0.0000000000000000e+00" cType="1" res="3.0788721051067114e-03" rms="2.5977003574371338e-01" purity="8.7613320350646973e-01" nType="1"/>
          <Node pos="r" depth="2" NCoef="0" IVar="-1" Cut="0.0000000000000000e+00" cType="1" res="-2.0807027816772461e-02" rms="3.2812467217445374e-01" purity="5.8318710327148438e-01" nType="1"/>
        </Node>
      </Node>
    </BinaryTree>
    <BinaryTree type="DecisionTree" boostWeight="1.0000000000000000e+00" itree="73">
      <Node pos="s" depth="0" NCoef="0" IVar="13" Cut="4.6704344451427460e-02" cType="1" res="2.6572302449494600e-03" rms="2.2679914534091949e-01" purity="8.9580005407333374e-01" nType="0">
        <Node pos="l" depth="1" NCoef="0" IVar="-1" Cut="0.0000000000000000e+00" cType="1" res="3.6198208108544350e-03" rms="2.1997444331645966e-01" purity="9.1042143106460571e-01" nType="1"/>
        <Node pos="r" depth="1" NCoef="0" IVar="0" Cut="9.6229232847690582e-02" cType="0" res="-8.2042485475540161e-02" rms="3.3050557971000671e-01" purity="5.8264261484146118e-01" nType="0">
          <Node pos="l" depth="2" NCoef="0" IVar="-1" Cut="0.0000000000000000e+00" cType="1" res="-1.6828674823045731e-02" rms="3.1873404979705811e-01" purity="8.5919404029846191e-01" nType="1"/>
          <Node pos="r" depth="2" NCoef="0" IVar="-1" Cut="0.0000000000000000e+00" cType="1" res="-3.3519633114337921e-02" rms="3.3618292212486267e-01" purity="3.4609594941139221e-01" nType="-1"/>
        </Node>
      </Node>
    </BinaryTree>
    <BinaryTree type="DecisionTree" boostWeight="1.0000000000000000e+00" itree="74">
      <Node pos="s" depth="0" NCoef="0" IVar="16" Cut="1.0006669759750366e+00" cType="0" res="2.4864561855792999e-03" rms="2.2666226327419281e-01" purity="8.9580005407333374e-01" nType="0">
        <Node pos="l" depth="1" NCoef="0" IVar="-1" Cut="0.0000000000000000e+00" cType="1" res="6.8683302961289883e-03" rms="2.0413656532764435e-01" purity="9.4275546073913574e-01" nType="1"/>
        <Node pos="r" depth="1" NCoef="0" IVar="0" Cut="1.2256946414709091e-01" cType="0" res="-3.4351393580436707e-02" rms="2.9986909031867981e-01" purity="7.0113682746887207e-01" nType="0">
          <Node pos="l" depth="2" NCoef="0" IVar="-1" Cut="0.0000000000000000e+00" cType="1" res="8.2453349605202675e-03" rms="2.2261975705623627e-01" purity="9.3579399585723877e-01" nType="1"/>
          <Node pos="r" depth="2" NCoef="0" IVar="-1" Cut="0.0000000000000000e+00" cType="1" res="-2.3908929899334908e-02" rms="3.4825667738914490e-01" purity="4.9278956651687622e-01" nType="-1"/>
        </Node>
      </Node>
    </BinaryTree>
    <BinaryTree type="DecisionTree" boostWeight="1.0000000000000000e+00" itree="75">
      <Node pos="s" depth="0" NCoef="0" IVar="10" Cut="3.7547852843999863e-02" cType="1" res="2.3506034631282091e-03" rms="2.2639256715774536e-01" purity="8.9580005407333374e-01" nType="0">
        <Node pos="l" depth="1" NCoef="0" IVar="-1" Cut="0.0000000000000000e+00" cType="1" res="7.0803561247885227e-03" rms="2.0366045832633972e-01" purity="9.3495291471481323e-01" nType="1"/>
        <Node pos="r" depth="1" NCoef="0" IVar="2" Cut="8.0044975280761719e+00" cType="1" res="-3.2174848020076752e-02" rms="2.9304072260856628e-01" purity="7.5108456611633301e-01" nType="0">
          <Node pos="l" depth="2" NCoef="0" IVar="-1" Cut="0.0000000000000000e+00" cType="1" res="-1.1665920028463006e-03" rms="2.6996883749961853e-01" purity="8.7729775905609131e-01" nType="1"/>
          <Node pos="r" depth="2" NCoef="0" IVar="-1" Cut="0.0000000000000000e+00" cType="1" res="-2.7291666716337204e-02" rms="3.1923389434814453e-01" purity="5.6498169898986816e-01" nType="1"/>
        </Node>
      </Node>
    </BinaryTree>
    <BinaryTree type="DecisionTree" boostWeight="1.0000000000000000e+00" itree="76">
      <Node pos="s" depth="0" NCoef="0" IVar="5" Cut="-2.8971705585718155e-02" cType="0" res="2.1963641047477722e-03" rms="2.2616493701934814e-01" purity="8.9580005407333374e-01" nType="0">
        <Node pos="l" depth="1" NCoef="0" IVar="-1" Cut="0.0000000000000000e+00" cType="1" res="3.0677302274852991e-03" rms="2.2017106413841248e-01" purity="9.1396164894104004e-01" nType="1"/>
        <Node pos="r" depth="1" NCoef="0" IVar="17" Cut="-3.9057161193341017e-03" cType="1" res="-8.8996261358261108e-02" rms="3.4152489900588989e-01" purity="3.9272585511207581e-01" nType="0">
          <Node pos="l" depth="2" NCoef="0" IVar="-1" Cut="0.0000000000000000e+00" cType="1" res="6.9189537316560745e-03" rms="3.3245804905891418e-01" purity="7.8533142805099487e-01" nType="1"/>
          <Node pos="r" depth="2" NCoef="0" IVar="-1" Cut="0.0000000000000000e+00" cType="1" res="-3.8728605955839157e-02" rms="3.3543851971626282e-01" purity="2.5827774405479431e-01" nType="-1"/>
        </Node>
      </Node>
    </BinaryTree>
    <BinaryTree type="DecisionTree" boostWeight="1.0000000000000000e+00" itree="77">
      <Node pos="s" depth="0" NCoef="0" IVar="15" Cut="4.0940637700259686e-03" cType="1" res="2.0597560796886683e-03" rms="2.2601358592510223e-01" purity="8.9580005407333374e-01" nType="0">
        <Node pos="l" depth="1" NCoef="0" IVar="-1" Cut="0.0000000000000000e+00" cType="1" res="2.9208387713879347e-03" rms="2.2022710740566254e-01" purity="9.0228134393692017e-01" nType="1"/>
        <Node pos="r" depth="1" NCoef="0" IVar="0" Cut="1.2390889972448349e-01" cType="0" res="-9.0620972216129303e-02" rms="3.4161871671676636e-01" purity="7.0878034830093384e-01" nType="0">
          <Node pos="l" depth="2" NCoef="0" IVar="-1" Cut="0.0000000000000000e+00" cType="1" res="-5.7752309367060661e-03" rms="2.5190320611000061e-01" purity="9.2994177341461182e-01" nType="1"/>
          <Node pos="r" depth="2" NCoef="0" IVar="-1" Cut="0.0000000000000000e+00" cType="1" res="-5.0425965338945389e-02" rms="4.3297523260116577e-01" purity="2.3232702910900116e-01" nType="-1"/>
        </Node>
      </Node>
    </BinaryTree>
    <BinaryTree type="DecisionTree" boostWeight="1.0000000000000000e+00" itree="78">
      <Node pos="s" depth="0" NCoef="0" IVar="5" Cut="3.6256637424230576e-02" cType="1" res="1.9477017922326922e-03" rms="2.2578190267086029e-01" purity="8.9580005407333374e-01" nType="0">
        <Node pos="l" depth="1" NCoef="0" IVar="-1" Cut="0.0000000000000000e+00" cType="1" res="2.7912745717912912e-03" rms="2.2146129608154297e-01" purity="9.1403961181640625e-01" nType="1"/>
        <Node pos="r" depth="1" NCoef="0" IVar="17" Cut="3.9327754639089108e-03" cType="0" res="-9.4516314566135406e-02" rms="3.2052686810493469e-01" purity="3.1663873791694641e-01" nType="0">
          <Node pos="l" depth="2" NCoef="0" IVar="-1" Cut="0.0000000000000000e+00" cType="1" res="9.1219050809741020e-03" rms="3.3461984992027283e-01" purity="7.6560652256011963e-01" nType="1"/>
          <Node pos="r" depth="2" NCoef="0" IVar="-1" Cut="0.0000000000000000e+00" cType="1" res="-4.4040687382221222e-02" rms="3.0393528938293457e-01" purity="1.7173095047473907e-01" nType="-1"/>
        </Node>
      </Node>
    </BinaryTree>
    <BinaryTree type="DecisionTree" boostWeight="1.0000000000000000e+00" itree="79">
      <Node pos="s" depth="0" NCoef="0" IVar="7" Cut="9.4800246879458427e-03" cType="1" res="1.8310144077986479e-03" rms="2.2560100257396698e-01" purity="8.9580005407333374e-01" nType="0">
        <Node pos="l" depth="1" NCoef="0" IVar="-1" Cut="0.0000000000000000e+00" cType="1" res="5.5026905611157417e-03" rms="2.1231345832347870e-01" purity="9.1501617431640625e-01" nType="1"/>
        <Node pos="r" depth="1" NCoef="0" IVar="16" Cut="9.8067814111709595e-01" cType="0" res="-3.5119909793138504e-02" rms="2.7746880054473877e-01" purity="8.0417507886886597e-01" nType="0">
          <Node pos="l" depth="2" NCoef="0" IVar="-1" Cut="0.0000000000000000e+00" cType="1" res="-8.0145327374339104e-03" rms="2.5437206029891968e-01" purity="8.9705359935760498e-01" nType="1"/>
          <Node pos="r" depth="2" NCoef="0" IVar="-1" Cut="0.0000000000000000e+00" cType="1" res="-3.3595077693462372e-02" rms="3.4216186404228210e-01" purity="4.4844985008239746e-01" nType="-1"/>
        </Node>
      </Node>
    </BinaryTree>
    <BinaryTree type="DecisionTree" boostWeight="1.0000000000000000e+00" itree="80">
      <Node pos="s" depth="0" NCoef="0" IVar="15" Cut="-3.7448203656822443e-03" cType="0" res="1.7090135952457786e-03" rms="2.2537870705127716e-01" purity="8.9580005407333374e-01" nType="0">
        <Node pos="l" depth="1" NCoef="0" IVar="-1" Cut="0.0000000000000000e+00" cType="1" res="7.4475533328950405e-03" rms="1.9665271043777466e-01" purity="9.4669675827026367e-01" nType="1"/>
        <Node pos="r" depth="1" NCoef="0" IVar="9" Cut="1.0032579302787781e-02" cType="1" res="-2.6424901559948921e-02" rms="2.9001083970069885e-01" purity="7.5145804882049561e-01" nType="0">
          <Node pos="l" depth="2" NCoef="0" IVar="-1" Cut="0.0000000000000000e+00" cType="1" res="3.4729114267975092e-03" rms="2.4622127413749695e-01" purity="8.9371681213378906e-01" nType="1"/>
          <Node pos="r" depth="2" NCoef="0" IVar="-1" Cut="0.0000000000000000e+00" cType="1" res="-1.8930824473500252e-02" rms="3.1932014226913452e-01" purity="6.3260769844055176e-01" nType="1"/>
        </Node>
      </Node>
    </BinaryTree>
    <BinaryTree type="DecisionTree" boostWeight="1.0000000000000000e+00" itree="81">
      <Node pos="s" depth="0" NCoef="0" IVar="0" Cut="4.8178151249885559e-02" cType="0" res="1.6021742485463619e-03" rms="2.2519204020500183e-01" purity="8.9580005407333374e-01" nType="0">
        <Node pos="l" depth="1" NCoef="0" IVar="-1" Cut="0.0000000000000000e+00" cType="1" res="6.2054856680333614e-03" rms="2.0599231123924255e-01" purity="9.4119918346405029e-01" nType="1"/>
        <Node pos="r" depth="1" NCoef="0" IVar="15" Cut="2.0119817927479744e-03" cType="1" res="-2.9538212344050407e-02" rms="2.8187677264213562e-01" purity="7.3138976097106934e-01" nType="0">
          <Node pos="l" depth="2" NCoef="0" IVar="-1" Cut="0.0000000000000000e+00" cType="1" res="-8.2296617329120636e-03" rms="2.6477584242820740e-01" purity="7.5823211669921875e-01" nType="1"/>
          <Node pos="r" depth="2" NCoef="0" IVar="-1" Cut="0.0000000000000000e+00" cType="1" res="-3.8931775838136673e-02" rms="4.4012418389320374e-01" purity="3.0843937397003174e-01" nType="-1"/>
        </Node>
      </Node>
    </BinaryTree>
    <BinaryTree type="DecisionTree" boostWeight="1.0000000000000000e+00" itree="82">
      <Node pos="s" depth="0" NCoef="0" IVar="10" Cut="5.7118132710456848e-02" cType="1" res="1.5304124681279063e-03" rms="2.2495774924755096e-01" purity="8.9580005407333374e-01" nType="0">
        <Node pos="l" depth="1" NCoef="0" IVar="-1" Cut="0.0000000000000000e+00" cType="1" res="3.6084807943552732e-03" rms="2.1337307989597321e-01" purity="9.1763192415237427e-01" nType="1"/>
        <Node pos="r" depth="1" NCoef="0" IVar="2" Cut="5.0029983520507812e+00" cType="1" res="-5.5938027799129486e-02" rms="3.3336541056632996e-01" purity="6.2024915218353271e-01" nType="0">
          <Node pos="l" depth="2" NCoef="0" IVar="-1" Cut="0.0000000000000000e+00" cType="1" res="2.0326063968241215e-03" rms="2.9990315437316895e-01" purity="8.5231655836105347e-01" nType="1"/>
          <Node pos="r" depth="2" NCoef="0" IVar="-1" Cut="0.0000000000000000e+00" cType="1" res="-2.6222018525004387e-02" rms="3.4264805912971497e-01" purity="5.2666538953781128e-01" nType="1"/>
        </Node>
      </Node>
    </BinaryTree>
    <BinaryTree type="DecisionTree" boostWeight="1.0000000000000000e+00" itree="83">
      <Node pos="s" depth="0" NCoef="0" IVar="13" Cut="2.4461325258016586e-02" cType="1" res="1.4271342661231756e-03" rms="2.2482700645923615e-01" purity="8.9580005407333374e-01" nType="0">
        <Node pos="l" depth="1" NCoef="0" IVar="-1" Cut="0.0000000000000000e+00" cType="1" res="4.1853347793221474e-03" rms="2.1391969919204712e-01" purity="9.1941803693771362e-01" nType="1"/>
        <Node pos="r" depth="1" NCoef="0" IVar="0" Cut="7.9287506639957428e-02" cType="0" res="-4.4096492230892181e-02" rms="2.9413881897926331e-01" purity="7.0676952600479126e-01" nType="0">
          <Node pos="l" depth="2" NCoef="0" IVar="-1" Cut="0.0000000000000000e+00" cType="1" res="-7.4429330416023731e-03" rms="2.6806405186653137e-01" purity="8.9693450927734375e-01" nType="1"/>
          <Node pos="r" depth="2" NCoef="0" IVar="-1" Cut="0.0000000000000000e+00" cType="1" res="-2.4755170568823814e-02" rms="3.1905552744865417e-01" purity="4.8057094216346741e-01" nType="-1"/>
        </Node>
      </Node>
    </BinaryTree>
    <BinaryTree type="DecisionTree" boostWeight="1.0000000000000000e+00" itree="84">
      <Node pos="s" depth="0" NCoef="0" IVar="4" Cut="1.5215252060443163e-03" cType="1" res="1.3380012242123485e-03" rms="2.2467519342899323e-01" purity="8.9580005407333374e-01" nType="0">
        <Node pos="l" depth="1" NCoef="0" IVar="-1" Cut="0.0000000000000000e+00" cType="1" res="6.3487933948636055e-03" rms="2.0126761496067047e-01" purity="9.4198125600814819e-01" nType="1"/>
        <Node pos="r" depth="1" NCoef="0" IVar="0" Cut="8.7460421025753021e-02" cType="0" res="-2.7478717267513275e-02" rms="2.8669360280036926e-01" purity="7.4388760328292847e-01" nType="0">
          <Node pos="l" depth="2" NCoef="0" IVar="-1" Cut="0.0000000000000000e+00" cType="1" res="-2.4940005969256163e-03" rms="2.6091879606246948e-01" purity="8.9926981925964355e-01" nType="1"/>
          <Node pos="r" depth="2" NCoef="0" IVar="-1" Cut="0.0000000000000000e+00" cType="1" res="-2.2290909662842751e-02" rms="3.2052212953567505e-01" purity="4.9576091766357422e-01" nType="-1"/>
        </Node>
      </Node>
    </BinaryTree>
    <BinaryTree type="DecisionTree" boostWeight="1.0000000000000000e+00" itree="85">
      <Node pos="s" depth="0" NCoef="0" IVar="9" Cut="1.2064935639500618e-02" cType="1" res="1.2744428822770715e-03" rms="2.2449862957000732e-01" purity="8.9580005407333374e-01" nType="0">
        <Node pos="l" depth="1" NCoef="0" IVar="-1" Cut="0.0000000000000000e+00" cType="1" res="3.3636866137385368e-03" rms="2.1449838578701019e-01" purity="9.1962528228759766e-01" nType="1"/>
