<?xml version="1.0"?>
<MethodSetup Method="BDT::BDTG">
  <GeneralInfo>
    <Info name="TMVA Release" value="4.1.0 [262400]"/>
    <Info name="ROOT Release" value="5.28/00 [334848]"/>
    <Info name="Creator" value="sixie"/>
    <Info name="Date" value="Fri Jul 20 13:53:51 2012"/>
    <Info name="Host" value="Linux x86-03.phx2.fedoraproject.org 2.6.32-220.17.1.el6.x86_64 #1 SMP Thu Apr 26 13:37:13 EDT 2012 x86_64 x86_64 x86_64 GNU/Linux"/>
    <Info name="Dir" value="/data/blue/sixie/LeptonSelection/Electrons/HWW/IDMVA"/>
    <Info name="Training events" value="28777"/>
    <Info name="TrainingTime" value="119.993"/>
    <Info name="AnalysisType" value="Classification"/>
  </GeneralInfo>
  <Options>
    <Option name="V" modified="Yes">False</Option>
    <Option name="VerbosityLevel" modified="No">Default</Option>
    <Option name="VarTransform" modified="No">None</Option>
    <Option name="H" modified="Yes">False</Option>
    <Option name="CreateMVAPdfs" modified="No">False</Option>
    <Option name="IgnoreNegWeightsInTraining" modified="No">False</Option>
    <Option name="NTrees" modified="Yes">2000</Option>
    <Option name="RenormByClass" modified="No">False</Option>
    <Option name="BoostType" modified="Yes">Grad</Option>
    <Option name="AdaBoostR2Loss" modified="No">quadratic</Option>
    <Option name="UseBaggedGrad" modified="Yes">False</Option>
    <Option name="GradBaggingFraction" modified="No">6.000000e-01</Option>
    <Option name="Shrinkage" modified="Yes">1.000000e-01</Option>
    <Option name="AdaBoostBeta" modified="No">1.000000e+00</Option>
    <Option name="UseRandomisedTrees" modified="No">False</Option>
    <Option name="UseNvars" modified="Yes">4</Option>
    <Option name="UsePoissonNvars" modified="No">True</Option>
    <Option name="UseNTrainEvents" modified="No">28777</Option>
    <Option name="UseWeightedTrees" modified="No">True</Option>
    <Option name="UseYesNoLeaf" modified="No">True</Option>
    <Option name="NodePurityLimit" modified="No">5.000000e-01</Option>
    <Option name="SeparationType" modified="No">giniindex</Option>
    <Option name="nEventsMin" modified="Yes">100</Option>
    <Option name="nCuts" modified="Yes">2000</Option>
    <Option name="UseFisherCuts" modified="No">False</Option>
    <Option name="MinLinCorrForFisher" modified="No">8.000000e-01</Option>
    <Option name="UseExclusiveVars" modified="No">False</Option>
    <Option name="PruneStrength" modified="Yes">5.000000e+00</Option>
    <Option name="PruneMethod" modified="Yes">costcomplexity</Option>
    <Option name="PruneBeforeBoost" modified="No">False</Option>
    <Option name="PruningValFraction" modified="No">5.000000e-01</Option>
    <Option name="NNodesMax" modified="Yes">5</Option>
    <Option name="MaxDepth" modified="Yes">6</Option>
  </Options>
  <Variables NVar="19">
    <Variable VarIndex="0" Expression="fbrem" Label="fbrem" Title="fbrem" Unit="" Internal="fbrem" Type="F" Min="-1" Max="0.989532"/>
    <Variable VarIndex="1" Expression="kfchi2" Label="kfchi2" Title="kfchi2" Unit="" Internal="kfchi2" Type="F" Min="0" Max="10"/>
    <Variable VarIndex="2" Expression="kflayers" Label="kflayers" Title="kflayers" Unit="" Internal="kflayers" Type="F" Min="-1" Max="13"/>
    <Variable VarIndex="3" Expression="gsfchi2" Label="gsfchi2" Title="gsfchi2" Unit="" Internal="gsfchi2" Type="F" Min="0.0936279" Max="200"/>
    <Variable VarIndex="4" Expression="deta" Label="deta" Title="deta" Unit="" Internal="deta" Type="F" Min="1.78814e-07" Max="0.00699997"/>
    <Variable VarIndex="5" Expression="dphi" Label="dphi" Title="dphi" Unit="" Internal="dphi" Type="F" Min="-0.149757" Max="0.149414"/>
    <Variable VarIndex="6" Expression="detacalo" Label="detacalo" Title="detacalo" Unit="" Internal="detacalo" Type="F" Min="-0.0918427" Max="0.077713"/>
    <Variable VarIndex="7" Expression="see" Label="see" Title="see" Unit="" Internal="see" Type="F" Min="0" Max="0.00999975"/>
    <Variable VarIndex="8" Expression="spp" Label="spp" Title="spp" Unit="" Internal="spp" Type="F" Min="0" Max="0.0297543"/>
    <Variable VarIndex="9" Expression="etawidth" Label="etawidth" Title="etawidth" Unit="" Internal="etawidth" Type="F" Min="0.00465155" Max="0.0251913"/>
    <Variable VarIndex="10" Expression="phiwidth" Label="phiwidth" Title="phiwidth" Unit="" Internal="phiwidth" Type="F" Min="0.00419688" Max="0.145317"/>
    <Variable VarIndex="11" Expression="OneMinusSeedE1x5OverE5x5" Label="OneMinusSeedE1x5OverE5x5" Title="OneMinusSeedE1x5OverE5x5" Unit="" Internal="OneMinusSeedE1x5OverE5x5" Type="F" Min="-1" Max="0.886691"/>
    <Variable VarIndex="12" Expression="R9" Label="R9" Title="R9" Unit="" Internal="R9" Type="F" Min="0.0212695" Max="4.54403"/>
    <Variable VarIndex="13" Expression="HoE" Label="HoE" Title="HoE" Unit="" Internal="HoE" Type="F" Min="0" Max="0.1199"/>
    <Variable VarIndex="14" Expression="EoP" Label="EoP" Title="EoP" Unit="" Internal="EoP" Type="F" Min="0.106792" Max="9.5498"/>
    <Variable VarIndex="15" Expression="IoEmIoP" Label="IoEmIoP" Title="IoEmIoP" Unit="" Internal="IoEmIoP" Type="F" Min="-0.398249" Max="0.153"/>
    <Variable VarIndex="16" Expression="EEleoPout" Label="EEleoPout" Title="EEleoPout" Unit="" Internal="EEleoPout" Type="F" Min="0.0281326" Max="20"/>
    <Variable VarIndex="17" Expression="d0" Label="d0" Title="d0" Unit="" Internal="d0" Type="F" Min="-0.0199944" Max="0.0199575"/>
    <Variable VarIndex="18" Expression="ip3d" Label="ip3d" Title="ip3d" Unit="" Internal="ip3d" Type="F" Min="-0.0958595" Max="0.0942497"/>
  </Variables>
  <Spectators NSpec="2">
    <Spectator SpecIndex="0" Expression="eta" Label="eta" Title="eta" Unit="" Internal="eta" Type="F" Min="-0.799988" Max="0.799988"/>
    <Spectator SpecIndex="1" Expression="pt" Label="pt" Title="pt" Unit="" Internal="pt" Type="F" Min="10.0005" Max="20"/>
  </Spectators>
  <Transformations NTransformations="0"/>
  <MVAPdfs/>
  <Weights NTrees="2000" AnalysisType="1">
    <BinaryTree type="DecisionTree" boostWeight="1.0000000000000000e+00" itree="0">
      <Node pos="s" depth="0" NCoef="0" IVar="0" Cut="6.9833554327487946e-02" cType="0" res="-2.2792473435401917e-01" rms="4.4502845406532288e-01" purity="2.7207526564598083e-01" nType="0">
        <Node pos="l" depth="1" NCoef="0" IVar="-1" Cut="0.0000000000000000e+00" cType="1" res="-7.9382425174117088e-03" rms="4.9728947877883911e-01" purity="4.4800806045532227e-01" nType="-1"/>
        <Node pos="r" depth="1" NCoef="0" IVar="16" Cut="9.8243832588195801e-01" cType="0" res="-3.7961325049400330e-01" rms="3.2541322708129883e-01" purity="1.2038673460483551e-01" nType="0">
          <Node pos="l" depth="2" NCoef="0" IVar="-1" Cut="0.0000000000000000e+00" cType="1" res="-3.8975715637207031e-02" rms="4.3898108601570129e-01" purity="2.6063501834869385e-01" nType="-1"/>
          <Node pos="r" depth="2" NCoef="0" IVar="-1" Cut="0.0000000000000000e+00" cType="1" res="-7.7247627079486847e-02" rms="1.8566085398197174e-01" purity="3.5747863352298737e-02" nType="-1"/>
        </Node>
      </Node>
    </BinaryTree>
    <BinaryTree type="DecisionTree" boostWeight="1.0000000000000000e+00" itree="1">
      <Node pos="s" depth="0" NCoef="0" IVar="0" Cut="7.5799167156219482e-02" cType="0" res="-2.0924122631549835e-01" rms="4.3901908397674561e-01" purity="2.7207526564598083e-01" nType="0">
        <Node pos="l" depth="1" NCoef="0" IVar="-1" Cut="0.0000000000000000e+00" cType="1" res="-6.6109364852309227e-03" rms="4.9775159358978271e-01" purity="4.5263609290122986e-01" nType="-1"/>
        <Node pos="r" depth="1" NCoef="0" IVar="16" Cut="9.8572689294815063e-01" cType="0" res="-3.4486061334609985e-01" rms="3.2689747214317322e-01" purity="1.2442325055599213e-01" nType="0">
          <Node pos="l" depth="2" NCoef="0" IVar="-1" Cut="0.0000000000000000e+00" cType="1" res="-3.4638252109289169e-02" rms="4.4357740879058838e-01" purity="2.6956722140312195e-01" nType="-1"/>
          <Node pos="r" depth="2" NCoef="0" IVar="-1" Cut="0.0000000000000000e+00" cType="1" res="-7.0608824491500854e-02" rms="1.9425334036350250e-01" purity="3.9423961192369461e-02" nType="-1"/>
        </Node>
      </Node>
    </BinaryTree>
    <BinaryTree type="DecisionTree" boostWeight="1.0000000000000000e+00" itree="2">
      <Node pos="s" depth="0" NCoef="0" IVar="0" Cut="6.4862206578254700e-02" cType="0" res="-1.9215279817581177e-01" rms="4.3386903405189514e-01" purity="2.7207526564598083e-01" nType="0">
        <Node pos="l" depth="1" NCoef="0" IVar="-1" Cut="0.0000000000000000e+00" cType="1" res="-7.3717776685953140e-03" rms="4.9596861004829407e-01" purity="4.4263809919357300e-01" nType="-1"/>
        <Node pos="r" depth="1" NCoef="0" IVar="16" Cut="9.7369104623794556e-01" cType="0" res="-3.2387563586235046e-01" rms="3.1478118896484375e-01" purity="1.1597756296396255e-01" nType="0">
          <Node pos="l" depth="2" NCoef="0" IVar="-1" Cut="0.0000000000000000e+00" cType="1" res="-3.5466518253087997e-02" rms="4.2811429500579834e-01" purity="2.4324832856655121e-01" nType="-1"/>
          <Node pos="r" depth="2" NCoef="0" IVar="-1" Cut="0.0000000000000000e+00" cType="1" res="-6.7852668464183807e-02" rms="1.6730917990207672e-01" purity="2.8823133558034897e-02" nType="-1"/>
        </Node>
      </Node>
    </BinaryTree>
    <BinaryTree type="DecisionTree" boostWeight="1.0000000000000000e+00" itree="3">
      <Node pos="s" depth="0" NCoef="0" IVar="0" Cut="7.7787704765796661e-02" cType="0" res="-1.7649777233600616e-01" rms="4.2959398031234741e-01" purity="2.7207526564598083e-01" nType="0">
        <Node pos="l" depth="1" NCoef="0" IVar="-1" Cut="0.0000000000000000e+00" cType="1" res="-5.3373803384602070e-03" rms="4.9787801504135132e-01" purity="4.5398378372192383e-01" nType="-1"/>
        <Node pos="r" depth="1" NCoef="0" IVar="16" Cut="9.8572689294815063e-01" cType="0" res="-2.9011040925979614e-01" rms="3.2357749342918396e-01" purity="1.2595631182193756e-01" nType="0">
          <Node pos="l" depth="2" NCoef="0" IVar="-1" Cut="0.0000000000000000e+00" cType="1" res="-2.9197689145803452e-02" rms="4.4421774148941040e-01" purity="2.7159062027931213e-01" nType="-1"/>
          <Node pos="r" depth="2" NCoef="0" IVar="-1" Cut="0.0000000000000000e+00" cType="1" res="-6.1987757682800293e-02" rms="1.9422292709350586e-01" purity="3.9728265255689621e-02" nType="-1"/>
        </Node>
      </Node>
    </BinaryTree>
    <BinaryTree type="DecisionTree" boostWeight="1.0000000000000000e+00" itree="4">
      <Node pos="s" depth="0" NCoef="0" IVar="0" Cut="7.7787704765796661e-02" cType="0" res="-1.6215252876281738e-01" rms="4.2584425210952759e-01" purity="2.7207526564598083e-01" nType="0">
        <Node pos="l" depth="1" NCoef="0" IVar="-1" Cut="0.0000000000000000e+00" cType="1" res="-4.9326224252581596e-03" rms="4.9787801504135132e-01" purity="4.5398378372192383e-01" nType="-1"/>
        <Node pos="r" depth="1" NCoef="0" IVar="16" Cut="9.5071953535079956e-01" cType="0" res="-2.6638463139533997e-01" rms="3.2172295451164246e-01" purity="1.2595631182193756e-01" nType="0">
          <Node pos="l" depth="2" NCoef="0" IVar="-1" Cut="0.0000000000000000e+00" cType="1" res="-3.1028650701045990e-02" rms="4.1889411211013794e-01" purity="2.3302553594112396e-01" nType="-1"/>
          <Node pos="r" depth="2" NCoef="0" IVar="-1" Cut="0.0000000000000000e+00" cType="1" res="-6.2961190938949585e-02" rms="1.3442830741405487e-01" purity="1.8412442877888680e-02" nType="-1"/>
        </Node>
      </Node>
    </BinaryTree>
    <BinaryTree type="DecisionTree" boostWeight="1.0000000000000000e+00" itree="5">
      <Node pos="s" depth="0" NCoef="0" IVar="0" Cut="6.4862206578254700e-02" cType="0" res="-1.4895690977573395e-01" rms="4.2263084650039673e-01" purity="2.7207526564598083e-01" nType="0">
        <Node pos="l" depth="1" NCoef="0" IVar="-1" Cut="0.0000000000000000e+00" cType="1" res="-5.6893471628427505e-03" rms="4.9523630738258362e-01" purity="4.4263809919357300e-01" nType="-1"/>
        <Node pos="r" depth="1" NCoef="0" IVar="16" Cut="9.8243832588195801e-01" cType="0" res="-2.5129061937332153e-01" rms="3.0937296152114868e-01" purity="1.1597756296396255e-01" nType="0">
          <Node pos="l" depth="2" NCoef="0" IVar="-1" Cut="0.0000000000000000e+00" cType="1" res="-2.6850385591387749e-02" rms="4.3589261174201965e-01" purity="2.5546994805335999e-01" nType="-1"/>
          <Node pos="r" depth="2" NCoef="0" IVar="-1" Cut="0.0000000000000000e+00" cType="1" res="-5.6566148996353149e-02" rms="1.8118058145046234e-01" purity="3.4515965729951859e-02" nType="-1"/>
        </Node>
      </Node>
    </BinaryTree>
    <BinaryTree type="DecisionTree" boostWeight="1.0000000000000000e+00" itree="6">
      <Node pos="s" depth="0" NCoef="0" IVar="0" Cut="7.7787704765796661e-02" cType="0" res="-1.3690222799777985e-01" rms="4.2001169919967651e-01" purity="2.7207526564598083e-01" nType="0">
        <Node pos="l" depth="1" NCoef="0" IVar="-1" Cut="0.0000000000000000e+00" cType="1" res="-4.1275522671639919e-03" rms="4.9787801504135132e-01" purity="4.5398378372192383e-01" nType="-1"/>
        <Node pos="r" depth="1" NCoef="0" IVar="4" Cut="1.8367056036368012e-03" cType="1" res="-2.2511337697505951e-01" rms="3.1863889098167419e-01" purity="1.2595631182193756e-01" nType="0">
          <Node pos="l" depth="2" NCoef="0" IVar="-1" Cut="0.0000000000000000e+00" cType="1" res="-2.8026565909385681e-02" rms="3.8693755865097046e-01" purity="2.0176957547664642e-01" nType="-1"/>
          <Node pos="r" depth="2" NCoef="0" IVar="-1" Cut="0.0000000000000000e+00" cType="1" res="-5.8628894388675690e-02" rms="1.7613859474658966e-01" purity="3.3373370766639709e-02" nType="-1"/>
        </Node>
      </Node>
    </BinaryTree>
    <BinaryTree type="DecisionTree" boostWeight="1.0000000000000000e+00" itree="7">
      <Node pos="s" depth="0" NCoef="0" IVar="0" Cut="6.2873668968677521e-02" cType="0" res="-1.2572786211967468e-01" rms="4.1763591766357422e-01" purity="2.7207526564598083e-01" nType="0">
        <Node pos="l" depth="1" NCoef="0" IVar="-1" Cut="0.0000000000000000e+00" cType="1" res="-4.9592247232794762e-03" rms="4.9403670430183411e-01" purity="4.4002470374107361e-01" nType="-1"/>
        <Node pos="r" depth="1" NCoef="0" IVar="16" Cut="9.4744920730590820e-01" cType="0" res="-2.1346250176429749e-01" rms="3.0520510673522949e-01" purity="1.1445033550262451e-01" nType="0">
          <Node pos="l" depth="2" NCoef="0" IVar="-1" Cut="0.0000000000000000e+00" cType="1" res="-2.6249716058373451e-02" rms="4.0594795346260071e-01" purity="2.1584129333496094e-01" nType="-1"/>
          <Node pos="r" depth="2" NCoef="0" IVar="-1" Cut="0.0000000000000000e+00" cType="1" res="-5.6119550019502640e-02" rms="1.2546385824680328e-01" purity="1.6081506386399269e-02" nType="-1"/>
        </Node>
      </Node>
    </BinaryTree>
    <BinaryTree type="DecisionTree" boostWeight="1.0000000000000000e+00" itree="8">
      <Node pos="s" depth="0" NCoef="0" IVar="4" Cut="1.9346537301316857e-03" cType="1" res="-1.1555171012878418e-01" rms="4.1569867730140686e-01" purity="2.7207526564598083e-01" nType="0">
        <Node pos="l" depth="1" NCoef="0" IVar="-1" Cut="0.0000000000000000e+00" cType="1" res="-8.7251700460910797e-03" rms="4.5372819900512695e-01" purity="3.5364300012588501e-01" nType="-1"/>
        <Node pos="r" depth="1" NCoef="0" IVar="0" Cut="1.2126559764146805e-01" cType="0" res="-2.3112502694129944e-01" rms="3.0271795392036438e-01" purity="1.2279477715492249e-01" nType="0">
          <Node pos="l" depth="2" NCoef="0" IVar="-1" Cut="0.0000000000000000e+00" cType="1" res="-2.1449131891131401e-02" rms="4.7087258100509644e-01" purity="3.3183637261390686e-01" nType="-1"/>
          <Node pos="r" depth="2" NCoef="0" IVar="-1" Cut="0.0000000000000000e+00" cType="1" res="-5.4491117596626282e-02" rms="1.8892611563205719e-01" purity="3.9573043584823608e-02" nType="-1"/>
        </Node>
      </Node>
    </BinaryTree>
    <BinaryTree type="DecisionTree" boostWeight="1.0000000000000000e+00" itree="9">
      <Node pos="s" depth="0" NCoef="0" IVar="0" Cut="7.8781977295875549e-02" cType="0" res="-1.0621508210897446e-01" rms="4.1410794854164124e-01" purity="2.7207526564598083e-01" nType="0">
        <Node pos="l" depth="1" NCoef="0" IVar="-1" Cut="0.0000000000000000e+00" cType="1" res="-2.3848598357290030e-03" rms="4.9720624089241028e-01" purity="4.5439872145652771e-01" nType="-1"/>
        <Node pos="r" depth="1" NCoef="0" IVar="16" Cut="9.9739599227905273e-01" cType="0" res="-1.7841480672359467e-01" rms="3.1525525450706482e-01" purity="1.2678919732570648e-01" nType="0">
          <Node pos="l" depth="2" NCoef="0" IVar="-1" Cut="0.0000000000000000e+00" cType="1" res="-1.4814016409218311e-02" rms="4.4637143611907959e-01" purity="2.8508734703063965e-01" nType="-1"/>
          <Node pos="r" depth="2" NCoef="0" IVar="-1" Cut="0.0000000000000000e+00" cType="1" res="-4.6401351690292358e-02" rms="2.1623092889785767e-01" purity="5.2967488765716553e-02" nType="-1"/>
        </Node>
      </Node>
    </BinaryTree>
    <BinaryTree type="DecisionTree" boostWeight="1.0000000000000000e+00" itree="10">
      <Node pos="s" depth="0" NCoef="0" IVar="4" Cut="1.9346537301316857e-03" cType="1" res="-9.7644418478012085e-02" rms="4.1248100996017456e-01" purity="2.7207526564598083e-01" nType="0">
        <Node pos="l" depth="1" NCoef="0" IVar="-1" Cut="0.0000000000000000e+00" cType="1" res="-6.8941591307520866e-03" rms="4.5220187306404114e-01" purity="3.5364300012588501e-01" nType="-1"/>
        <Node pos="r" depth="1" NCoef="0" IVar="15" Cut="-8.4610171616077423e-03" cType="0" res="-2.0165424048900604e-01" rms="3.0092114210128784e-01" purity="1.2279477715492249e-01" nType="0">
          <Node pos="l" depth="2" NCoef="0" IVar="-1" Cut="0.0000000000000000e+00" cType="1" res="-3.1904995441436768e-02" rms="3.2253631949424744e-01" purity="1.5210789442062378e-01" nType="-1"/>
          <Node pos="r" depth="2" NCoef="0" IVar="-1" Cut="0.0000000000000000e+00" cType="1" res="-5.6904274970293045e-02" rms="2.3018710315227509e-01" purity="5.8217022567987442e-02" nType="-1"/>
        </Node>
      </Node>
    </BinaryTree>
    <BinaryTree type="DecisionTree" boostWeight="1.0000000000000000e+00" itree="11">
      <Node pos="s" depth="0" NCoef="0" IVar="0" Cut="5.1936708390712738e-02" cType="0" res="-8.9795127511024475e-02" rms="4.1124081611633301e-01" purity="2.7207526564598083e-01" nType="0">
        <Node pos="l" depth="1" NCoef="0" IVar="-1" Cut="0.0000000000000000e+00" cType="1" res="-3.0631849076598883e-03" rms="4.8405510187149048e-01" purity="4.2071774601936340e-01" nType="-1"/>
        <Node pos="r" depth="1" NCoef="0" IVar="16" Cut="9.4744920730590820e-01" cType="0" res="-1.6903898119926453e-01" rms="2.8960883617401123e-01" purity="1.0474096983671188e-01" nType="0">
          <Node pos="l" depth="2" NCoef="0" IVar="-1" Cut="0.0000000000000000e+00" cType="1" res="-2.2261613979935646e-02" rms="3.9319124817848206e-01" purity="2.0299343764781952e-01" nType="-1"/>
          <Node pos="r" depth="2" NCoef="0" IVar="-1" Cut="0.0000000000000000e+00" cType="1" res="-5.0929948687553406e-02" rms="1.2419386208057404e-01" purity="1.5689376741647720e-02" nType="-1"/>
        </Node>
      </Node>
    </BinaryTree>
    <BinaryTree type="DecisionTree" boostWeight="1.0000000000000000e+00" itree="12">
      <Node pos="s" depth="0" NCoef="0" IVar="4" Cut="1.9346537301316857e-03" cType="1" res="-8.2544855773448944e-02" rms="4.0999087691307068e-01" purity="2.7207526564598083e-01" nType="0">
        <Node pos="l" depth="1" NCoef="0" IVar="-1" Cut="0.0000000000000000e+00" cType="1" res="-5.3539634682238102e-03" rms="4.5102208852767944e-01" purity="3.5364300012588501e-01" nType="-1"/>
        <Node pos="r" depth="1" NCoef="0" IVar="15" Cut="-8.4610171616077423e-03" cType="0" res="-1.7636021971702576e-01" rms="2.9970997571945190e-01" purity="1.2279477715492249e-01" nType="0">
          <Node pos="l" depth="2" NCoef="0" IVar="-1" Cut="0.0000000000000000e+00" cType="1" res="-2.8944276273250580e-02" rms="3.2180574536323547e-01" purity="1.5210789442062378e-01" nType="-1"/>
          <Node pos="r" depth="2" NCoef="0" IVar="-1" Cut="0.0000000000000000e+00" cType="1" res="-5.3129680454730988e-02" rms="2.3049351572990417e-01" purity="5.8217022567987442e-02" nType="-1"/>
        </Node>
      </Node>
    </BinaryTree>
    <BinaryTree type="DecisionTree" boostWeight="1.0000000000000000e+00" itree="13">
      <Node pos="s" depth="0" NCoef="0" IVar="0" Cut="8.9718937873840332e-02" cType="0" res="-7.5917899608612061e-02" rms="4.0898394584655762e-01" purity="2.7207526564598083e-01" nType="0">
        <Node pos="l" depth="1" NCoef="0" IVar="-1" Cut="0.0000000000000000e+00" cType="1" res="7.2919228114187717e-04" rms="4.9491328001022339e-01" purity="4.5784974098205566e-01" nType="-1"/>
        <Node pos="r" depth="1" NCoef="0" IVar="16" Cut="9.9156141281127930e-01" cType="0" res="-1.3506223261356354e-01" rms="3.1944447755813599e-01" purity="1.3585104048252106e-01" nType="0">
          <Node pos="l" depth="2" NCoef="0" IVar="-1" Cut="0.0000000000000000e+00" cType="1" res="-1.0380448773503304e-02" rms="4.4416022300720215e-01" purity="2.9060456156730652e-01" nType="-1"/>
          <Node pos="r" depth="2" NCoef="0" IVar="-1" Cut="0.0000000000000000e+00" cType="1" res="-4.2413342744112015e-02" rms="2.0725795626640320e-01" purity="4.8478979617357254e-02" nType="-1"/>
        </Node>
      </Node>
    </BinaryTree>
    <BinaryTree type="DecisionTree" boostWeight="1.0000000000000000e+00" itree="14">
      <Node pos="s" depth="0" NCoef="0" IVar="0" Cut="5.1936708390712738e-02" cType="0" res="-6.9801129400730133e-02" rms="4.0774387121200562e-01" purity="2.7207526564598083e-01" nType="0">
        <Node pos="l" depth="1" NCoef="0" IVar="-1" Cut="0.0000000000000000e+00" cType="1" res="-1.5538051957264543e-03" rms="4.8241528868675232e-01" purity="4.2071774601936340e-01" nType="-1"/>
        <Node pos="r" depth="1" NCoef="0" IVar="16" Cut="9.4744920730590820e-01" cType="0" res="-1.3738162815570831e-01" rms="2.8775513172149658e-01" purity="1.0474096983671188e-01" nType="0">
          <Node pos="l" depth="2" NCoef="0" IVar="-1" Cut="0.0000000000000000e+00" cType="1" res="-1.8495457246899605e-02" rms="3.9184150099754333e-01" purity="2.0299343764781952e-01" nType="-1"/>
          <Node pos="r" depth="2" NCoef="0" IVar="-1" Cut="0.0000000000000000e+00" cType="1" res="-4.7814406454563141e-02" rms="1.2441384047269821e-01" purity="1.5689376741647720e-02" nType="-1"/>
        </Node>
      </Node>
    </BinaryTree>
    <BinaryTree type="DecisionTree" boostWeight="1.0000000000000000e+00" itree="15">
      <Node pos="s" depth="0" NCoef="0" IVar="4" Cut="1.9346537301316857e-03" cType="1" res="-6.4162440598011017e-02" rms="4.0683174133300781e-01" purity="2.7207526564598083e-01" nType="0">
        <Node pos="l" depth="1" NCoef="0" IVar="-1" Cut="0.0000000000000000e+00" cType="1" res="-3.2485541887581348e-03" rms="4.4884422421455383e-01" purity="3.5364300012588501e-01" nType="-1"/>
        <Node pos="r" depth="1" NCoef="0" IVar="15" Cut="-8.4610171616077423e-03" cType="0" res="-1.4762713015079498e-01" rms="2.9824039340019226e-01" purity="1.2279477715492249e-01" nType="0">
          <Node pos="l" depth="2" NCoef="0" IVar="-1" Cut="0.0000000000000000e+00" cType="1" res="-2.5312570855021477e-02" rms="3.2008785009384155e-01" purity="1.5210789442062378e-01" nType="-1"/>
          <Node pos="r" depth="2" NCoef="0" IVar="-1" Cut="0.0000000000000000e+00" cType="1" res="-4.9458134919404984e-02" rms="2.3163454234600067e-01" purity="5.8217022567987442e-02" nType="-1"/>
        </Node>
      </Node>
    </BinaryTree>
    <BinaryTree type="DecisionTree" boostWeight="1.0000000000000000e+00" itree="16">
      <Node pos="s" depth="0" NCoef="0" IVar="0" Cut="8.9718937873840332e-02" cType="0" res="-5.9013061225414276e-02" rms="4.0600666403770447e-01" purity="2.7207526564598083e-01" nType="0">
        <Node pos="l" depth="1" NCoef="0" IVar="-1" Cut="0.0000000000000000e+00" cType="1" res="1.6213970957323909e-03" rms="4.9383661150932312e-01" purity="4.5784974098205566e-01" nType="-1"/>
        <Node pos="r" depth="1" NCoef="0" IVar="16" Cut="9.9739599227905273e-01" cType="0" res="-1.0998708009719849e-01" rms="3.1740561127662659e-01" purity="1.3585104048252106e-01" nType="0">
          <Node pos="l" depth="2" NCoef="0" IVar="-1" Cut="0.0000000000000000e+00" cType="1" res="-6.8748393096029758e-03" rms="4.4560453295707703e-01" purity="2.9692113399505615e-01" nType="-1"/>
          <Node pos="r" depth="2" NCoef="0" IVar="-1" Cut="0.0000000000000000e+00" cType="1" res="-3.8024380803108215e-02" rms="2.1891249716281891e-01" purity="5.5389579385519028e-02" nType="-1"/>
        </Node>
      </Node>
    </BinaryTree>
    <BinaryTree type="DecisionTree" boostWeight="1.0000000000000000e+00" itree="17">
      <Node pos="s" depth="0" NCoef="0" IVar="4" Cut="1.5953334514051676e-03" cType="1" res="-5.4251644760370255e-02" rms="4.0508055686950684e-01" purity="2.7207526564598083e-01" nType="0">
        <Node pos="l" depth="1" NCoef="0" IVar="-1" Cut="0.0000000000000000e+00" cType="1" res="-9.5976080046966672e-04" rms="4.5105588436126709e-01" purity="3.6287751793861389e-01" nType="-1"/>
        <Node pos="r" depth="1" NCoef="0" IVar="15" Cut="-7.6886494643986225e-03" cType="0" res="-1.1911702156066895e-01" rms="3.2313182950019836e-01" purity="1.5141956508159637e-01" nType="0">
          <Node pos="l" depth="2" NCoef="0" IVar="-1" Cut="0.0000000000000000e+00" cType="1" res="-1.9562754780054092e-02" rms="3.4291899204254150e-01" purity="1.8144349753856659e-01" nType="-1"/>
          <Node pos="r" depth="2" NCoef="0" IVar="-1" Cut="0.0000000000000000e+00" cType="1" res="-4.2797666043043137e-02" rms="2.6154568791389465e-01" purity="8.1940323114395142e-02" nType="-1"/>
        </Node>
      </Node>
    </BinaryTree>
    <BinaryTree type="DecisionTree" boostWeight="1.0000000000000000e+00" itree="18">
      <Node pos="s" depth="0" NCoef="0" IVar="0" Cut="1.2153554707765579e-01" cType="0" res="-4.9907814711332321e-02" rms="4.0437588095664978e-01" purity="2.7207526564598083e-01" nType="0">
        <Node pos="l" depth="1" NCoef="0" IVar="-1" Cut="0.0000000000000000e+00" cType="1" res="3.1667714938521385e-03" rms="4.9360287189483643e-01" purity="4.6412333846092224e-01" nType="-1"/>
        <Node pos="r" depth="1" NCoef="0" IVar="16" Cut="9.8280960321426392e-01" cType="0" res="-9.3307189643383026e-02" rms="3.3046409487724304e-01" purity="1.5373317897319794e-01" nType="0">
          <Node pos="l" depth="2" NCoef="0" IVar="-1" Cut="0.0000000000000000e+00" cType="1" res="-6.4069759100675583e-03" rms="4.4396287202835083e-01" purity="3.0104279518127441e-01" nType="-1"/>
          <Node pos="r" depth="2" NCoef="0" IVar="-1" Cut="0.0000000000000000e+00" cType="1" res="-3.9460860192775726e-02" rms="1.9354981184005737e-01" purity="4.1212439537048340e-02" nType="-1"/>
        </Node>
      </Node>
    </BinaryTree>
    <BinaryTree type="DecisionTree" boostWeight="1.0000000000000000e+00" itree="19">
      <Node pos="s" depth="0" NCoef="0" IVar="4" Cut="2.3439368233084679e-03" cType="1" res="-4.5859556645154953e-02" rms="4.0348774194717407e-01" purity="2.7207526564598083e-01" nType="0">
        <Node pos="l" depth="1" NCoef="0" IVar="-1" Cut="0.0000000000000000e+00" cType="1" res="-2.3855732288211584e-03" rms="4.4044303894042969e-01" purity="3.3972880244255066e-01" nType="-1"/>
        <Node pos="r" depth="1" NCoef="0" IVar="2" Cut="4.0024986267089844e+00" cType="1" res="-1.2928643822669983e-01" rms="2.7125424146652222e-01" purity="9.9546819925308228e-02" nType="0">
          <Node pos="l" depth="2" NCoef="0" IVar="-1" Cut="0.0000000000000000e+00" cType="1" res="9.5877144485712051e-03" rms="4.7216105461120605e-01" purity="4.0834745764732361e-01" nType="-1"/>
          <Node pos="r" depth="2" NCoef="0" IVar="-1" Cut="0.0000000000000000e+00" cType="1" res="-3.4724280238151550e-02" rms="2.5651240348815918e-01" purity="8.6547352373600006e-02" nType="-1"/>
        </Node>
      </Node>
    </BinaryTree>
    <BinaryTree type="DecisionTree" boostWeight="1.0000000000000000e+00" itree="20">
      <Node pos="s" depth="0" NCoef="0" IVar="0" Cut="4.9948170781135559e-02" cType="0" res="-4.2203344404697418e-02" rms="4.0290877223014832e-01" purity="2.7207526564598083e-01" nType="0">
        <Node pos="l" depth="1" NCoef="0" IVar="-1" Cut="0.0000000000000000e+00" cType="1" res="8.1638584379106760e-04" rms="4.7699087858200073e-01" purity="4.1611668467521667e-01" nType="-1"/>
        <Node pos="r" depth="1" NCoef="0" IVar="16" Cut="9.4161772727966309e-01" cType="0" res="-9.7659587860107422e-02" rms="2.8299492597579956e-01" purity="1.0290792584419250e-01" nType="0">
          <Node pos="l" depth="2" NCoef="0" IVar="-1" Cut="0.0000000000000000e+00" cType="1" res="-1.3821800239384174e-02" rms="3.8303136825561523e-01" purity="1.9545298814773560e-01" nType="-1"/>
          <Node pos="r" depth="2" NCoef="0" IVar="-1" Cut="0.0000000000000000e+00" cType="1" res="-4.4510923326015472e-02" rms="1.1814734339714050e-01" purity="1.3952682726085186e-02" nType="-1"/>
        </Node>
      </Node>
    </BinaryTree>
    <BinaryTree type="DecisionTree" boostWeight="1.0000000000000000e+00" itree="21">
      <Node pos="s" depth="0" NCoef="0" IVar="15" Cut="-8.9859869331121445e-03" cType="0" res="-3.8773961365222931e-02" rms="4.0231335163116455e-01" purity="2.7207526564598083e-01" nType="0">
        <Node pos="l" depth="1" NCoef="0" IVar="-1" Cut="0.0000000000000000e+00" cType="1" res="-2.6872558519244194e-03" rms="4.1575062274932861e-01" purity="3.0468037724494934e-01" nType="-1"/>
        <Node pos="r" depth="1" NCoef="0" IVar="2" Cut="4.0024986267089844e+00" cType="1" res="-1.3757734000682831e-01" rms="3.2553350925445557e-01" purity="1.4256224036216736e-01" nType="0">
          <Node pos="l" depth="2" NCoef="0" IVar="-1" Cut="0.0000000000000000e+00" cType="1" res="1.7088875174522400e-02" rms="4.7491014003753662e-01" purity="4.7231638431549072e-01" nType="-1"/>
          <Node pos="r" depth="2" NCoef="0" IVar="-1" Cut="0.0000000000000000e+00" cType="1" res="-3.6202836781740189e-02" rms="3.0553838610649109e-01" purity="1.1850446462631226e-01" nType="-1"/>
        </Node>
      </Node>
    </BinaryTree>
    <BinaryTree type="DecisionTree" boostWeight="1.0000000000000000e+00" itree="22">
      <Node pos="s" depth="0" NCoef="0" IVar="18" Cut="-1.3488352298736572e-02" cType="0" res="-3.5605370998382568e-02" rms="4.0165516734123230e-01" purity="2.7207526564598083e-01" nType="0">
        <Node pos="l" depth="1" NCoef="0" IVar="-1" Cut="0.0000000000000000e+00" cType="1" res="-5.1919100806117058e-03" rms="4.0207853913307190e-01" purity="2.7927404642105103e-01" nType="-1"/>
        <Node pos="r" depth="1" NCoef="0" IVar="15" Cut="-2.7281392365694046e-02" cType="1" res="-2.7368581295013428e-01" rms="3.0671933293342590e-01" purity="9.8143391311168671e-02" nType="0">
          <Node pos="l" depth="2" NCoef="0" IVar="-1" Cut="0.0000000000000000e+00" cType="1" res="-1.8681593239307404e-02" rms="3.8594993948936462e-01" purity="2.1543295681476593e-01" nType="-1"/>
          <Node pos="r" depth="2" NCoef="0" IVar="-1" Cut="0.0000000000000000e+00" cType="1" res="-5.6104335933923721e-02" rms="2.8199553489685059e-01" purity="8.1011004745960236e-02" nType="-1"/>
        </Node>
      </Node>
    </BinaryTree>
    <BinaryTree type="DecisionTree" boostWeight="1.0000000000000000e+00" itree="23">
      <Node pos="s" depth="0" NCoef="0" IVar="0" Cut="1.2153554707765579e-01" cType="0" res="-3.2765947282314301e-02" rms="4.0122312307357788e-01" purity="2.7207526564598083e-01" nType="0">
        <Node pos="l" depth="1" NCoef="0" IVar="-1" Cut="0.0000000000000000e+00" cType="1" res="4.6022660098969936e-03" rms="4.9091801047325134e-01" purity="4.6412333846092224e-01" nType="-1"/>
        <Node pos="r" depth="1" NCoef="0" IVar="16" Cut="9.9739599227905273e-01" cType="0" res="-7.1220993995666504e-02" rms="3.2831677794456482e-01" purity="1.5373317897319794e-01" nType="0">
          <Node pos="l" depth="2" NCoef="0" IVar="-1" Cut="0.0000000000000000e+00" cType="1" res="-1.8621297786012292e-03" rms="4.4955435395240784e-01" purity="3.1859454512596130e-01" nType="-1"/>
          <Node pos="r" depth="2" NCoef="0" IVar="-1" Cut="0.0000000000000000e+00" cType="1" res="-3.2729905098676682e-02" rms="2.2239463031291962e-01" purity="5.7798687368631363e-02" nType="-1"/>
        </Node>
      </Node>
    </BinaryTree>
    <BinaryTree type="DecisionTree" boostWeight="1.0000000000000000e+00" itree="24">
      <Node pos="s" depth="0" NCoef="0" IVar="4" Cut="1.3364707119762897e-03" cType="1" res="-3.0098045244812965e-02" rms="4.0052643418312073e-01" purity="2.7207526564598083e-01" nType="0">
        <Node pos="l" depth="1" NCoef="0" IVar="-1" Cut="0.0000000000000000e+00" cType="1" res="3.0827261507511139e-03" rms="4.4946253299713135e-01" purity="3.7080174684524536e-01" nType="-1"/>
        <Node pos="r" depth="1" NCoef="0" IVar="18" Cut="1.2927471660077572e-02" cType="1" res="-7.7512539923191071e-02" rms="3.3768284320831299e-01" purity="1.7259553074836731e-01" nType="0">
          <Node pos="l" depth="2" NCoef="0" IVar="-1" Cut="0.0000000000000000e+00" cType="1" res="-1.6312802210450172e-02" rms="3.3799049258232117e-01" purity="1.7690804600715637e-01" nType="-1"/>
          <Node pos="r" depth="2" NCoef="0" IVar="-1" Cut="0.0000000000000000e+00" cType="1" res="-4.7364842146635056e-02" rms="2.7906966209411621e-01" purity="8.1665165722370148e-02" nType="-1"/>
        </Node>
      </Node>
    </BinaryTree>
    <BinaryTree type="DecisionTree" boostWeight="1.0000000000000000e+00" itree="25">
      <Node pos="s" depth="0" NCoef="0" IVar="18" Cut="1.2828621082007885e-02" cType="1" res="-2.7732802554965019e-02" rms="4.0004038810729980e-01" purity="2.7207526564598083e-01" nType="0">
        <Node pos="l" depth="1" NCoef="0" IVar="-1" Cut="0.0000000000000000e+00" cType="1" res="-3.6684803199023008e-03" rms="4.0075889229774475e-01" purity="2.7955007553100586e-01" nType="-1"/>
        <Node pos="r" depth="1" NCoef="0" IVar="14" Cut="1.2222626209259033e+00" cType="0" res="-2.3859405517578125e-01" rms="3.1819820404052734e-01" purity="1.1322563886642456e-01" nType="0">
          <Node pos="l" depth="2" NCoef="0" IVar="-1" Cut="0.0000000000000000e+00" cType="1" res="-2.4685706943273544e-02" rms="3.6523100733757019e-01" purity="1.9438327848911285e-01" nType="-1"/>
          <Node pos="r" depth="2" NCoef="0" IVar="-1" Cut="0.0000000000000000e+00" cType="1" res="-5.0185311585664749e-02" rms="2.9146790504455566e-01" purity="8.8636182248592377e-02" nType="-1"/>
        </Node>
      </Node>
    </BinaryTree>
    <BinaryTree type="DecisionTree" boostWeight="1.0000000000000000e+00" itree="26">
      <Node pos="s" depth="0" NCoef="0" IVar="0" Cut="6.3867941498756409e-02" cType="0" res="-2.5542847812175751e-02" rms="3.9965116977691650e-01" purity="2.7207526564598083e-01" nType="0">
        <Node pos="l" depth="1" NCoef="0" IVar="-1" Cut="0.0000000000000000e+00" cType="1" res="3.6015769001096487e-03" rms="4.8341482877731323e-01" purity="4.4123402237892151e-01" nType="-1"/>
        <Node pos="r" depth="1" NCoef="0" IVar="16" Cut="9.6494376659393311e-01" cType="0" res="-7.0259682834148407e-02" rms="2.9487892985343933e-01" purity="1.1516664177179337e-01" nType="0">
          <Node pos="l" depth="2" NCoef="0" IVar="-1" Cut="0.0000000000000000e+00" cType="1" res="-6.1303982511162758e-03" rms="4.0783655643463135e-01" purity="2.3268397152423859e-01" nType="-1"/>
          <Node pos="r" depth="2" NCoef="0" IVar="-1" Cut="0.0000000000000000e+00" cType="1" res="-3.8475297391414642e-02" rms="1.5323856472969055e-01" purity="2.4712113663554192e-02" nType="-1"/>
        </Node>
      </Node>
    </BinaryTree>
    <BinaryTree type="DecisionTree" boostWeight="1.0000000000000000e+00" itree="27">
      <Node pos="s" depth="0" NCoef="0" IVar="15" Cut="-8.9859869331121445e-03" cType="0" res="-2.3441752418875694e-02" rms="3.9910304546356201e-01" purity="2.7207526564598083e-01" nType="0">
        <Node pos="l" depth="1" NCoef="0" IVar="-1" Cut="0.0000000000000000e+00" cType="1" res="-1.1761982023017481e-04" rms="4.1282656788825989e-01" purity="3.0468037724494934e-01" nType="-1"/>
        <Node pos="r" depth="1" NCoef="0" IVar="2" Cut="4.0024986267089844e+00" cType="1" res="-1.1421831697225571e-01" rms="3.2358658313751221e-01" purity="1.4256224036216736e-01" nType="0">
          <Node pos="l" depth="2" NCoef="0" IVar="-1" Cut="0.0000000000000000e+00" cType="1" res="1.7620617523789406e-02" rms="4.7183847427368164e-01" purity="4.7231638431549072e-01" nType="-1"/>
          <Node pos="r" depth="2" NCoef="0" IVar="-1" Cut="0.0000000000000000e+00" cType="1" res="-3.2371435314416885e-02" rms="3.0482852458953857e-01" purity="1.1850446462631226e-01" nType="-1"/>
        </Node>
      </Node>
    </BinaryTree>
    <BinaryTree type="DecisionTree" boostWeight="1.0000000000000000e+00" itree="28">
      <Node pos="s" depth="0" NCoef="0" IVar="18" Cut="-1.3488352298736572e-02" cType="0" res="-2.1493356674909592e-02" rms="3.9851048588752747e-01" purity="2.7207526564598083e-01" nType="0">
        <Node pos="l" depth="1" NCoef="0" IVar="-1" Cut="0.0000000000000000e+00" cType="1" res="-2.5670526083558798e-03" rms="3.9919924736022949e-01" purity="2.7927404642105103e-01" nType="-1"/>
        <Node pos="r" depth="1" NCoef="0" IVar="0" Cut="8.0274984240531921e-02" cType="0" res="-2.4408699572086334e-01" rms="3.0649152398109436e-01" purity="9.8143391311168671e-02" nType="0">
          <Node pos="l" depth="2" NCoef="0" IVar="-1" Cut="0.0000000000000000e+00" cType="1" res="-5.3184084594249725e-02" rms="3.1216910481452942e-01" purity="1.0740149021148682e-01" nType="-1"/>
          <Node pos="r" depth="2" NCoef="0" IVar="-1" Cut="0.0000000000000000e+00" cType="1" res="-3.5563100129365921e-02" rms="2.6537448167800903e-01" purity="7.9510681331157684e-02" nType="-1"/>
        </Node>
      </Node>
    </BinaryTree>
    <BinaryTree type="DecisionTree" boostWeight="1.0000000000000000e+00" itree="29">
      <Node pos="s" depth="0" NCoef="0" IVar="4" Cut="2.7742087841033936e-03" cType="1" res="-1.9756510853767395e-02" rms="3.9809685945510864e-01" purity="2.7207526564598083e-01" nType="0">
        <Node pos="l" depth="1" NCoef="0" IVar="-1" Cut="0.0000000000000000e+00" cType="1" res="8.4430765127763152e-04" rms="4.2956212162971497e-01" purity="3.2764527201652527e-01" nType="-1"/>
        <Node pos="r" depth="1" NCoef="0" IVar="2" Cut="4.0024986267089844e+00" cType="1" res="-1.0404125601053238e-01" rms="2.4166363477706909e-01" purity="7.8022159636020660e-02" nType="0">
          <Node pos="l" depth="2" NCoef="0" IVar="-1" Cut="0.0000000000000000e+00" cType="1" res="6.3635194674134254e-03" rms="4.5873624086380005e-01" purity="3.7944048643112183e-01" nType="-1"/>
          <Node pos="r" depth="2" NCoef="0" IVar="-1" Cut="0.0000000000000000e+00" cType="1" res="-3.3514413982629776e-02" rms="2.2687506675720215e-01" purity="6.5899267792701721e-02" nType="-1"/>
        </Node>
      </Node>
    </BinaryTree>
    <BinaryTree type="DecisionTree" boostWeight="1.0000000000000000e+00" itree="30">
      <Node pos="s" depth="0" NCoef="0" IVar="0" Cut="1.2153554707765579e-01" cType="0" res="-1.8173305317759514e-02" rms="3.9763212203979492e-01" purity="2.7207526564598083e-01" nType="0">
        <Node pos="l" depth="1" NCoef="0" IVar="-1" Cut="0.0000000000000000e+00" cType="1" res="5.9351846575737000e-03" rms="4.8702472448348999e-01" purity="4.6412333846092224e-01" nType="-1"/>
        <Node pos="r" depth="1" NCoef="0" IVar="15" Cut="2.9705564957112074e-03" cType="1" res="-5.2728712558746338e-02" rms="3.2595768570899963e-01" purity="1.5373317897319794e-01" nType="0">
          <Node pos="l" depth="2" NCoef="0" IVar="-1" Cut="0.0000000000000000e+00" cType="1" res="-4.9783051945269108e-03" rms="3.8154956698417664e-01" purity="2.1970625221729279e-01" nType="-1"/>
          <Node pos="r" depth="2" NCoef="0" IVar="-1" Cut="0.0000000000000000e+00" cType="1" res="-3.6924548447132111e-02" rms="1.7179286479949951e-01" purity="3.3807143568992615e-02" nType="-1"/>
        </Node>
      </Node>
    </BinaryTree>
    <BinaryTree type="DecisionTree" boostWeight="1.0000000000000000e+00" itree="31">
      <Node pos="s" depth="0" NCoef="0" IVar="18" Cut="1.1403514072299004e-02" cType="1" res="-1.6719445586204529e-02" rms="3.9705455303192139e-01" purity="2.7207526564598083e-01" nType="0">
        <Node pos="l" depth="1" NCoef="0" IVar="-1" Cut="0.0000000000000000e+00" cType="1" res="-1.3477968750521541e-03" rms="3.9784732460975647e-01" purity="2.8013753890991211e-01" nType="-1"/>
        <Node pos="r" depth="1" NCoef="0" IVar="14" Cut="1.2192777395248413e+00" cType="0" res="-1.9585576653480530e-01" rms="3.3589839935302734e-01" purity="1.3294517993927002e-01" nType="0">
          <Node pos="l" depth="2" NCoef="0" IVar="-1" Cut="0.0000000000000000e+00" cType="1" res="-1.8652409315109253e-02" rms="3.7728473544120789e-01" purity="2.0541882514953613e-01" nType="-1"/>
          <Node pos="r" depth="2" NCoef="0" IVar="-1" Cut="0.0000000000000000e+00" cType="1" res="-4.3585781008005142e-02" rms="3.1359511613845825e-01" purity="1.1071338504552841e-01" nType="-1"/>
        </Node>
      </Node>
    </BinaryTree>
    <BinaryTree type="DecisionTree" boostWeight="1.0000000000000000e+00" itree="32">
      <Node pos="s" depth="0" NCoef="0" IVar="15" Cut="-5.9556299820542336e-03" cType="0" res="-1.5390951186418533e-02" rms="3.9665889739990234e-01" purity="2.7207526564598083e-01" nType="0">
        <Node pos="l" depth="1" NCoef="0" IVar="-1" Cut="0.0000000000000000e+00" cType="1" res="1.8686038674786687e-03" rms="4.0844932198524475e-01" purity="3.0428072810173035e-01" nType="-1"/>
        <Node pos="r" depth="1" NCoef="0" IVar="9" Cut="1.0933572426438332e-02" cType="1" res="-8.9280270040035248e-02" rms="3.4843832254409790e-01" purity="1.7483617365360260e-01" nType="0">
          <Node pos="l" depth="2" NCoef="0" IVar="-1" Cut="0.0000000000000000e+00" cType="1" res="-5.7893772609531879e-03" rms="4.0912610292434692e-01" purity="2.7254346013069153e-01" nType="-1"/>
          <Node pos="r" depth="2" NCoef="0" IVar="-1" Cut="0.0000000000000000e+00" cType="1" res="-3.4667633473873138e-02" rms="2.8622579574584961e-01" purity="1.0157514363527298e-01" nType="-1"/>
        </Node>
      </Node>
    </BinaryTree>
    <BinaryTree type="DecisionTree" boostWeight="1.0000000000000000e+00" itree="33">
      <Node pos="s" depth="0" NCoef="0" IVar="0" Cut="4.9948170781135559e-02" cType="0" res="-1.4099895022809505e-02" rms="3.9606845378875732e-01" purity="2.7207526564598083e-01" nType="0">
        <Node pos="l" depth="1" NCoef="0" IVar="-1" Cut="0.0000000000000000e+00" cType="1" res="4.1784183122217655e-03" rms="4.6934428811073303e-01" purity="4.1611668467521667e-01" nType="-1"/>
        <Node pos="r" depth="1" NCoef="0" IVar="15" Cut="2.2088997066020966e-03" cType="1" res="-6.0071192681789398e-02" rms="2.8014624118804932e-01" purity="1.0290792584419250e-01" nType="0">
          <Node pos="l" depth="2" NCoef="0" IVar="-1" Cut="0.0000000000000000e+00" cType="1" res="-9.6842031925916672e-03" rms="3.4291127324104309e-01" purity="1.6000947356224060e-01" nType="-1"/>
          <Node pos="r" depth="2" NCoef="0" IVar="-1" Cut="0.0000000000000000e+00" cType="1" res="-3.6698751151561737e-02" rms="1.4922259747982025e-01" purity="2.3863501846790314e-02" nType="-1"/>
        </Node>
      </Node>
    </BinaryTree>
    <BinaryTree type="DecisionTree" boostWeight="1.0000000000000000e+00" itree="34">
      <Node pos="s" depth="0" NCoef="0" IVar="18" Cut="-1.3298337347805500e-02" cType="0" res="-1.2948292307555676e-02" rms="3.9565801620483398e-01" purity="2.7207526564598083e-01" nType="0">
        <Node pos="l" depth="1" NCoef="0" IVar="-1" Cut="0.0000000000000000e+00" cType="1" res="-9.1045181034132838e-04" rms="3.9658758044242859e-01" purity="2.7930945158004761e-01" nType="-1"/>
        <Node pos="r" depth="1" NCoef="0" IVar="15" Cut="-2.7281392365694046e-02" cType="1" res="-2.1746678650379181e-01" rms="3.0924960970878601e-01" purity="1.0211917757987976e-01" nType="0">
          <Node pos="l" depth="2" NCoef="0" IVar="-1" Cut="0.0000000000000000e+00" cType="1" res="-8.3587784320116043e-03" rms="3.8432189822196960e-01" purity="2.1389262378215790e-01" nType="-1"/>
          <Node pos="r" depth="2" NCoef="0" IVar="-1" Cut="0.0000000000000000e+00" cType="1" res="-4.8611406236886978e-02" rms="2.8716719150543213e-01" purity="8.6156852543354034e-02" nType="-1"/>
        </Node>
      </Node>
    </BinaryTree>
    <BinaryTree type="DecisionTree" boostWeight="1.0000000000000000e+00" itree="35">
      <Node pos="s" depth="0" NCoef="0" IVar="4" Cut="1.9346537301316857e-03" cType="1" res="-1.1893667280673981e-02" rms="3.9525339007377625e-01" purity="2.7207526564598083e-01" nType="0">
        <Node pos="l" depth="1" NCoef="0" IVar="-1" Cut="0.0000000000000000e+00" cType="1" res="3.4948308020830154e-03" rms="4.3921148777008057e-01" purity="3.5364300012588501e-01" nType="-1"/>
        <Node pos="r" depth="1" NCoef="0" IVar="4" Cut="3.5295083653181791e-03" cType="1" res="-6.7483507096767426e-02" rms="2.9036891460418701e-01" purity="1.2279477715492249e-01" nType="0">
          <Node pos="l" depth="2" NCoef="0" IVar="-1" Cut="0.0000000000000000e+00" cType="1" res="-1.0411662980914116e-02" rms="3.3743977546691895e-01" purity="1.7374294996261597e-01" nType="-1"/>
          <Node pos="r" depth="2" NCoef="0" IVar="-1" Cut="0.0000000000000000e+00" cType="1" res="-3.5280235111713409e-02" rms="2.0445199310779572e-01" purity="5.3415786474943161e-02" nType="-1"/>
        </Node>
      </Node>
    </BinaryTree>
    <BinaryTree type="DecisionTree" boostWeight="1.0000000000000000e+00" itree="36">
      <Node pos="s" depth="0" NCoef="0" IVar="15" Cut="6.4412849023938179e-03" cType="1" res="-1.0932045057415962e-02" rms="3.9482262730598450e-01" purity="2.7207526564598083e-01" nType="0">
        <Node pos="l" depth="1" NCoef="0" IVar="-1" Cut="0.0000000000000000e+00" cType="1" res="1.4255314599722624e-03" rms="4.2027083039283752e-01" purity="3.1426450610160828e-01" nType="-1"/>
        <Node pos="r" depth="1" NCoef="0" IVar="2" Cut="5.0029983520507812e+00" cType="1" res="-1.0246421396732330e-01" rms="2.0035439729690552e-01" purity="5.7045411318540573e-02" nType="0">
          <Node pos="l" depth="2" NCoef="0" IVar="-1" Cut="0.0000000000000000e+00" cType="1" res="4.7912248410284519e-03" rms="4.4827982783317566e-01" purity="3.9207300543785095e-01" nType="-1"/>
          <Node pos="r" depth="2" NCoef="0" IVar="-1" Cut="0.0000000000000000e+00" cType="1" res="-3.7195965647697449e-02" rms="1.7101603746414185e-01" purity="3.6735877394676208e-02" nType="-1"/>
        </Node>
      </Node>
    </BinaryTree>
    <BinaryTree type="DecisionTree" boostWeight="1.0000000000000000e+00" itree="37">
      <Node pos="s" depth="0" NCoef="0" IVar="18" Cut="9.5983790233731270e-03" cType="1" res="-1.0127832181751728e-02" rms="3.9441889524459839e-01" purity="2.7207526564598083e-01" nType="0">
        <Node pos="l" depth="1" NCoef="0" IVar="-1" Cut="0.0000000000000000e+00" cType="1" res="2.0087424491066486e-04" rms="3.9523568749427795e-01" purity="2.8086748719215393e-01" nType="-1"/>
        <Node pos="r" depth="1" NCoef="0" IVar="18" Cut="1.6918690875172615e-02" cType="1" res="-1.5779370069503784e-01" rms="3.5144248604774475e-01" purity="1.5461148321628571e-01" nType="0">
          <Node pos="l" depth="2" NCoef="0" IVar="-1" Cut="0.0000000000000000e+00" cType="1" res="-2.2329935804009438e-02" rms="3.8412454724311829e-01" purity="2.0445913076400757e-01" nType="-1"/>
          <Node pos="r" depth="2" NCoef="0" IVar="-1" Cut="0.0000000000000000e+00" cType="1" res="-4.9224235117435455e-02" rms="2.6979097723960876e-01" purity="7.0950321853160858e-02" nType="-1"/>
        </Node>
      </Node>
    </BinaryTree>
    <BinaryTree type="DecisionTree" boostWeight="1.0000000000000000e+00" itree="38">
      <Node pos="s" depth="0" NCoef="0" IVar="15" Cut="-5.9556299820542336e-03" cType="0" res="-9.3001769855618477e-03" rms="3.9400520920753479e-01" purity="2.7207526564598083e-01" nType="0">
        <Node pos="l" depth="1" NCoef="0" IVar="-1" Cut="0.0000000000000000e+00" cType="1" res="2.8241185937076807e-03" rms="4.0596881508827209e-01" purity="3.0428072810173035e-01" nType="-1"/>
        <Node pos="r" depth="1" NCoef="0" IVar="2" Cut="4.0024986267089844e+00" cType="1" res="-7.8104294836521149e-02" rms="3.4646999835968018e-01" purity="1.7483617365360260e-01" nType="0">
          <Node pos="l" depth="2" NCoef="0" IVar="-1" Cut="0.0000000000000000e+00" cType="1" res="2.1011151373386383e-02" rms="4.7285225987434387e-01" purity="4.8947918415069580e-01" nType="-1"/>
          <Node pos="r" depth="2" NCoef="0" IVar="-1" Cut="0.0000000000000000e+00" cType="1" res="-2.2522768005728722e-02" rms="3.3118495345115662e-01" purity="1.5158954262733459e-01" nType="-1"/>
        </Node>
      </Node>
    </BinaryTree>
    <BinaryTree type="DecisionTree" boostWeight="1.0000000000000000e+00" itree="39">
      <Node pos="s" depth="0" NCoef="0" IVar="0" Cut="5.1936708390712738e-02" cType="0" res="-8.5282493382692337e-03" rms="3.9350485801696777e-01" purity="2.7207526564598083e-01" nType="0">
        <Node pos="l" depth="1" NCoef="0" IVar="-1" Cut="0.0000000000000000e+00" cType="1" res="4.7919359058141708e-03" rms="4.6832522749900818e-01" purity="4.2071774601936340e-01" nType="-1"/>
        <Node pos="r" depth="1" NCoef="0" IVar="16" Cut="9.4744920730590820e-01" cType="0" res="-5.0495743751525879e-02" rms="2.8094330430030823e-01" purity="1.0474096983671188e-01" nType="0">
          <Node pos="l" depth="2" NCoef="0" IVar="-1" Cut="0.0000000000000000e+00" cType="1" res="-5.0887148827314377e-03" rms="3.8394311070442200e-01" purity="2.0299343764781952e-01" nType="-1"/>
          <Node pos="r" depth="2" NCoef="0" IVar="-1" Cut="0.0000000000000000e+00" cType="1" res="-3.8405925035476685e-02" rms="1.2404649704694748e-01" purity="1.5689376741647720e-02" nType="-1"/>
        </Node>
      </Node>
    </BinaryTree>
    <BinaryTree type="DecisionTree" boostWeight="1.0000000000000000e+00" itree="40">
      <Node pos="s" depth="0" NCoef="0" IVar="18" Cut="-1.4343416318297386e-02" cType="0" res="-7.7798836864531040e-03" rms="3.9310473203659058e-01" purity="2.7207526564598083e-01" nType="0">
        <Node pos="l" depth="1" NCoef="0" IVar="-1" Cut="0.0000000000000000e+00" cType="1" res="-5.5318225349765271e-05" rms="3.9426168799400330e-01" purity="2.7880075573921204e-01" nType="-1"/>
        <Node pos="r" depth="1" NCoef="0" IVar="5" Cut="-1.9841527566313744e-02" cType="1" res="-2.1436575055122375e-01" rms="2.9205492138862610e-01" purity="8.7481714785099030e-02" nType="0">
          <Node pos="l" depth="2" NCoef="0" IVar="-1" Cut="0.0000000000000000e+00" cType="1" res="-1.2727394932880998e-03" rms="4.3532946705818176e-01" purity="2.7092817425727844e-01" nType="-1"/>
          <Node pos="r" depth="2" NCoef="0" IVar="-1" Cut="0.0000000000000000e+00" cType="1" res="-5.1807787269353867e-02" rms="2.5362625718116760e-01" purity="6.2445987015962601e-02" nType="-1"/>
        </Node>
      </Node>
    </BinaryTree>
    <BinaryTree type="DecisionTree" boostWeight="1.0000000000000000e+00" itree="41">
      <Node pos="s" depth="0" NCoef="0" IVar="9" Cut="1.2442490085959435e-02" cType="1" res="-7.1235094219446182e-03" rms="3.9271202683448792e-01" purity="2.7207526564598083e-01" nType="0">
        <Node pos="l" depth="1" NCoef="0" IVar="-1" Cut="0.0000000000000000e+00" cType="1" res="1.5001205028966069e-03" rms="4.0331137180328369e-01" purity="2.9495647549629211e-01" nType="-1"/>
        <Node pos="r" depth="1" NCoef="0" IVar="16" Cut="9.6993243694305420e-01" cType="0" res="-1.1123639345169067e-01" rms="2.8251644968986511e-01" purity="1.0368040949106216e-01" nType="0">
          <Node pos="l" depth="2" NCoef="0" IVar="-1" Cut="0.0000000000000000e+00" cType="1" res="-2.9031706973910332e-02" rms="3.3845847845077515e-01" purity="1.5405698120594025e-01" nType="-1"/>
          <Node pos="r" depth="2" NCoef="0" IVar="-1" Cut="0.0000000000000000e+00" cType="1" res="-3.0166694894433022e-02" rms="2.0926280319690704e-01" purity="5.5159609764814377e-02" nType="-1"/>
        </Node>
      </Node>
    </BinaryTree>
    <BinaryTree type="DecisionTree" boostWeight="1.0000000000000000e+00" itree="42">
      <Node pos="s" depth="0" NCoef="0" IVar="18" Cut="8.2682790234684944e-03" cType="1" res="-6.5655638463795185e-03" rms="3.9236402511596680e-01" purity="2.7207526564598083e-01" nType="0">
        <Node pos="l" depth="1" NCoef="0" IVar="-1" Cut="0.0000000000000000e+00" cType="1" res="1.0713271331042051e-03" rms="3.9312264323234558e-01" purity="2.8122025728225708e-01" nType="-1"/>
        <Node pos="r" depth="1" NCoef="0" IVar="5" Cut="5.4278243333101273e-03" cType="0" res="-1.3079772889614105e-01" rms="3.6141645908355713e-01" purity="1.7273321747779846e-01" nType="0">
          <Node pos="l" depth="2" NCoef="0" IVar="-1" Cut="0.0000000000000000e+00" cType="1" res="-8.0281104892492294e-03" rms="4.0509462356567383e-01" purity="2.5283184647560120e-01" nType="-1"/>
          <Node pos="r" depth="2" NCoef="0" IVar="-1" Cut="0.0000000000000000e+00" cType="1" res="-3.5041105002164841e-02" rms="3.3493545651435852e-01" purity="1.4034681022167206e-01" nType="-1"/>
        </Node>
      </Node>
    </BinaryTree>
    <BinaryTree type="DecisionTree" boostWeight="1.0000000000000000e+00" itree="43">
      <Node pos="s" depth="0" NCoef="0" IVar="0" Cut="1.2153554707765579e-01" cType="0" res="-6.0159908607602119e-03" rms="3.9197543263435364e-01" purity="2.7207526564598083e-01" nType="0">
        <Node pos="l" depth="1" NCoef="0" IVar="-1" Cut="0.0000000000000000e+00" cType="1" res="6.6606444306671619e-03" rms="4.8041188716888428e-01" purity="4.6412333846092224e-01" nType="-1"/>
        <Node pos="r" depth="1" NCoef="0" IVar="16" Cut="1.0119824409484863e+00" cType="0" res="-3.5691507160663605e-02" rms="3.2217049598693848e-01" purity="1.5373317897319794e-01" nType="0">
          <Node pos="l" depth="2" NCoef="0" IVar="-1" Cut="0.0000000000000000e+00" cType="1" res="4.6081990003585815e-03" rms="4.4439724087715149e-01" purity="3.3076789975166321e-01" nType="-1"/>
          <Node pos="r" depth="2" NCoef="0" IVar="-1" Cut="0.0000000000000000e+00" cType="1" res="-2.2619476541876793e-02" rms="2.4433550238609314e-01" purity="7.4696213006973267e-02" nType="-1"/>
        </Node>
      </Node>
    </BinaryTree>
    <BinaryTree type="DecisionTree" boostWeight="1.0000000000000000e+00" itree="44">
      <Node pos="s" depth="0" NCoef="0" IVar="18" Cut="-1.1588209308683872e-02" cType="0" res="-5.4706046357750893e-03" rms="3.9151984453201294e-01" purity="2.7207526564598083e-01" nType="0">
        <Node pos="l" depth="1" NCoef="0" IVar="-1" Cut="0.0000000000000000e+00" cType="1" res="7.0830550976097584e-04" rms="3.9250004291534424e-01" purity="2.7989673614501953e-01" nType="-1"/>
        <Node pos="r" depth="1" NCoef="0" IVar="0" Cut="8.0274984240531921e-02" cType="0" res="-1.6499745845794678e-01" rms="3.3515506982803345e-01" purity="1.2831106781959534e-01" nType="0">
          <Node pos="l" depth="2" NCoef="0" IVar="-1" Cut="0.0000000000000000e+00" cType="1" res="-4.0341071784496307e-02" rms="3.4212070703506470e-01" purity="1.3992789387702942e-01" nType="-1"/>
          <Node pos="r" depth="2" NCoef="0" IVar="-1" Cut="0.0000000000000000e+00" cType="1" res="-2.0904289558529854e-02" rms="2.9873341321945190e-01" purity="1.0637453198432922e-01" nType="-1"/>
        </Node>
      </Node>
    </BinaryTree>
    <BinaryTree type="DecisionTree" boostWeight="1.0000000000000000e+00" itree="45">
      <Node pos="s" depth="0" NCoef="0" IVar="4" Cut="1.3364707119762897e-03" cType="1" res="-5.0007649697363377e-03" rms="3.9116701483726501e-01" purity="2.7207526564598083e-01" nType="0">
        <Node pos="l" depth="1" NCoef="0" IVar="-1" Cut="0.0000000000000000e+00" cType="1" res="5.9918202459812164e-03" rms="4.4034770131111145e-01" purity="3.7080174684524536e-01" nType="-1"/>
        <Node pos="r" depth="1" NCoef="0" IVar="2" Cut="4.0024986267089844e+00" cType="1" res="-4.1893433779478073e-02" rms="3.3029279112815857e-01" purity="1.7259553074836731e-01" nType="0">
          <Node pos="l" depth="2" NCoef="0" IVar="-1" Cut="0.0000000000000000e+00" cType="1" res="1.8406992778182030e-02" rms="4.6712267398834229e-01" purity="4.6929606795310974e-01" nType="-1"/>
          <Node pos="r" depth="2" NCoef="0" IVar="-1" Cut="0.0000000000000000e+00" cType="1" res="-1.3217696920037270e-02" rms="3.2086625695228577e-01" purity="1.5879702568054199e-01" nType="-1"/>
        </Node>
      </Node>
    </BinaryTree>
    <BinaryTree type="DecisionTree" boostWeight="1.0000000000000000e+00" itree="46">
      <Node pos="s" depth="0" NCoef="0" IVar="15" Cut="6.4412849023938179e-03" cType="1" res="-4.6051014214754105e-03" rms="3.9082160592079163e-01" purity="2.7207526564598083e-01" nType="0">
        <Node pos="l" depth="1" NCoef="0" IVar="-1" Cut="0.0000000000000000e+00" cType="1" res="2.3635693360120058e-03" rms="4.1645082831382751e-01" purity="3.1426450610160828e-01" nType="-1"/>
        <Node pos="r" depth="1" NCoef="0" IVar="2" Cut="5.0029983520507812e+00" cType="1" res="-8.6390003561973572e-02" rms="1.9821430742740631e-01" purity="5.7045411318540573e-02" nType="0">
          <Node pos="l" depth="2" NCoef="0" IVar="-1" Cut="0.0000000000000000e+00" cType="1" res="4.6905111521482468e-03" rms="4.4355854392051697e-01" purity="3.9207300543785095e-01" nType="-1"/>
          <Node pos="r" depth="2" NCoef="0" IVar="-1" Cut="0.0000000000000000e+00" cType="1" res="-3.4992627799510956e-02" rms="1.6990970075130463e-01" purity="3.6735877394676208e-02" nType="-1"/>
        </Node>
      </Node>
    </BinaryTree>
    <BinaryTree type="DecisionTree" boostWeight="1.0000000000000000e+00" itree="47">
      <Node pos="s" depth="0" NCoef="0" IVar="15" Cut="-8.9859869331121445e-03" cType="0" res="-4.2928839102387428e-03" rms="3.9047205448150635e-01" purity="2.7207526564598083e-01" nType="0">
        <Node pos="l" depth="1" NCoef="0" IVar="-1" Cut="0.0000000000000000e+00" cType="1" res="2.9657178092747927e-03" rms="4.0471169352531433e-01" purity="3.0468037724494934e-01" nType="-1"/>
        <Node pos="r" depth="1" NCoef="0" IVar="9" Cut="1.0256098583340645e-02" cType="1" res="-7.7161155641078949e-02" rms="3.1756016612052917e-01" purity="1.4256224036216736e-01" nType="0">
          <Node pos="l" depth="2" NCoef="0" IVar="-1" Cut="0.0000000000000000e+00" cType="1" res="-9.7980268765240908e-04" rms="4.0600797533988953e-01" purity="2.7134490013122559e-01" nType="-1"/>
          <Node pos="r" depth="2" NCoef="0" IVar="-1" Cut="0.0000000000000000e+00" cType="1" res="-3.0451927334070206e-02" rms="2.7385938167572021e-01" purity="9.5868334174156189e-02" nType="-1"/>
        </Node>
      </Node>
    </BinaryTree>
    <BinaryTree type="DecisionTree" boostWeight="1.0000000000000000e+00" itree="48">
      <Node pos="s" depth="0" NCoef="0" IVar="18" Cut="1.2923628091812134e-02" cType="1" res="-3.8731566164642572e-03" rms="3.9002081751823425e-01" purity="2.7207526564598083e-01" nType="0">
        <Node pos="l" depth="1" NCoef="0" IVar="-1" Cut="0.0000000000000000e+00" cType="1" res="8.4400421474128962e-04" rms="3.9153063297271729e-01" purity="2.7952307462692261e-01" nType="-1"/>
        <Node pos="r" depth="1" NCoef="0" IVar="14" Cut="1.2222626209259033e+00" cType="0" res="-1.6886915266513824e-01" rms="3.1341859698295593e-01" purity="1.1177956312894821e-01" nType="0">
          <Node pos="l" depth="2" NCoef="0" IVar="-1" Cut="0.0000000000000000e+00" cType="1" res="-1.0945010930299759e-02" rms="3.5839906334877014e-01" purity="1.9389460980892181e-01" nType="-1"/>
          <Node pos="r" depth="2" NCoef="0" IVar="-1" Cut="0.0000000000000000e+00" cType="1" res="-4.2167641222476959e-02" rms="2.8739008307456970e-01" purity="8.6907118558883667e-02" nType="-1"/>
        </Node>
      </Node>
    </BinaryTree>
    <BinaryTree type="DecisionTree" boostWeight="1.0000000000000000e+00" itree="49">
      <Node pos="s" depth="0" NCoef="0" IVar="0" Cut="1.2153554707765579e-01" cType="0" res="-3.5597467795014381e-03" rms="3.8968819379806519e-01" purity="2.7207526564598083e-01" nType="0">
        <Node pos="l" depth="1" NCoef="0" IVar="-1" Cut="0.0000000000000000e+00" cType="1" res="6.4869569614529610e-03" rms="4.7780022025108337e-01" purity="4.6412333846092224e-01" nType="-1"/>
        <Node pos="r" depth="1" NCoef="0" IVar="16" Cut="9.8572689294815063e-01" cType="0" res="-3.0957385897636414e-02" rms="3.2060462236404419e-01" purity="1.5373317897319794e-01" nType="0">
          <Node pos="l" depth="2" NCoef="0" IVar="-1" Cut="0.0000000000000000e+00" cType="1" res="2.1949578076601028e-03" rms="4.3399664759635925e-01" purity="3.0485132336616516e-01" nType="-1"/>
          <Node pos="r" depth="2" NCoef="0" IVar="-1" Cut="0.0000000000000000e+00" cType="1" res="-2.7593635022640228e-02" rms="1.9576662778854370e-01" purity="4.3778028339147568e-02" nType="-1"/>
        </Node>
      </Node>
    </BinaryTree>
    <BinaryTree type="DecisionTree" boostWeight="1.0000000000000000e+00" itree="50">
      <Node pos="s" depth="0" NCoef="0" IVar="18" Cut="-1.1588209308683872e-02" cType="0" res="-3.2103257253766060e-03" rms="3.8927388191223145e-01" purity="2.7207526564598083e-01" nType="0">
        <Node pos="l" depth="1" NCoef="0" IVar="-1" Cut="0.0000000000000000e+00" cType="1" res="1.0908723343163729e-03" rms="3.9039659500122070e-01" purity="2.7989673614501953e-01" nType="-1"/>
        <Node pos="r" depth="1" NCoef="0" IVar="15" Cut="-2.5016924366354942e-02" cType="1" res="-1.5183819830417633e-01" rms="3.3489188551902771e-01" purity="1.2831106781959534e-01" nType="0">
          <Node pos="l" depth="2" NCoef="0" IVar="-1" Cut="0.0000000000000000e+00" cType="1" res="1.9979982171207666e-03" rms="3.7309390306472778e-01" purity="2.1016332507133484e-01" nType="-1"/>
          <Node pos="r" depth="2" NCoef="0" IVar="-1" Cut="0.0000000000000000e+00" cType="1" res="-3.7806879729032516e-02" rms="3.1980273127555847e-01" purity="1.1398415267467499e-01" nType="-1"/>
        </Node>
      </Node>
    </BinaryTree>
    <BinaryTree type="DecisionTree" boostWeight="1.0000000000000000e+00" itree="51">
      <Node pos="s" depth="0" NCoef="0" IVar="15" Cut="-5.9556299820542336e-03" cType="0" res="-2.9305680654942989e-03" rms="3.8893470168113708e-01" purity="2.7207526564598083e-01" nType="0">
        <Node pos="l" depth="1" NCoef="0" IVar="-1" Cut="0.0000000000000000e+00" cType="1" res="3.6278194747865200e-03" rms="4.0102458000183105e-01" purity="3.0428072810173035e-01" nType="-1"/>
        <Node pos="r" depth="1" NCoef="0" IVar="2" Cut="4.0024986267089844e+00" cType="1" res="-6.2693797051906586e-02" rms="3.4304437041282654e-01" purity="1.7483617365360260e-01" nType="0">
          <Node pos="l" depth="2" NCoef="0" IVar="-1" Cut="0.0000000000000000e+00" cType="1" res="1.9422559067606926e-02" rms="4.6696469187736511e-01" purity="4.8947918415069580e-01" nType="-1"/>
          <Node pos="r" depth="2" NCoef="0" IVar="-1" Cut="0.0000000000000000e+00" cType="1" res="-1.9415969029068947e-02" rms="3.2893911004066467e-01" purity="1.5158954262733459e-01" nType="-1"/>
        </Node>
      </Node>
    </BinaryTree>
    <BinaryTree type="DecisionTree" boostWeight="1.0000000000000000e+00" itree="52">
      <Node pos="s" depth="0" NCoef="0" IVar="4" Cut="2.8756549581885338e-03" cType="1" res="-2.6657469570636749e-03" rms="3.8852339982986450e-01" purity="2.7207526564598083e-01" nType="0">
        <Node pos="l" depth="1" NCoef="0" IVar="-1" Cut="0.0000000000000000e+00" cType="1" res="3.0249212868511677e-03" rms="4.1924026608467102e-01" purity="3.2515165209770203e-01" nType="-1"/>
        <Node pos="r" depth="1" NCoef="0" IVar="8" Cut="1.4587177895009518e-02" cType="0" res="-6.8240664899349213e-02" rms="2.2999134659767151e-01" purity="7.3985770344734192e-02" nType="0">
          <Node pos="l" depth="2" NCoef="0" IVar="-1" Cut="0.0000000000000000e+00" cType="1" res="-8.2678878679871559e-03" rms="3.2018512487411499e-01" purity="1.5766729414463043e-01" nType="-1"/>
          <Node pos="r" depth="2" NCoef="0" IVar="-1" Cut="0.0000000000000000e+00" cType="1" res="-3.7805400788784027e-02" rms="1.7026877403259277e-01" purity="3.5265795886516571e-02" nType="-1"/>
        </Node>
      </Node>
    </BinaryTree>
    <BinaryTree type="DecisionTree" boostWeight="1.0000000000000000e+00" itree="53">
      <Node pos="s" depth="0" NCoef="0" IVar="18" Cut="8.2682790234684944e-03" cType="1" res="-2.3968084715306759e-03" rms="3.8817763328552246e-01" purity="2.7207526564598083e-01" nType="0">
        <Node pos="l" depth="1" NCoef="0" IVar="-1" Cut="0.0000000000000000e+00" cType="1" res="1.7741994233801961e-03" rms="3.8917496800422668e-01" purity="2.8122025728225708e-01" nType="-1"/>
        <Node pos="r" depth="1" NCoef="0" IVar="5" Cut="5.4278243333101273e-03" cType="0" res="-1.1399380862712860e-01" rms="3.5869151353836060e-01" purity="1.7273321747779846e-01" nType="0">
          <Node pos="l" depth="2" NCoef="0" IVar="-1" Cut="0.0000000000000000e+00" cType="1" res="-5.7906084693968296e-03" rms="4.0205025672912598e-01" purity="2.5283184647560120e-01" nType="-1"/>
          <Node pos="r" depth="2" NCoef="0" IVar="-1" Cut="0.0000000000000000e+00" cType="1" res="-3.2507278025150299e-02" rms="3.3311256766319275e-01" purity="1.4034681022167206e-01" nType="-1"/>
        </Node>
      </Node>
    </BinaryTree>
    <BinaryTree type="DecisionTree" boostWeight="1.0000000000000000e+00" itree="54">
      <Node pos="s" depth="0" NCoef="0" IVar="7" Cut="9.4200558960437775e-03" cType="1" res="-2.1754747722297907e-03" rms="3.8783153891563416e-01" purity="2.7207526564598083e-01" nType="0">
        <Node pos="l" depth="1" NCoef="0" IVar="-1" Cut="0.0000000000000000e+00" cType="1" res="4.9858093261718750e-03" rms="4.0993458032608032e-01" purity="3.2096612453460693e-01" nType="-1"/>
        <Node pos="r" depth="1" NCoef="0" IVar="15" Cut="2.8723299037665129e-03" cType="1" res="-4.5778322964906693e-02" rms="3.4241402149200439e-01" purity="1.8847078084945679e-01" nType="0">
          <Node pos="l" depth="2" NCoef="0" IVar="-1" Cut="0.0000000000000000e+00" cType="1" res="-5.7959752157330513e-03" rms="3.8826462626457214e-01" purity="2.4824899435043335e-01" nType="-1"/>
          <Node pos="r" depth="2" NCoef="0" IVar="-1" Cut="0.0000000000000000e+00" cType="1" res="-2.7767525985836983e-02" rms="2.2051523625850677e-01" purity="6.9931007921695709e-02" nType="-1"/>
        </Node>
      </Node>
    </BinaryTree>
    <BinaryTree type="DecisionTree" boostWeight="1.0000000000000000e+00" itree="55">
      <Node pos="s" depth="0" NCoef="0" IVar="9" Cut="1.2442490085959435e-02" cType="1" res="-2.0580973941832781e-03" rms="3.8750341534614563e-01" purity="2.7207526564598083e-01" nType="0">
        <Node pos="l" depth="1" NCoef="0" IVar="-1" Cut="0.0000000000000000e+00" cType="1" res="2.1828941535204649e-03" rms="3.9839008450508118e-01" purity="2.9495647549629211e-01" nType="-1"/>
        <Node pos="r" depth="1" NCoef="0" IVar="16" Cut="9.6993243694305420e-01" cType="0" res="-9.0669780969619751e-02" rms="2.7977401018142700e-01" purity="1.0368040949106216e-01" nType="0">
          <Node pos="l" depth="2" NCoef="0" IVar="-1" Cut="0.0000000000000000e+00" cType="1" res="-2.5994950905442238e-02" rms="3.3552190661430359e-01" purity="1.5405698120594025e-01" nType="-1"/>
          <Node pos="r" depth="2" NCoef="0" IVar="-1" Cut="0.0000000000000000e+00" cType="1" res="-2.6134317740797997e-02" rms="2.0721006393432617e-01" purity="5.5159609764814377e-02" nType="-1"/>
        </Node>
      </Node>
    </BinaryTree>
    <BinaryTree type="DecisionTree" boostWeight="1.0000000000000000e+00" itree="56">
      <Node pos="s" depth="0" NCoef="0" IVar="18" Cut="-1.4343416318297386e-02" cType="0" res="-1.8965023336932063e-03" rms="3.8722315430641174e-01" purity="2.7207526564598083e-01" nType="0">
        <Node pos="l" depth="1" NCoef="0" IVar="-1" Cut="0.0000000000000000e+00" cType="1" res="9.6985558047890663e-04" rms="3.8895708322525024e-01" purity="2.7880075573921204e-01" nType="-1"/>
        <Node pos="r" depth="1" NCoef="0" IVar="15" Cut="-2.7243010699748993e-02" cType="1" res="-1.7224586009979248e-01" rms="2.8796902298927307e-01" purity="8.7481714785099030e-02" nType="0">
          <Node pos="l" depth="2" NCoef="0" IVar="-1" Cut="0.0000000000000000e+00" cType="1" res="4.3865912593901157e-03" rms="3.9102557301521301e-01" purity="2.2750240564346313e-01" nType="-1"/>
          <Node pos="r" depth="2" NCoef="0" IVar="-1" Cut="0.0000000000000000e+00" cType="1" res="-4.5127741992473602e-02" rms="2.5916463136672974e-01" purity="6.7368879914283752e-02" nType="-1"/>
        </Node>
      </Node>
    </BinaryTree>
    <BinaryTree type="DecisionTree" boostWeight="1.0000000000000000e+00" itree="57">
      <Node pos="s" depth="0" NCoef="0" IVar="0" Cut="4.9948170781135559e-02" cType="0" res="-1.7175442771986127e-03" rms="3.8692271709442139e-01" purity="2.7207526564598083e-01" nType="0">
        <Node pos="l" depth="1" NCoef="0" IVar="-1" Cut="0.0000000000000000e+00" cType="1" res="4.8310053534805775e-03" rms="4.5855394005775452e-01" purity="4.1611668467521667e-01" nType="-1"/>
        <Node pos="r" depth="1" NCoef="0" IVar="15" Cut="2.2088997066020966e-03" cType="1" res="-3.7011861801147461e-02" rms="2.7618122100830078e-01" purity="1.0290792584419250e-01" nType="0">
          <Node pos="l" depth="2" NCoef="0" IVar="-1" Cut="0.0000000000000000e+00" cType="1" res="-5.1773628219962120e-03" rms="3.3831039071083069e-01" purity="1.6000947356224060e-01" nType="-1"/>
          <Node pos="r" depth="2" NCoef="0" IVar="-1" Cut="0.0000000000000000e+00" cType="1" res="-3.2498568296432495e-02" rms="1.4874342083930969e-01" purity="2.3863501846790314e-02" nType="-1"/>
        </Node>
      </Node>
    </BinaryTree>
    <BinaryTree type="DecisionTree" boostWeight="1.0000000000000000e+00" itree="58">
      <Node pos="s" depth="0" NCoef="0" IVar="18" Cut="1.2923628091812134e-02" cType="1" res="-1.5499071450904012e-03" rms="3.8664895296096802e-01" purity="2.7207526564598083e-01" nType="0">
        <Node pos="l" depth="1" NCoef="0" IVar="-1" Cut="0.0000000000000000e+00" cType="1" res="1.1948256287723780e-03" rms="3.8845425844192505e-01" purity="2.7952307462692261e-01" nType="-1"/>
        <Node pos="r" depth="1" NCoef="0" IVar="14" Cut="1.2222626209259033e+00" cType="0" res="-1.4846059679985046e-01" rms="3.1111997365951538e-01" purity="1.1177956312894821e-01" nType="0">
          <Node pos="l" depth="2" NCoef="0" IVar="-1" Cut="0.0000000000000000e+00" cType="1" res="-8.1562502309679985e-03" rms="3.5625916719436646e-01" purity="1.9389460980892181e-01" nType="-1"/>
          <Node pos="r" depth="2" NCoef="0" IVar="-1" Cut="0.0000000000000000e+00" cType="1" res="-3.9412878453731537e-02" rms="2.8642958402633667e-01" purity="8.6907118558883667e-02" nType="-1"/>
        </Node>
      </Node>
    </BinaryTree>
    <BinaryTree type="DecisionTree" boostWeight="1.0000000000000000e+00" itree="59">
      <Node pos="s" depth="0" NCoef="0" IVar="15" Cut="-4.3027079664170742e-03" cType="0" res="-1.4194882242009044e-03" rms="3.8636478781700134e-01" purity="2.7207526564598083e-01" nType="0">
        <Node pos="l" depth="1" NCoef="0" IVar="-1" Cut="0.0000000000000000e+00" cType="1" res="4.2142616584897041e-03" rms="3.9498910307884216e-01" purity="3.0145359039306641e-01" nType="-1"/>
        <Node pos="r" depth="1" NCoef="0" IVar="9" Cut="1.0163716040551662e-02" cType="1" res="-5.0173837691545486e-02" rms="3.6029770970344543e-01" purity="2.0192407071590424e-01" nType="0">
          <Node pos="l" depth="2" NCoef="0" IVar="-1" Cut="0.0000000000000000e+00" cType="1" res="3.0511412769556046e-03" rms="4.3132480978965759e-01" purity="3.2992160320281982e-01" nType="-1"/>
          <Node pos="r" depth="2" NCoef="0" IVar="-1" Cut="0.0000000000000000e+00" cType="1" res="-1.9807144999504089e-02" rms="3.2224163413047791e-01" purity="1.4849022030830383e-01" nType="-1"/>
        </Node>
      </Node>
    </BinaryTree>
    <BinaryTree type="DecisionTree" boostWeight="1.0000000000000000e+00" itree="60">
      <Node pos="s" depth="0" NCoef="0" IVar="15" Cut="6.4412849023938179e-03" cType="1" res="-1.3052853755652905e-03" rms="3.8597634434700012e-01" purity="2.7207526564598083e-01" nType="0">
        <Node pos="l" depth="1" NCoef="0" IVar="-1" Cut="0.0000000000000000e+00" cType="1" res="2.6779777836054564e-03" rms="4.1168510913848877e-01" purity="3.1426450610160828e-01" nType="-1"/>
        <Node pos="r" depth="1" NCoef="0" IVar="2" Cut="5.0029983520507812e+00" cType="1" res="-7.2893805801868439e-02" rms="1.9577506184577942e-01" purity="5.7045411318540573e-02" nType="0">
          <Node pos="l" depth="2" NCoef="0" IVar="-1" Cut="0.0000000000000000e+00" cType="1" res="4.8650363460183144e-03" rms="4.3771383166313171e-01" purity="3.9207300543785095e-01" nType="-1"/>
          <Node pos="r" depth="2" NCoef="0" IVar="-1" Cut="0.0000000000000000e+00" cType="1" res="-3.2896146178245544e-02" rms="1.6835319995880127e-01" purity="3.6735877394676208e-02" nType="-1"/>
        </Node>
      </Node>
    </BinaryTree>
    <BinaryTree type="DecisionTree" boostWeight="1.0000000000000000e+00" itree="61">
      <Node pos="s" depth="0" NCoef="0" IVar="18" Cut="-9.7830742597579956e-03" cType="0" res="-1.2472319649532437e-03" rms="3.8568538427352905e-01" purity="2.7207526564598083e-01" nType="0">
        <Node pos="l" depth="1" NCoef="0" IVar="-1" Cut="0.0000000000000000e+00" cType="1" res="1.5602855710312724e-03" rms="3.8651102781295776e-01" purity="2.8001376986503601e-01" nType="-1"/>
        <Node pos="r" depth="1" NCoef="0" IVar="14" Cut="1.2897591590881348e+00" cType="0" res="-1.1746434867382050e-01" rms="3.5378810763359070e-01" purity="1.5829154849052429e-01" nType="0">
          <Node pos="l" depth="2" NCoef="0" IVar="-1" Cut="0.0000000000000000e+00" cType="1" res="3.8884775131009519e-04" rms="3.7646842002868652e-01" purity="2.1261085569858551e-01" nType="-1"/>
          <Node pos="r" depth="2" NCoef="0" IVar="-1" Cut="0.0000000000000000e+00" cType="1" res="-3.0865309759974480e-02" rms="3.4250122308731079e-01" purity="1.4571203291416168e-01" nType="-1"/>
        </Node>
      </Node>
    </BinaryTree>
    <BinaryTree type="DecisionTree" boostWeight="1.0000000000000000e+00" itree="62">
      <Node pos="s" depth="0" NCoef="0" IVar="0" Cut="1.6826619207859039e-01" cType="0" res="-1.1258622398599982e-03" rms="3.8539826869964600e-01" purity="2.7207526564598083e-01" nType="0">
        <Node pos="l" depth="1" NCoef="0" IVar="-1" Cut="0.0000000000000000e+00" cType="1" res="6.6275680437684059e-03" rms="4.7259575128555298e-01" purity="4.6805080771446228e-01" nType="-1"/>
        <Node pos="r" depth="1" NCoef="0" IVar="16" Cut="1.0119824409484863e+00" cType="0" res="-2.2624520584940910e-02" rms="3.3064916729927063e-01" purity="1.7298950254917145e-01" nType="0">
          <Node pos="l" depth="2" NCoef="0" IVar="-1" Cut="0.0000000000000000e+00" cType="1" res="4.1609485633671284e-03" rms="4.4453212618827820e-01" purity="3.5106784105300903e-01" nType="-1"/>
          <Node pos="r" depth="2" NCoef="0" IVar="-1" Cut="0.0000000000000000e+00" cType="1" res="-1.8288392573595047e-02" rms="2.4753892421722412e-01" purity="7.9268448054790497e-02" nType="-1"/>
        </Node>
      </Node>
    </BinaryTree>
    <BinaryTree type="DecisionTree" boostWeight="1.0000000000000000e+00" itree="63">
      <Node pos="s" depth="0" NCoef="0" IVar="15" Cut="-8.9859869331121445e-03" cType="0" res="-9.8860322032123804e-04" rms="3.8508501648902893e-01" purity="2.7207526564598083e-01" nType="0">
        <Node pos="l" depth="1" NCoef="0" IVar="-1" Cut="0.0000000000000000e+00" cType="1" res="3.0723495874553919e-03" rms="3.9947426319122314e-01" purity="3.0468037724494934e-01" nType="-1"/>
        <Node pos="r" depth="1" NCoef="0" IVar="2" Cut="4.0024986267089844e+00" cType="1" res="-6.1459224671125412e-02" rms="3.1443676352500916e-01" purity="1.4256224036216736e-01" nType="0">
          <Node pos="l" depth="2" NCoef="0" IVar="-1" Cut="0.0000000000000000e+00" cType="1" res="1.7556576058268547e-02" rms="4.5555523037910461e-01" purity="4.7231638431549072e-01" nType="-1"/>
          <Node pos="r" depth="2" NCoef="0" IVar="-1" Cut="0.0000000000000000e+00" cType="1" res="-2.2105855867266655e-02" rms="2.9876109957695007e-01" purity="1.1850446462631226e-01" nType="-1"/>
        </Node>
      </Node>
    </BinaryTree>
    <BinaryTree type="DecisionTree" boostWeight="1.0000000000000000e+00" itree="64">
      <Node pos="s" depth="0" NCoef="0" IVar="18" Cut="8.2682790234684944e-03" cType="1" res="-8.4145460277795792e-04" rms="3.8474735617637634e-01" purity="2.7207526564598083e-01" nType="0">
        <Node pos="l" depth="1" NCoef="0" IVar="-1" Cut="0.0000000000000000e+00" cType="1" res="1.9065170781686902e-03" rms="3.8597056269645691e-01" purity="2.8122025728225708e-01" nType="-1"/>
        <Node pos="r" depth="1" NCoef="0" IVar="5" Cut="5.2810432389378548e-03" cType="0" res="-1.0046574473381042e-01" rms="3.5630145668983459e-01" purity="1.7273321747779846e-01" nType="0">
          <Node pos="l" depth="2" NCoef="0" IVar="-1" Cut="0.0000000000000000e+00" cType="1" res="-4.1785435751080513e-03" rms="3.9933863282203674e-01" purity="2.5270891189575195e-01" nType="-1"/>
          <Node pos="r" depth="2" NCoef="0" IVar="-1" Cut="0.0000000000000000e+00" cType="1" res="-3.0374467372894287e-02" rms="3.3101809024810791e-01" purity="1.3966232538223267e-01" nType="-1"/>
        </Node>
      </Node>
    </BinaryTree>
    <BinaryTree type="DecisionTree" boostWeight="1.0000000000000000e+00" itree="65">
      <Node pos="s" depth="0" NCoef="0" IVar="4" Cut="2.6587699539959431e-03" cType="1" res="-7.4524135561659932e-04" rms="3.8445129990577698e-01" purity="2.7207526564598083e-01" nType="0">
        <Node pos="l" depth="1" NCoef="0" IVar="-1" Cut="0.0000000000000000e+00" cType="1" res="3.1852307729423046e-03" rms="4.1749852895736694e-01" purity="3.3032196760177612e-01" nType="-1"/>
        <Node pos="r" depth="1" NCoef="0" IVar="8" Cut="1.4587177895009518e-02" cType="0" res="-5.3745254874229431e-02" rms="2.4163748323917389e-01" purity="8.3642274141311646e-02" nType="0">
          <Node pos="l" depth="2" NCoef="0" IVar="-1" Cut="0.0000000000000000e+00" cType="1" res="-4.7222198918461800e-03" rms="3.3183246850967407e-01" purity="1.7291325330734253e-01" nType="-1"/>
          <Node pos="r" depth="2" NCoef="0" IVar="-1" Cut="0.0000000000000000e+00" cType="1" res="-3.3370953053236008e-02" rms="1.8215280771255493e-01" purity="4.1693221777677536e-02" nType="-1"/>
        </Node>
      </Node>
    </BinaryTree>
    <BinaryTree type="DecisionTree" boostWeight="1.0000000000000000e+00" itree="66">
      <Node pos="s" depth="0" NCoef="0" IVar="2" Cut="4.0024986267089844e+00" cType="1" res="-6.2797148711979389e-04" rms="3.8416925072669983e-01" purity="2.7207526564598083e-01" nType="0">
        <Node pos="l" depth="1" NCoef="0" IVar="-1" Cut="0.0000000000000000e+00" cType="1" res="2.1583182737231255e-02" rms="4.6410086750984192e-01" purity="5.5086082220077515e-01" nType="1"/>
        <Node pos="r" depth="1" NCoef="0" IVar="18" Cut="8.2682790234684944e-03" cType="1" res="-7.1528414264321327e-03" rms="3.7854337692260742e-01" purity="2.5809919834136963e-01" nType="0">
          <Node pos="l" depth="2" NCoef="0" IVar="-1" Cut="0.0000000000000000e+00" cType="1" res="3.7454380071721971e-04" rms="3.8069516420364380e-01" purity="2.6802700757980347e-01" nType="-1"/>
          <Node pos="r" depth="2" NCoef="0" IVar="-1" Cut="0.0000000000000000e+00" cType="1" res="-2.6241958141326904e-02" rms="3.3562988042831421e-01" purity="1.4156509935855865e-01" nType="-1"/>
        </Node>
      </Node>
    </BinaryTree>
    <BinaryTree type="DecisionTree" boostWeight="1.0000000000000000e+00" itree="67">
      <Node pos="s" depth="0" NCoef="0" IVar="18" Cut="-1.5103473328053951e-02" cType="0" res="-5.4743012879043818e-04" rms="3.8378638029098511e-01" purity="2.7207526564598083e-01" nType="0">
        <Node pos="l" depth="1" NCoef="0" IVar="-1" Cut="0.0000000000000000e+00" cType="1" res="1.0836144210770726e-03" rms="3.8568344712257385e-01" purity="2.7835005521774292e-01" nType="-1"/>
        <Node pos="r" depth="1" NCoef="0" IVar="5" Cut="-1.9841527566313744e-02" cType="1" res="-1.6098253428936005e-01" rms="2.7631607651710510e-01" purity="8.1410303711891174e-02" nType="0">
          <Node pos="l" depth="2" NCoef="0" IVar="-1" Cut="0.0000000000000000e+00" cType="1" res="7.0267827250063419e-03" rms="4.2938056588172913e-01" purity="2.7027818560600281e-01" nType="-1"/>
          <Node pos="r" depth="2" NCoef="0" IVar="-1" Cut="0.0000000000000000e+00" cType="1" res="-4.6508323401212692e-02" rms="2.3443239927291870e-01" purity="5.4381337016820908e-02" nType="-1"/>
        </Node>
      </Node>
    </BinaryTree>
    <BinaryTree type="DecisionTree" boostWeight="1.0000000000000000e+00" itree="68">
      <Node pos="s" depth="0" NCoef="0" IVar="7" Cut="9.4500407576560974e-03" cType="1" res="-4.6820452553220093e-04" rms="3.8352489471435547e-01" purity="2.7207526564598083e-01" nType="0">
        <Node pos="l" depth="1" NCoef="0" IVar="-1" Cut="0.0000000000000000e+00" cType="1" res="4.5293360017240047e-03" rms="4.0471255779266357e-01" purity="3.1878161430358887e-01" nType="-1"/>
        <Node pos="r" depth="1" NCoef="0" IVar="15" Cut="2.7796644717454910e-03" cType="1" res="-3.9889883249998093e-02" rms="3.3730375766754150e-01" purity="1.8559177219867706e-01" nType="0">
          <Node pos="l" depth="2" NCoef="0" IVar="-1" Cut="0.0000000000000000e+00" cType="1" res="-5.1071578636765480e-03" rms="3.8415989279747009e-01" purity="2.4665077030658722e-01" nType="-1"/>
          <Node pos="r" depth="2" NCoef="0" IVar="-1" Cut="0.0000000000000000e+00" cType="1" res="-2.5841578841209412e-02" rms="2.1712043881416321e-01" purity="6.8177208304405212e-02" nType="-1"/>
        </Node>
      </Node>
    </BinaryTree>
    <BinaryTree type="DecisionTree" boostWeight="1.0000000000000000e+00" itree="69">
      <Node pos="s" depth="0" NCoef="0" IVar="15" Cut="-4.3027079664170742e-03" cType="0" res="-4.8460942343808711e-04" rms="3.8326516747474670e-01" purity="2.7207526564598083e-01" nType="0">
        <Node pos="l" depth="1" NCoef="0" IVar="-1" Cut="0.0000000000000000e+00" cType="1" res="4.0066340006887913e-03" rms="3.9188432693481445e-01" purity="3.0145359039306641e-01" nType="-1"/>
        <Node pos="r" depth="1" NCoef="0" IVar="9" Cut="1.0933572426438332e-02" cType="1" res="-4.4301159679889679e-02" rms="3.5807079076766968e-01" purity="2.0192407071590424e-01" nType="0">
          <Node pos="l" depth="2" NCoef="0" IVar="-1" Cut="0.0000000000000000e+00" cType="1" res="-5.7518424000591040e-04" rms="4.1278725862503052e-01" purity="2.9646497964859009e-01" nType="-1"/>
          <Node pos="r" depth="2" NCoef="0" IVar="-1" Cut="0.0000000000000000e+00" cType="1" res="-2.2509265691041946e-02" rms="3.0035361647605896e-01" purity="1.2270457297563553e-01" nType="-1"/>
        </Node>
      </Node>
    </BinaryTree>
    <BinaryTree type="DecisionTree" boostWeight="1.0000000000000000e+00" itree="70">
      <Node pos="s" depth="0" NCoef="0" IVar="15" Cut="6.4412849023938179e-03" cType="1" res="-4.2517116526141763e-04" rms="3.8291862607002258e-01" purity="2.7207526564598083e-01" nType="0">
        <Node pos="l" depth="1" NCoef="0" IVar="-1" Cut="0.0000000000000000e+00" cType="1" res="2.5879491586238146e-03" rms="4.0871334075927734e-01" purity="3.1426450610160828e-01" nType="-1"/>
        <Node pos="r" depth="1" NCoef="0" IVar="10" Cut="5.4926846176385880e-02" cType="0" res="-6.4736045897006989e-02" rms="1.9391539692878723e-01" purity="5.7045411318540573e-02" nType="0">
          <Node pos="l" depth="2" NCoef="0" IVar="-1" Cut="0.0000000000000000e+00" cType="1" res="7.2073619812726974e-03" rms="3.4482920169830322e-01" purity="2.4473538994789124e-01" nType="-1"/>
          <Node pos="r" depth="2" NCoef="0" IVar="-1" Cut="0.0000000000000000e+00" cType="1" res="-2.9948733747005463e-02" rms="1.7876979708671570e-01" purity="4.5433439314365387e-02" nType="-1"/>
        </Node>
      </Node>
    </BinaryTree>
    <BinaryTree type="DecisionTree" boostWeight="1.0000000000000000e+00" itree="71">
      <Node pos="s" depth="0" NCoef="0" IVar="0" Cut="4.9948170781135559e-02" cType="0" res="-4.3136364547535777e-04" rms="3.8267618417739868e-01" purity="2.7207526564598083e-01" nType="0">
        <Node pos="l" depth="1" NCoef="0" IVar="-1" Cut="0.0000000000000000e+00" cType="1" res="4.2652990669012070e-03" rms="4.5347398519515991e-01" purity="4.1611668467521667e-01" nType="-1"/>
        <Node pos="r" depth="1" NCoef="0" IVar="4" Cut="1.7527501331642270e-03" cType="1" res="-3.0038846656680107e-02" rms="2.7439805865287781e-01" purity="1.0290792584419250e-01" nType="0">
          <Node pos="l" depth="2" NCoef="0" IVar="-1" Cut="0.0000000000000000e+00" cType="1" res="-2.5135702453553677e-03" rms="3.4958070516586304e-01" purity="1.7386819422245026e-01" nType="-1"/>
          <Node pos="r" depth="2" NCoef="0" IVar="-1" Cut="0.0000000000000000e+00" cType="1" res="-3.1789910048246384e-02" rms="1.5499162673950195e-01" purity="2.6868719607591629e-02" nType="-1"/>
        </Node>
      </Node>
    </BinaryTree>
    <BinaryTree type="DecisionTree" boostWeight="1.0000000000000000e+00" itree="72">
      <Node pos="s" depth="0" NCoef="0" IVar="18" Cut="-9.7830742597579956e-03" cType="0" res="-3.2669707434251904e-04" rms="3.8243773579597473e-01" purity="2.7207526564598083e-01" nType="0">
        <Node pos="l" depth="1" NCoef="0" IVar="-1" Cut="0.0000000000000000e+00" cType="1" res="1.6041441122069955e-03" rms="3.8343310356140137e-01" purity="2.8001376986503601e-01" nType="-1"/>
        <Node pos="r" depth="1" NCoef="0" IVar="16" Cut="1.0387889146804810e+00" cType="1" res="-1.0448110103607178e-01" rms="3.5174900293350220e-01" purity="1.5829154849052429e-01" nType="0">
          <Node pos="l" depth="2" NCoef="0" IVar="-1" Cut="0.0000000000000000e+00" cType="1" res="-1.2590733356773853e-02" rms="3.5040351748466492e-01" purity="1.6769069433212280e-01" nType="-1"/>
          <Node pos="r" depth="2" NCoef="0" IVar="-1" Cut="0.0000000000000000e+00" cType="1" res="-3.3332120627164841e-02" rms="3.4474590420722961e-01" purity="1.4951394498348236e-01" nType="-1"/>
        </Node>
      </Node>
    </BinaryTree>
    <BinaryTree type="DecisionTree" boostWeight="1.0000000000000000e+00" itree="73">
      <Node pos="s" depth="0" NCoef="0" IVar="9" Cut="1.2391166761517525e-02" cType="1" res="-2.6210339274257421e-04" rms="3.8219654560089111e-01" purity="2.7207526564598083e-01" nType="0">
        <Node pos="l" depth="1" NCoef="0" IVar="-1" Cut="0.0000000000000000e+00" cType="1" res="2.2358770947903395e-03" rms="3.9353910088539124e-01" purity="2.9549819231033325e-01" nType="-1"/>
        <Node pos="r" depth="1" NCoef="0" IVar="10" Cut="2.5938518345355988e-02" cType="1" res="-7.1518070995807648e-02" rms="2.8130975365638733e-01" purity="1.0934161394834518e-01" nType="0">
          <Node pos="l" depth="2" NCoef="0" IVar="-1" Cut="0.0000000000000000e+00" cType="1" res="-2.2434731945395470e-03" rms="3.4631758928298950e-01" purity="1.9320429861545563e-01" nType="-1"/>
          <Node pos="r" depth="2" NCoef="0" IVar="-1" Cut="0.0000000000000000e+00" cType="1" res="-2.7591185644268990e-02" rms="2.5826954841613770e-01" purity="8.6637675762176514e-02" nType="-1"/>
        </Node>
      </Node>
    </BinaryTree>
    <BinaryTree type="DecisionTree" boostWeight="1.0000000000000000e+00" itree="74">
      <Node pos="s" depth="0" NCoef="0" IVar="2" Cut="4.0024986267089844e+00" cType="1" res="-2.4945384939201176e-04" rms="3.8194996118545532e-01" purity="2.7207526564598083e-01" nType="0">
        <Node pos="l" depth="1" NCoef="0" IVar="-1" Cut="0.0000000000000000e+00" cType="1" res="1.9895205274224281e-02" rms="4.6142664551734924e-01" purity="5.5086082220077515e-01" nType="1"/>
        <Node pos="r" depth="1" NCoef="0" IVar="18" Cut="8.2682790234684944e-03" cType="1" res="-6.2500988133251667e-03" rms="3.7652519345283508e-01" purity="2.5809919834136963e-01" nType="0">
          <Node pos="l" depth="2" NCoef="0" IVar="-1" Cut="0.0000000000000000e+00" cType="1" res="4.5646357466466725e-04" rms="3.7869924306869507e-01" purity="2.6802700757980347e-01" nType="-1"/>
          <Node pos="r" depth="2" NCoef="0" IVar="-1" Cut="0.0000000000000000e+00" cType="1" res="-2.5002663955092430e-02" rms="3.3537173271179199e-01" purity="1.4156509935855865e-01" nType="-1"/>
        </Node>
      </Node>
    </BinaryTree>
    <BinaryTree type="DecisionTree" boostWeight="1.0000000000000000e+00" itree="75">
      <Node pos="s" depth="0" NCoef="0" IVar="15" Cut="2.8599540237337351e-03" cType="1" res="-1.9946975226048380e-04" rms="3.8161358237266541e-01" purity="2.7207526564598083e-01" nType="0">
        <Node pos="l" depth="1" NCoef="0" IVar="-1" Cut="0.0000000000000000e+00" cType="1" res="3.4715232905000448e-03" rms="4.1708934307098389e-01" purity="3.3092501759529114e-01" nType="-1"/>
        <Node pos="r" depth="1" NCoef="0" IVar="2" Cut="5.0029983520507812e+00" cType="1" res="-4.2680442333221436e-02" rms="2.6766201853752136e-01" purity="1.2364368140697479e-01" nType="0">
          <Node pos="l" depth="2" NCoef="0" IVar="-1" Cut="0.0000000000000000e+00" cType="1" res="1.2896772474050522e-02" rms="4.4493401050567627e-01" purity="4.8754516243934631e-01" nType="-1"/>
          <Node pos="r" depth="2" NCoef="0" IVar="-1" Cut="0.0000000000000000e+00" cType="1" res="-1.8809288740158081e-02" rms="2.4438604712486267e-01" purity="9.3403927981853485e-02" nType="-1"/>
        </Node>
      </Node>
    </BinaryTree>
    <BinaryTree type="DecisionTree" boostWeight="1.0000000000000000e+00" itree="76">
      <Node pos="s" depth="0" NCoef="0" IVar="15" Cut="-4.3027079664170742e-03" cType="0" res="-2.4304229009430856e-04" rms="3.8137522339820862e-01" purity="2.7207526564598083e-01" nType="0">
        <Node pos="l" depth="1" NCoef="0" IVar="-1" Cut="0.0000000000000000e+00" cType="1" res="3.8217180408537388e-03" rms="3.9001917839050293e-01" purity="3.0145359039306641e-01" nType="-1"/>
        <Node pos="r" depth="1" NCoef="0" IVar="9" Cut="9.5786256715655327e-03" cType="1" res="-4.1180614382028580e-02" rms="3.5657733678817749e-01" purity="2.0192407071590424e-01" nType="0">
          <Node pos="l" depth="2" NCoef="0" IVar="-1" Cut="0.0000000000000000e+00" cType="1" res="6.2968339771032333e-03" rms="4.3598043918609619e-01" purity="3.5056015849113464e-01" nType="-1"/>
          <Node pos="r" depth="2" NCoef="0" IVar="-1" Cut="0.0000000000000000e+00" cType="1" res="-1.4992548152804375e-02" rms="3.3311569690704346e-01" purity="1.6715970635414124e-01" nType="-1"/>
        </Node>
      </Node>
    </BinaryTree>
    <BinaryTree type="DecisionTree" boostWeight="1.0000000000000000e+00" itree="77">
      <Node pos="s" depth="0" NCoef="0" IVar="0" Cut="3.7507417798042297e-01" cType="0" res="-2.2700022964272648e-04" rms="3.8109961152076721e-01" purity="2.7207526564598083e-01" nType="0">
        <Node pos="l" depth="1" NCoef="0" IVar="-1" Cut="0.0000000000000000e+00" cType="1" res="8.2114227116107941e-03" rms="4.6795237064361572e-01" purity="4.8338162899017334e-01" nType="-1"/>
        <Node pos="r" depth="1" NCoef="0" IVar="10" Cut="2.9938446357846260e-02" cType="1" res="-1.3238256797194481e-02" rms="3.5422360897064209e-01" purity="2.1782085299491882e-01" nType="0">
          <Node pos="l" depth="2" NCoef="0" IVar="-1" Cut="0.0000000000000000e+00" cType="1" res="1.7550195334479213e-03" rms="3.7336847186088562e-01" purity="2.5509184598922729e-01" nType="-1"/>
          <Node pos="r" depth="2" NCoef="0" IVar="-1" Cut="0.0000000000000000e+00" cType="1" res="-1.7496425658464432e-02" rms="3.0259278416633606e-01" purity="1.3501311838626862e-01" nType="-1"/>
        </Node>
      </Node>
    </BinaryTree>
    <BinaryTree type="DecisionTree" boostWeight="1.0000000000000000e+00" itree="78">
      <Node pos="s" depth="0" NCoef="0" IVar="18" Cut="-1.5958536416292191e-02" cType="0" res="-1.9354341202415526e-04" rms="3.8077580928802490e-01" purity="2.7207526564598083e-01" nType="0">
        <Node pos="l" depth="1" NCoef="0" IVar="-1" Cut="0.0000000000000000e+00" cType="1" res="9.8341831471771002e-04" rms="3.8276323676109314e-01" purity="2.7791202068328857e-01" nType="-1"/>
        <Node pos="r" depth="1" NCoef="0" IVar="5" Cut="-1.9841527566313744e-02" cType="1" res="-1.4902535080909729e-01" rms="2.6684603095054626e-01" purity="7.6012991368770599e-02" nType="0">
          <Node pos="l" depth="2" NCoef="0" IVar="-1" Cut="0.0000000000000000e+00" cType="1" res="6.5350942313671112e-03" rms="4.2674285173416138e-01" purity="2.6036068797111511e-01" nType="-1"/>
          <Node pos="r" depth="2" NCoef="0" IVar="-1" Cut="0.0000000000000000e+00" cType="1" res="-4.5679986476898193e-02" rms="2.2579927742481232e-01" purity="5.0581011921167374e-02" nType="-1"/>
        </Node>
      </Node>
    </BinaryTree>
    <BinaryTree type="DecisionTree" boostWeight="1.0000000000000000e+00" itree="79">
      <Node pos="s" depth="0" NCoef="0" IVar="15" Cut="6.4412849023938179e-03" cType="1" res="-1.4362341607920825e-04" rms="3.8056662678718567e-01" purity="2.7207526564598083e-01" nType="0">
        <Node pos="l" depth="1" NCoef="0" IVar="-1" Cut="0.0000000000000000e+00" cType="1" res="2.3924352135509253e-03" rms="4.0641912817955017e-01" purity="3.1426450610160828e-01" nType="-1"/>
        <Node pos="r" depth="1" NCoef="0" IVar="10" Cut="5.4926846176385880e-02" cType="0" res="-5.7874720543622971e-02" rms="1.9273583590984344e-01" purity="5.7045411318540573e-02" nType="0">
          <Node pos="l" depth="2" NCoef="0" IVar="-1" Cut="0.0000000000000000e+00" cType="1" res="7.0061171427369118e-03" rms="3.4139940142631531e-01" purity="2.4473538994789124e-01" nType="-1"/>
          <Node pos="r" depth="2" NCoef="0" IVar="-1" Cut="0.0000000000000000e+00" cType="1" res="-2.8445102274417877e-02" rms="1.7810074985027313e-01" purity="4.5433439314365387e-02" nType="-1"/>
        </Node>
      </Node>
    </BinaryTree>
    <BinaryTree type="DecisionTree" boostWeight="1.0000000000000000e+00" itree="80">
      <Node pos="s" depth="0" NCoef="0" IVar="18" Cut="1.2923628091812134e-02" cType="1" res="-1.6894236614461988e-04" rms="3.8036555051803589e-01" purity="2.7207526564598083e-01" nType="0">
        <Node pos="l" depth="1" NCoef="0" IVar="-1" Cut="0.0000000000000000e+00" cType="1" res="1.2361484114080667e-03" rms="3.8249412178993225e-01" purity="2.7952307462692261e-01" nType="-1"/>
        <Node pos="r" depth="1" NCoef="0" IVar="14" Cut="1.2103229761123657e+00" cType="0" res="-1.1817218363285065e-01" rms="3.0847659707069397e-01" purity="1.1177956312894821e-01" nType="0">
          <Node pos="l" depth="2" NCoef="0" IVar="-1" Cut="0.0000000000000000e+00" cType="1" res="-1.1510355398058891e-03" rms="3.5256305336952209e-01" purity="1.9074635207653046e-01" nType="-1"/>
          <Node pos="r" depth="2" NCoef="0" IVar="-1" Cut="0.0000000000000000e+00" cType="1" res="-3.5853497684001923e-02" rms="2.8376287221908569e-01" purity="8.6862891912460327e-02" nType="-1"/>
        </Node>
      </Node>
    </BinaryTree>
    <BinaryTree type="DecisionTree" boostWeight="1.0000000000000000e+00" itree="81">
      <Node pos="s" depth="0" NCoef="0" IVar="7" Cut="9.4500407576560974e-03" cType="1" res="-1.4805742830503732e-04" rms="3.8015219569206238e-01" purity="2.7207526564598083e-01" nType="0">
        <Node pos="l" depth="1" NCoef="0" IVar="-1" Cut="0.0000000000000000e+00" cType="1" res="4.0450515225529671e-03" rms="4.0135318040847778e-01" purity="3.1878161430358887e-01" nType="-1"/>
        <Node pos="r" depth="1" NCoef="0" IVar="4" Cut="1.7337227473035455e-03" cType="1" res="-3.4499518573284149e-02" rms="3.3469253778457642e-01" purity="1.8559177219867706e-01" nType="0">
          <Node pos="l" depth="2" NCoef="0" IVar="-1" Cut="0.0000000000000000e+00" cType="1" res="-3.4289045725017786e-03" rms="3.9102217555046082e-01" purity="2.6532453298568726e-01" nType="-1"/>
          <Node pos="r" depth="2" NCoef="0" IVar="-1" Cut="0.0000000000000000e+00" cType="1" res="-2.1868351846933365e-02" rms="2.4099501967430115e-01" purity="8.2370109856128693e-02" nType="-1"/>
        </Node>
      </Node>
    </BinaryTree>
    <BinaryTree type="DecisionTree" boostWeight="1.0000000000000000e+00" itree="82">
      <Node pos="s" depth="0" NCoef="0" IVar="2" Cut="8.0044975280761719e+00" cType="1" res="-1.5121117758098990e-04" rms="3.7994417548179626e-01" purity="2.7207526564598083e-01" nType="0">
        <Node pos="l" depth="1" NCoef="0" IVar="-1" Cut="0.0000000000000000e+00" cType="1" res="6.2067182734608650e-03" rms="4.4817233085632324e-01" purity="4.2056363821029663e-01" nType="-1"/>
        <Node pos="r" depth="1" NCoef="0" IVar="16" Cut="9.8397666215896606e-01" cType="0" res="-1.7403932288289070e-02" rms="3.4018883109092712e-01" purity="1.9921223819255829e-01" nType="0">
          <Node pos="l" depth="2" NCoef="0" IVar="-1" Cut="0.0000000000000000e+00" cType="1" res="1.8789789173752069e-03" rms="4.3548417091369629e-01" purity="3.4531328082084656e-01" nType="-1"/>
          <Node pos="r" depth="2" NCoef="0" IVar="-1" Cut="0.0000000000000000e+00" cType="1" res="-2.3367926478385925e-02" rms="1.9470085203647614e-01" purity="4.8469644039869308e-02" nType="-1"/>
        </Node>
      </Node>
    </BinaryTree>
    <BinaryTree type="DecisionTree" boostWeight="1.0000000000000000e+00" itree="83">
      <Node pos="s" depth="0" NCoef="0" IVar="18" Cut="-9.7830742597579956e-03" cType="0" res="-1.0295370884705335e-04" rms="3.7969326972961426e-01" purity="2.7207526564598083e-01" nType="0">
        <Node pos="l" depth="1" NCoef="0" IVar="-1" Cut="0.0000000000000000e+00" cType="1" res="1.4871980529278517e-03" rms="3.8089346885681152e-01" purity="2.8001376986503601e-01" nType="-1"/>
        <Node pos="r" depth="1" NCoef="0" IVar="14" Cut="1.2897591590881348e+00" cType="0" res="-9.2665046453475952e-02" rms="3.4916636347770691e-01" purity="1.5829154849052429e-01" nType="0">
          <Node pos="l" depth="2" NCoef="0" IVar="-1" Cut="0.0000000000000000e+00" cType="1" res="6.1416705138981342e-03" rms="3.7387832999229431e-01" purity="2.1261085569858551e-01" nType="-1"/>
          <Node pos="r" depth="2" NCoef="0" IVar="-1" Cut="0.0000000000000000e+00" cType="1" res="-2.7055365964770317e-02" rms="3.3797463774681091e-01" purity="1.4571203291416168e-01" nType="-1"/>
        </Node>
      </Node>
    </BinaryTree>
    <BinaryTree type="DecisionTree" boostWeight="1.0000000000000000e+00" itree="84">
      <Node pos="s" depth="0" NCoef="0" IVar="15" Cut="-1.2567318044602871e-02" cType="0" res="-7.7413220424205065e-05" rms="3.7948548793792725e-01" purity="2.7207526564598083e-01" nType="0">
        <Node pos="l" depth="1" NCoef="0" IVar="-1" Cut="0.0000000000000000e+00" cType="1" res="2.4192109704017639e-03" rms="3.9374032616615295e-01" purity="3.0214595794677734e-01" nType="-1"/>
        <Node pos="r" depth="1" NCoef="0" IVar="16" Cut="1.2963929176330566e+00" cType="1" res="-5.4757013916969299e-02" rms="2.9294860363006592e-01" purity="1.2312469631433487e-01" nType="0">
          <Node pos="l" depth="2" NCoef="0" IVar="-1" Cut="0.0000000000000000e+00" cType="1" res="-1.3092596083879471e-02" rms="2.9317793250083923e-01" purity="1.2695990502834320e-01" nType="-1"/>
          <Node pos="r" depth="2" NCoef="0" IVar="-1" Cut="0.0000000000000000e+00" cType="1" res="-3.6803267896175385e-02" rms="2.7741062641143799e-01" purity="1.0628029704093933e-01" nType="-1"/>
        </Node>
      </Node>
    </BinaryTree>
    <BinaryTree type="DecisionTree" boostWeight="1.0000000000000000e+00" itree="85">
