<?xml version="1.0"?>
<MethodSetup Method="BDT::BDTG">
  <GeneralInfo>
    <Info name="TMVA Release" value="4.1.0 [262400]"/>
    <Info name="ROOT Release" value="5.28/00 [334848]"/>
    <Info name="Creator" value="sixie"/>
    <Info name="Date" value="Fri Jul 20 14:25:57 2012"/>
    <Info name="Host" value="Linux x86-03.phx2.fedoraproject.org 2.6.32-220.17.1.el6.x86_64 #1 SMP Thu Apr 26 13:37:13 EDT 2012 x86_64 x86_64 x86_64 GNU/Linux"/>
    <Info name="Dir" value="/data/blue/sixie/LeptonSelection/Electrons/HWW/IDMVA"/>
    <Info name="Training events" value="115731"/>
    <Info name="TrainingTime" value="607.672"/>
    <Info name="AnalysisType" value="Classification"/>
  </GeneralInfo>
  <Options>
    <Option name="V" modified="Yes">False</Option>
    <Option name="VerbosityLevel" modified="No">Default</Option>
    <Option name="VarTransform" modified="No">None</Option>
    <Option name="H" modified="Yes">False</Option>
    <Option name="CreateMVAPdfs" modified="No">False</Option>
    <Option name="IgnoreNegWeightsInTraining" modified="No">False</Option>
    <Option name="NTrees" modified="Yes">2000</Option>
    <Option name="RenormByClass" modified="No">False</Option>
    <Option name="BoostType" modified="Yes">Grad</Option>
    <Option name="AdaBoostR2Loss" modified="No">quadratic</Option>
    <Option name="UseBaggedGrad" modified="Yes">False</Option>
    <Option name="GradBaggingFraction" modified="No">6.000000e-01</Option>
    <Option name="Shrinkage" modified="Yes">1.000000e-01</Option>
    <Option name="AdaBoostBeta" modified="No">1.000000e+00</Option>
    <Option name="UseRandomisedTrees" modified="No">False</Option>
    <Option name="UseNvars" modified="Yes">4</Option>
    <Option name="UsePoissonNvars" modified="No">True</Option>
    <Option name="UseNTrainEvents" modified="No">115731</Option>
    <Option name="UseWeightedTrees" modified="No">True</Option>
    <Option name="UseYesNoLeaf" modified="No">True</Option>
    <Option name="NodePurityLimit" modified="No">5.000000e-01</Option>
    <Option name="SeparationType" modified="No">giniindex</Option>
    <Option name="nEventsMin" modified="Yes">100</Option>
    <Option name="nCuts" modified="Yes">2000</Option>
    <Option name="UseFisherCuts" modified="No">False</Option>
    <Option name="MinLinCorrForFisher" modified="No">8.000000e-01</Option>
    <Option name="UseExclusiveVars" modified="No">False</Option>
    <Option name="PruneStrength" modified="Yes">5.000000e+00</Option>
    <Option name="PruneMethod" modified="Yes">costcomplexity</Option>
    <Option name="PruneBeforeBoost" modified="No">False</Option>
    <Option name="PruningValFraction" modified="No">5.000000e-01</Option>
    <Option name="NNodesMax" modified="Yes">5</Option>
    <Option name="MaxDepth" modified="Yes">6</Option>
  </Options>
  <Variables NVar="34">
    <Variable VarIndex="0" Expression="fbrem" Label="fbrem" Title="fbrem" Unit="" Internal="fbrem" Type="F" Min="-1" Max="0.998688"/>
    <Variable VarIndex="1" Expression="kfchi2" Label="kfchi2" Title="kfchi2" Unit="" Internal="kfchi2" Type="F" Min="0" Max="10"/>
    <Variable VarIndex="2" Expression="kflayers" Label="kflayers" Title="kflayers" Unit="" Internal="kflayers" Type="F" Min="-1" Max="16"/>
    <Variable VarIndex="3" Expression="gsfchi2" Label="gsfchi2" Title="gsfchi2" Unit="" Internal="gsfchi2" Type="F" Min="0.0597168" Max="200"/>
    <Variable VarIndex="4" Expression="deta" Label="deta" Title="deta" Unit="" Internal="deta" Type="F" Min="0" Max="0.0085454"/>
    <Variable VarIndex="5" Expression="dphi" Label="dphi" Title="dphi" Unit="" Internal="dphi" Type="F" Min="-0.149704" Max="0.149834"/>
    <Variable VarIndex="6" Expression="detacalo" Label="detacalo" Title="detacalo" Unit="" Internal="detacalo" Type="F" Min="-0.199921" Max="0.2"/>
    <Variable VarIndex="7" Expression="see" Label="see" Title="see" Unit="" Internal="see" Type="F" Min="0" Max="0.0285683"/>
    <Variable VarIndex="8" Expression="spp" Label="spp" Title="spp" Unit="" Internal="spp" Type="F" Min="0" Max="0.0516361"/>
    <Variable VarIndex="9" Expression="etawidth" Label="etawidth" Title="etawidth" Unit="" Internal="etawidth" Type="F" Min="0.00389028" Max="0.0304556"/>
    <Variable VarIndex="10" Expression="phiwidth" Label="phiwidth" Title="phiwidth" Unit="" Internal="phiwidth" Type="F" Min="0.00515509" Max="0.171341"/>
    <Variable VarIndex="11" Expression="OneMinusSeedE1x5OverE5x5" Label="OneMinusSeedE1x5OverE5x5" Title="OneMinusSeedE1x5OverE5x5" Unit="" Internal="OneMinusSeedE1x5OverE5x5" Type="F" Min="-0.132353" Max="0.842661"/>
    <Variable VarIndex="12" Expression="R9" Label="R9" Title="R9" Unit="" Internal="R9" Type="F" Min="0.0113485" Max="3.98288"/>
    <Variable VarIndex="13" Expression="HoE" Label="HoE" Title="HoE" Unit="" Internal="HoE" Type="F" Min="0" Max="0.119957"/>
    <Variable VarIndex="14" Expression="EoP" Label="EoP" Title="EoP" Unit="" Internal="EoP" Type="F" Min="0.000387073" Max="17.0186"/>
    <Variable VarIndex="15" Expression="IoEmIoP" Label="IoEmIoP" Title="IoEmIoP" Unit="" Internal="IoEmIoP" Type="F" Min="-0.364797" Max="0.0469528"/>
    <Variable VarIndex="16" Expression="EEleoPout" Label="EEleoPout" Title="EEleoPout" Unit="" Internal="EEleoPout" Type="F" Min="9.69425e-05" Max="20"/>
    <Variable VarIndex="17" Expression="d0" Label="d0" Title="d0" Unit="" Internal="d0" Type="F" Min="-0.0199997" Max="0.0199963"/>
    <Variable VarIndex="18" Expression="ip3d" Label="ip3d" Title="ip3d" Unit="" Internal="ip3d" Type="F" Min="-2.16113" Max="10.9561"/>
    <Variable VarIndex="19" Expression="ChargedIso_DR0p0To0p1" Label="ChargedIso_DR0p0To0p1" Title="ChargedIso_DR0p0To0p1" Unit="" Internal="ChargedIso_DR0p0To0p1" Type="F" Min="0" Max="50.417"/>
    <Variable VarIndex="20" Expression="ChargedIso_DR0p1To0p2" Label="ChargedIso_DR0p1To0p2" Title="ChargedIso_DR0p1To0p2" Unit="" Internal="ChargedIso_DR0p1To0p2" Type="F" Min="0" Max="22.2888"/>
    <Variable VarIndex="21" Expression="ChargedIso_DR0p2To0p3" Label="ChargedIso_DR0p2To0p3" Title="ChargedIso_DR0p2To0p3" Unit="" Internal="ChargedIso_DR0p2To0p3" Type="F" Min="0" Max="13.3745"/>
    <Variable VarIndex="22" Expression="ChargedIso_DR0p3To0p4" Label="ChargedIso_DR0p3To0p4" Title="ChargedIso_DR0p3To0p4" Unit="" Internal="ChargedIso_DR0p3To0p4" Type="F" Min="0" Max="53.2823"/>
    <Variable VarIndex="23" Expression="ChargedIso_DR0p4To0p5" Label="ChargedIso_DR0p4To0p5" Title="ChargedIso_DR0p4To0p5" Unit="" Internal="ChargedIso_DR0p4To0p5" Type="F" Min="0" Max="79.9136"/>
    <Variable VarIndex="24" Expression="GammaIso_DR0p0To0p1" Label="GammaIso_DR0p0To0p1" Title="GammaIso_DR0p0To0p1" Unit="" Internal="GammaIso_DR0p0To0p1" Type="F" Min="0" Max="39.4955"/>
    <Variable VarIndex="25" Expression="GammaIso_DR0p1To0p2" Label="GammaIso_DR0p1To0p2" Title="GammaIso_DR0p1To0p2" Unit="" Internal="GammaIso_DR0p1To0p2" Type="F" Min="0" Max="31.989"/>
    <Variable VarIndex="26" Expression="GammaIso_DR0p2To0p3" Label="GammaIso_DR0p2To0p3" Title="GammaIso_DR0p2To0p3" Unit="" Internal="GammaIso_DR0p2To0p3" Type="F" Min="0" Max="20.4336"/>
    <Variable VarIndex="27" Expression="GammaIso_DR0p3To0p4" Label="GammaIso_DR0p3To0p4" Title="GammaIso_DR0p3To0p4" Unit="" Internal="GammaIso_DR0p3To0p4" Type="F" Min="0" Max="58.003"/>
    <Variable VarIndex="28" Expression="GammaIso_DR0p4To0p5" Label="GammaIso_DR0p4To0p5" Title="GammaIso_DR0p4To0p5" Unit="" Internal="GammaIso_DR0p4To0p5" Type="F" Min="0" Max="63.9013"/>
    <Variable VarIndex="29" Expression="NeutralHadronIso_DR0p0To0p1" Label="NeutralHadronIso_DR0p0To0p1" Title="NeutralHadronIso_DR0p0To0p1" Unit="" Internal="NeutralHadronIso_DR0p0To0p1" Type="F" Min="0" Max="6.44439"/>
    <Variable VarIndex="30" Expression="NeutralHadronIso_DR0p1To0p2" Label="NeutralHadronIso_DR0p1To0p2" Title="NeutralHadronIso_DR0p1To0p2" Unit="" Internal="NeutralHadronIso_DR0p1To0p2" Type="F" Min="0" Max="10.9636"/>
    <Variable VarIndex="31" Expression="NeutralHadronIso_DR0p2To0p3" Label="NeutralHadronIso_DR0p2To0p3" Title="NeutralHadronIso_DR0p2To0p3" Unit="" Internal="NeutralHadronIso_DR0p2To0p3" Type="F" Min="0" Max="14.5692"/>
    <Variable VarIndex="32" Expression="NeutralHadronIso_DR0p3To0p4" Label="NeutralHadronIso_DR0p3To0p4" Title="NeutralHadronIso_DR0p3To0p4" Unit="" Internal="NeutralHadronIso_DR0p3To0p4" Type="F" Min="0" Max="25.0787"/>
    <Variable VarIndex="33" Expression="NeutralHadronIso_DR0p4To0p5" Label="NeutralHadronIso_DR0p4To0p5" Title="NeutralHadronIso_DR0p4To0p5" Unit="" Internal="NeutralHadronIso_DR0p4To0p5" Type="F" Min="0" Max="48.2301"/>
  </Variables>
  <Spectators NSpec="2">
    <Spectator SpecIndex="0" Expression="eta" Label="eta" Title="eta" Unit="" Internal="eta" Type="F" Min="-1.47894" Max="1.47888"/>
    <Spectator SpecIndex="1" Expression="pt" Label="pt" Title="pt" Unit="" Internal="pt" Type="F" Min="20.001" Max="35"/>
  </Spectators>
  <Transformations NTransformations="0"/>
  <MVAPdfs/>
  <Weights NTrees="2000" AnalysisType="1">
    <BinaryTree type="DecisionTree" boostWeight="1.0000000000000000e+00" itree="0">
      <Node pos="s" depth="0" NCoef="0" IVar="19" Cut="1.3857743740081787e+00" cType="1" res="3.6718273162841797e-01" rms="3.3937713503837585e-01" purity="8.6718273162841797e-01" nType="0">
        <Node pos="l" depth="1" NCoef="0" IVar="-1" Cut="0.0000000000000000e+00" cType="1" res="5.6562881916761398e-02" rms="2.8090509772300720e-01" purity="9.1363310813903809e-01" nType="1"/>
        <Node pos="r" depth="1" NCoef="0" IVar="0" Cut="1.7949120700359344e-01" cType="0" res="-3.1949055194854736e-01" rms="3.8461118936538696e-01" purity="1.8050944805145264e-01" nType="0">
          <Node pos="l" depth="2" NCoef="0" IVar="-1" Cut="0.0000000000000000e+00" cType="1" res="-1.4109472744166851e-02" rms="4.9070826172828674e-01" purity="4.0405517816543579e-01" nType="-1"/>
          <Node pos="r" depth="2" NCoef="0" IVar="-1" Cut="0.0000000000000000e+00" cType="1" res="-7.3163293302059174e-02" rms="2.0226337015628815e-01" purity="4.2736914008855820e-02" nType="-1"/>
        </Node>
      </Node>
    </BinaryTree>
    <BinaryTree type="DecisionTree" boostWeight="1.0000000000000000e+00" itree="1">
      <Node pos="s" depth="0" NCoef="0" IVar="19" Cut="1.2094031572341919e+00" cType="1" res="3.4232327342033386e-01" rms="3.3224004507064819e-01" purity="8.6718273162841797e-01" nType="0">
        <Node pos="l" depth="1" NCoef="0" IVar="-1" Cut="0.0000000000000000e+00" cType="1" res="5.3075291216373444e-02" rms="2.7873694896697998e-01" purity="9.1509723663330078e-01" nType="1"/>
        <Node pos="r" depth="1" NCoef="0" IVar="0" Cut="1.7949120700359344e-01" cType="0" res="-2.7494814991950989e-01" rms="3.9381012320518494e-01" purity="2.0288565754890442e-01" nType="0">
          <Node pos="l" depth="2" NCoef="0" IVar="-1" Cut="0.0000000000000000e+00" cType="1" res="-9.4077633693814278e-03" rms="4.9367052316665649e-01" purity="4.3183210492134094e-01" nType="-1"/>
          <Node pos="r" depth="2" NCoef="0" IVar="-1" Cut="0.0000000000000000e+00" cType="1" res="-6.6549561917781830e-02" rms="2.1588160097599030e-01" purity="4.9878116697072983e-02" nType="-1"/>
        </Node>
      </Node>
    </BinaryTree>
    <BinaryTree type="DecisionTree" boostWeight="1.0000000000000000e+00" itree="2">
      <Node pos="s" depth="0" NCoef="0" IVar="19" Cut="1.3857743740081787e+00" cType="1" res="3.1920012831687927e-01" rms="3.2594266533851624e-01" purity="8.6718273162841797e-01" nType="0">
        <Node pos="l" depth="1" NCoef="0" IVar="-1" Cut="0.0000000000000000e+00" cType="1" res="4.9709476530551910e-02" rms="2.8068143129348755e-01" purity="9.1363310813903809e-01" nType="1"/>
        <Node pos="r" depth="1" NCoef="0" IVar="0" Cut="1.7949120700359344e-01" cType="0" res="-2.7206698060035706e-01" rms="3.7266862392425537e-01" purity="1.8050944805145264e-01" nType="0">
          <Node pos="l" depth="2" NCoef="0" IVar="-1" Cut="0.0000000000000000e+00" cType="1" res="-1.2387437745928764e-02" rms="4.9070826172828674e-01" purity="4.0405517816543579e-01" nType="-1"/>
          <Node pos="r" depth="2" NCoef="0" IVar="-1" Cut="0.0000000000000000e+00" cType="1" res="-6.3277497887611389e-02" rms="2.0226337015628815e-01" purity="4.2736914008855820e-02" nType="-1"/>
        </Node>
      </Node>
    </BinaryTree>
    <BinaryTree type="DecisionTree" boostWeight="1.0000000000000000e+00" itree="3">
      <Node pos="s" depth="0" NCoef="0" IVar="19" Cut="1.0834236145019531e+00" cType="1" res="2.9769298434257507e-01" rms="3.2050073146820068e-01" purity="8.6718273162841797e-01" nType="0">
        <Node pos="l" depth="1" NCoef="0" IVar="-1" Cut="0.0000000000000000e+00" cType="1" res="4.7265611588954926e-02" rms="2.7730262279510498e-01" purity="9.1605681180953979e-01" nType="1"/>
        <Node pos="r" depth="1" NCoef="0" IVar="15" Cut="-6.2306388281285763e-03" cType="0" res="-2.2257046401500702e-01" rms="3.9106878638267517e-01" purity="2.2112144529819489e-01" nType="0">
          <Node pos="l" depth="2" NCoef="0" IVar="-1" Cut="0.0000000000000000e+00" cType="1" res="-4.8522716388106346e-03" rms="4.7158369421958923e-01" purity="4.3323880434036255e-01" nType="-1"/>
          <Node pos="r" depth="2" NCoef="0" IVar="-1" Cut="0.0000000000000000e+00" cType="1" res="-5.7309202849864960e-02" rms="2.5169882178306580e-01" purity="7.5399622321128845e-02" nType="-1"/>
        </Node>
      </Node>
    </BinaryTree>
    <BinaryTree type="DecisionTree" boostWeight="1.0000000000000000e+00" itree="4">
      <Node pos="s" depth="0" NCoef="0" IVar="0" Cut="1.2569770216941833e-01" cType="0" res="2.7766302227973938e-01" rms="3.1563583016395569e-01" purity="8.6718273162841797e-01" nType="0">
        <Node pos="l" depth="1" NCoef="0" IVar="-1" Cut="0.0000000000000000e+00" cType="1" res="4.7214817255735397e-02" rms="2.4749793112277985e-01" purity="9.2860448360443115e-01" nType="1"/>
        <Node pos="r" depth="1" NCoef="0" IVar="16" Cut="9.8694562911987305e-01" cType="0" res="-5.0788011401891708e-02" rms="4.5501270890235901e-01" purity="4.9412527680397034e-01" nType="0">
          <Node pos="l" depth="2" NCoef="0" IVar="-1" Cut="0.0000000000000000e+00" cType="1" res="2.1563576534390450e-02" rms="4.1674214601516724e-01" purity="7.2811019420623779e-01" nType="1"/>
          <Node pos="r" depth="2" NCoef="0" IVar="-1" Cut="0.0000000000000000e+00" cType="1" res="-4.3893855065107346e-02" rms="3.8908016681671143e-01" purity="2.3730108141899109e-01" nType="-1"/>
        </Node>
      </Node>
    </BinaryTree>
    <BinaryTree type="DecisionTree" boostWeight="1.0000000000000000e+00" itree="5">
      <Node pos="s" depth="0" NCoef="0" IVar="19" Cut="1.9148882627487183e+00" cType="1" res="2.5904670357704163e-01" rms="3.1039676070213318e-01" purity="8.6718273162841797e-01" nType="0">
        <Node pos="l" depth="1" NCoef="0" IVar="-1" Cut="0.0000000000000000e+00" cType="1" res="4.2217150330543518e-02" rms="2.8001964092254639e-01" purity="9.1007393598556519e-01" nType="1"/>
        <Node pos="r" depth="1" NCoef="0" IVar="9" Cut="6.8748784251511097e-03" cType="1" res="-2.7208736538887024e-01" rms="3.2038968801498413e-01" purity="1.3779664039611816e-01" nType="0">
          <Node pos="l" depth="2" NCoef="0" IVar="-1" Cut="0.0000000000000000e+00" cType="1" res="5.9767518192529678e-02" rms="2.7790477871894836e-01" purity="8.9406108856201172e-01" nType="1"/>
          <Node pos="r" depth="2" NCoef="0" IVar="-1" Cut="0.0000000000000000e+00" cType="1" res="-4.7786116600036621e-02" rms="2.9849475622177124e-01" purity="1.1515568196773529e-01" nType="-1"/>
        </Node>
      </Node>
    </BinaryTree>
    <BinaryTree type="DecisionTree" boostWeight="1.0000000000000000e+00" itree="6">
      <Node pos="s" depth="0" NCoef="0" IVar="0" Cut="1.3169075548648834e-01" cType="0" res="2.4164845049381256e-01" rms="3.0654823780059814e-01" purity="8.6718273162841797e-01" nType="0">
        <Node pos="l" depth="1" NCoef="0" IVar="-1" Cut="0.0000000000000000e+00" cType="1" res="4.3387230485677719e-02" rms="2.4317800998687744e-01" purity="9.3012034893035889e-01" nType="1"/>
        <Node pos="r" depth="1" NCoef="0" IVar="16" Cut="9.9681073427200317e-01" cType="0" res="-4.9570672214031219e-02" rms="4.4227325916290283e-01" purity="5.0380462408065796e-01" nType="0">
          <Node pos="l" depth="2" NCoef="0" IVar="-1" Cut="0.0000000000000000e+00" cType="1" res="2.0310839638113976e-02" rms="4.0431955456733704e-01" purity="7.4370062351226807e-01" nType="1"/>
          <Node pos="r" depth="2" NCoef="0" IVar="-1" Cut="0.0000000000000000e+00" cType="1" res="-4.0315471589565277e-02" rms="3.9263135194778442e-01" purity="2.5129625201225281e-01" nType="-1"/>
        </Node>
      </Node>
    </BinaryTree>
    <BinaryTree type="DecisionTree" boostWeight="1.0000000000000000e+00" itree="7">
      <Node pos="s" depth="0" NCoef="0" IVar="19" Cut="1.0834236145019531e+00" cType="1" res="2.2548890113830566e-01" rms="3.0209350585937500e-01" purity="8.6718273162841797e-01" nType="0">
        <Node pos="l" depth="1" NCoef="0" IVar="-1" Cut="0.0000000000000000e+00" cType="1" res="3.9228882640600204e-02" rms="2.7061283588409424e-01" purity="9.1605681180953979e-01" nType="1"/>
        <Node pos="r" depth="1" NCoef="0" IVar="15" Cut="-6.2306388281285763e-03" cType="0" res="-2.0052438974380493e-01" rms="3.6656466126441956e-01" purity="2.2112144529819489e-01" nType="0">
          <Node pos="l" depth="2" NCoef="0" IVar="-1" Cut="0.0000000000000000e+00" cType="1" res="-7.4940118938684464e-03" rms="4.5156893134117126e-01" purity="4.3323880434036255e-01" nType="-1"/>
          <Node pos="r" depth="2" NCoef="0" IVar="-1" Cut="0.0000000000000000e+00" cType="1" res="-5.2438862621784210e-02" rms="2.4513188004493713e-01" purity="7.5399622321128845e-02" nType="-1"/>
        </Node>
      </Node>
    </BinaryTree>
    <BinaryTree type="DecisionTree" boostWeight="1.0000000000000000e+00" itree="8">
      <Node pos="s" depth="0" NCoef="0" IVar="0" Cut="1.4467574656009674e-01" cType="0" res="2.1040257811546326e-01" rms="2.9876548051834106e-01" purity="8.6718273162841797e-01" nType="0">
        <Node pos="l" depth="1" NCoef="0" IVar="-1" Cut="0.0000000000000000e+00" cType="1" res="4.0446542203426361e-02" rms="2.3717392981052399e-01" purity="9.3293350934982300e-01" nType="1"/>
        <Node pos="r" depth="1" NCoef="0" IVar="16" Cut="9.9681073427200317e-01" cType="0" res="-4.2493104934692383e-02" rms="4.3096420168876648e-01" purity="5.2327734231948853e-01" nType="0">
          <Node pos="l" depth="2" NCoef="0" IVar="-1" Cut="0.0000000000000000e+00" cType="1" res="1.8787730485200882e-02" rms="3.9388608932495117e-01" purity="7.5584894418716431e-01" nType="1"/>
          <Node pos="r" depth="2" NCoef="0" IVar="-1" Cut="0.0000000000000000e+00" cType="1" res="-3.8846693933010101e-02" rms="3.9222079515457153e-01" purity="2.5436538457870483e-01" nType="-1"/>
        </Node>
      </Node>
    </BinaryTree>
    <BinaryTree type="DecisionTree" boostWeight="1.0000000000000000e+00" itree="9">
      <Node pos="s" depth="0" NCoef="0" IVar="19" Cut="8.3146464824676514e-01" cType="1" res="1.9637680053710938e-01" rms="2.9489576816558838e-01" purity="8.6718273162841797e-01" nType="0">
        <Node pos="l" depth="1" NCoef="0" IVar="-1" Cut="0.0000000000000000e+00" cType="1" res="3.6453824490308762e-02" rms="2.6538076996803284e-01" purity="9.1782569885253906e-01" nType="1"/>
        <Node pos="r" depth="1" NCoef="0" IVar="15" Cut="-6.3026803545653820e-03" cType="0" res="-1.6761040687561035e-01" rms="3.7265807390213013e-01" purity="2.6816704869270325e-01" nType="0">
          <Node pos="l" depth="2" NCoef="0" IVar="-1" Cut="0.0000000000000000e+00" cType="1" res="-4.1954158805310726e-03" rms="4.4104716181755066e-01" purity="4.9395352602005005e-01" nType="-1"/>
          <Node pos="r" depth="2" NCoef="0" IVar="-1" Cut="0.0000000000000000e+00" cType="1" res="-4.9804750829935074e-02" rms="2.5969606637954712e-01" purity="9.0689688920974731e-02" nType="-1"/>
        </Node>
      </Node>
    </BinaryTree>
    <BinaryTree type="DecisionTree" boostWeight="1.0000000000000000e+00" itree="10">
      <Node pos="s" depth="0" NCoef="0" IVar="20" Cut="1.4146326780319214e+00" cType="1" res="1.8326511979103088e-01" rms="2.9210186004638672e-01" purity="8.6718273162841797e-01" nType="0">
        <Node pos="l" depth="1" NCoef="0" IVar="-1" Cut="0.0000000000000000e+00" cType="1" res="3.4419216215610504e-02" rms="2.6135009527206421e-01" purity="8.9837217330932617e-01" nType="1"/>
        <Node pos="r" depth="1" NCoef="0" IVar="0" Cut="1.9076286256313324e-01" cType="0" res="-2.2540913522243500e-01" rms="4.2556297779083252e-01" purity="3.6652845144271851e-01" nType="0">
          <Node pos="l" depth="2" NCoef="0" IVar="-1" Cut="0.0000000000000000e+00" cType="1" res="-1.5165872871875763e-02" rms="4.6561086177825928e-01" purity="5.9253597259521484e-01" nType="1"/>
          <Node pos="r" depth="2" NCoef="0" IVar="-1" Cut="0.0000000000000000e+00" cType="1" res="-6.8950593471527100e-02" rms="3.0486431717872620e-01" purity="1.0628906637430191e-01" nType="-1"/>
        </Node>
      </Node>
    </BinaryTree>
    <BinaryTree type="DecisionTree" boostWeight="1.0000000000000000e+00" itree="11">
      <Node pos="s" depth="0" NCoef="0" IVar="0" Cut="1.4467574656009674e-01" cType="0" res="1.7098766565322876e-01" rms="2.8942590951919556e-01" purity="8.6718273162841797e-01" nType="0">
        <Node pos="l" depth="1" NCoef="0" IVar="-1" Cut="0.0000000000000000e+00" cType="1" res="3.6489821970462799e-02" rms="2.3443168401718140e-01" purity="9.3293350934982300e-01" nType="1"/>
        <Node pos="r" depth="1" NCoef="0" IVar="4" Cut="1.7875323537737131e-03" cType="1" res="-5.5355641990900040e-02" rms="4.1644403338432312e-01" purity="5.2327734231948853e-01" nType="0">
          <Node pos="l" depth="2" NCoef="0" IVar="-1" Cut="0.0000000000000000e+00" cType="1" res="1.2465538457036018e-02" rms="3.8917851448059082e-01" purity="7.1041148900985718e-01" nType="1"/>
          <Node pos="r" depth="2" NCoef="0" IVar="-1" Cut="0.0000000000000000e+00" cType="1" res="-4.4311609119176865e-02" rms="3.7676951289176941e-01" purity="2.5003108382225037e-01" nType="-1"/>
        </Node>
      </Node>
    </BinaryTree>
    <BinaryTree type="DecisionTree" boostWeight="1.0000000000000000e+00" itree="12">
      <Node pos="s" depth="0" NCoef="0" IVar="19" Cut="1.0834236145019531e+00" cType="1" res="1.5963894128799438e-01" rms="2.8620946407318115e-01" purity="8.6718273162841797e-01" nType="0">
        <Node pos="l" depth="1" NCoef="0" IVar="-1" Cut="0.0000000000000000e+00" cType="1" res="3.2419979572296143e-02" rms="2.6325526833534241e-01" purity="9.1605681180953979e-01" nType="1"/>
        <Node pos="r" depth="1" NCoef="0" IVar="15" Cut="-1.0671152733266354e-02" cType="0" res="-1.8299904465675354e-01" rms="3.4979596734046936e-01" purity="2.2112144529819489e-01" nType="0">
          <Node pos="l" depth="2" NCoef="0" IVar="-1" Cut="0.0000000000000000e+00" cType="1" res="-1.3252992182970047e-02" rms="4.3430534005165100e-01" purity="4.0786150097846985e-01" nType="-1"/>
          <Node pos="r" depth="2" NCoef="0" IVar="-1" Cut="0.0000000000000000e+00" cType="1" res="-5.1552832126617432e-02" rms="2.1889697015285492e-01" purity="5.6436363607645035e-02" nType="-1"/>
        </Node>
      </Node>
    </BinaryTree>
    <BinaryTree type="DecisionTree" boostWeight="1.0000000000000000e+00" itree="13">
      <Node pos="s" depth="0" NCoef="0" IVar="20" Cut="1.1473004817962646e+00" cType="1" res="1.4900013804435730e-01" rms="2.8411471843719482e-01" purity="8.6718273162841797e-01" nType="0">
        <Node pos="l" depth="1" NCoef="0" IVar="-1" Cut="0.0000000000000000e+00" cType="1" res="3.1370431184768677e-02" rms="2.5298106670379639e-01" purity="9.0187603235244751e-01" nType="1"/>
        <Node pos="r" depth="1" NCoef="0" IVar="0" Cut="2.1669237315654755e-01" cType="0" res="-1.8101868033409119e-01" rms="4.2177146673202515e-01" purity="4.2200502753257751e-01" nType="0">
          <Node pos="l" depth="2" NCoef="0" IVar="-1" Cut="0.0000000000000000e+00" cType="1" res="-1.0046519339084625e-02" rms="4.4727429747581482e-01" purity="6.5186601877212524e-01" nType="1"/>
          <Node pos="r" depth="2" NCoef="0" IVar="-1" Cut="0.0000000000000000e+00" cType="1" res="-6.2103491276502609e-02" rms="3.2963094115257263e-01" purity="1.4330005645751953e-01" nType="-1"/>
        </Node>
      </Node>
    </BinaryTree>
    <BinaryTree type="DecisionTree" boostWeight="1.0000000000000000e+00" itree="14">
      <Node pos="s" depth="0" NCoef="0" IVar="0" Cut="1.6065725684165955e-01" cType="0" res="1.3905256986618042e-01" rms="2.8185126185417175e-01" purity="8.6718273162841797e-01" nType="0">
        <Node pos="l" depth="1" NCoef="0" IVar="-1" Cut="0.0000000000000000e+00" cType="1" res="3.3634111285209656e-02" rms="2.2849678993225098e-01" purity="9.3544602394104004e-01" nType="1"/>
        <Node pos="r" depth="1" NCoef="0" IVar="16" Cut="1.0116083621978760e+00" cType="0" res="-5.4565802216529846e-02" rms="4.0319797396659851e-01" purity="5.4489409923553467e-01" nType="0">
          <Node pos="l" depth="2" NCoef="0" IVar="-1" Cut="0.0000000000000000e+00" cType="1" res="1.5104558318853378e-02" rms="3.6120271682739258e-01" purity="7.7942609786987305e-01" nType="1"/>
          <Node pos="r" depth="2" NCoef="0" IVar="-1" Cut="0.0000000000000000e+00" cType="1" res="-3.8028426468372345e-02" rms="3.8823363184928894e-01" purity="2.8068104386329651e-01" nType="-1"/>
        </Node>
      </Node>
    </BinaryTree>
    <BinaryTree type="DecisionTree" boostWeight="1.0000000000000000e+00" itree="15">
      <Node pos="s" depth="0" NCoef="0" IVar="19" Cut="8.3146464824676514e-01" cType="1" res="1.2984856963157654e-01" rms="2.7911022305488586e-01" purity="8.6718273162841797e-01" nType="0">
        <Node pos="l" depth="1" NCoef="0" IVar="-1" Cut="0.0000000000000000e+00" cType="1" res="2.9518926516175270e-02" rms="2.5713083148002625e-01" purity="9.1782569885253906e-01" nType="1"/>
        <Node pos="r" depth="1" NCoef="0" IVar="15" Cut="-6.3026803545653820e-03" cType="0" res="-1.6081172227859497e-01" rms="3.5452356934547424e-01" purity="2.6816704869270325e-01" nType="0">
          <Node pos="l" depth="2" NCoef="0" IVar="-1" Cut="0.0000000000000000e+00" cType="1" res="-9.2424908652901649e-03" rms="4.2628914117813110e-01" purity="4.9395352602005005e-01" nType="-1"/>
          <Node pos="r" depth="2" NCoef="0" IVar="-1" Cut="0.0000000000000000e+00" cType="1" res="-4.7691766172647476e-02" rms="2.5795900821685791e-01" purity="9.0689688920974731e-02" nType="-1"/>
        </Node>
      </Node>
    </BinaryTree>
    <BinaryTree type="DecisionTree" boostWeight="1.0000000000000000e+00" itree="16">
      <Node pos="s" depth="0" NCoef="0" IVar="20" Cut="1.5705764293670654e+00" cType="1" res="1.2121217697858810e-01" rms="2.7741172909736633e-01" purity="8.6718273162841797e-01" nType="0">
        <Node pos="l" depth="1" NCoef="0" IVar="-1" Cut="0.0000000000000000e+00" cType="1" res="2.7645630761981010e-02" rms="2.5454613566398621e-01" purity="8.9650565385818481e-01" nType="1"/>
        <Node pos="r" depth="1" NCoef="0" IVar="7" Cut="8.9527983218431473e-03" cType="1" res="-2.3209138214588165e-01" rms="4.0537860989570618e-01" purity="3.3892881870269775e-01" nType="0">
          <Node pos="l" depth="2" NCoef="0" IVar="-1" Cut="0.0000000000000000e+00" cType="1" res="-2.6669623330235481e-02" rms="4.2520439624786377e-01" purity="4.8317721486091614e-01" nType="-1"/>
          <Node pos="r" depth="2" NCoef="0" IVar="-1" Cut="0.0000000000000000e+00" cType="1" res="-6.0891941189765930e-02" rms="3.6302605271339417e-01" purity="1.9913087785243988e-01" nType="-1"/>
        </Node>
      </Node>
    </BinaryTree>
    <BinaryTree type="DecisionTree" boostWeight="1.0000000000000000e+00" itree="17">
      <Node pos="s" depth="0" NCoef="0" IVar="0" Cut="1.6065725684165955e-01" cType="0" res="1.1309631168842316e-01" rms="2.7578568458557129e-01" purity="8.6718273162841797e-01" nType="0">
        <Node pos="l" depth="1" NCoef="0" IVar="-1" Cut="0.0000000000000000e+00" cType="1" res="3.0887270346283913e-02" rms="2.2641488909721375e-01" purity="9.3544602394104004e-01" nType="1"/>
        <Node pos="r" depth="1" NCoef="0" IVar="4" Cut="2.2876949515193701e-03" cType="1" res="-6.3063688576221466e-02" rms="3.9434954524040222e-01" purity="5.4489409923553467e-01" nType="0">
          <Node pos="l" depth="2" NCoef="0" IVar="-1" Cut="0.0000000000000000e+00" cType="1" res="5.2254595793783665e-03" rms="3.7695777416229248e-01" purity="7.0092797279357910e-01" nType="1"/>
          <Node pos="r" depth="2" NCoef="0" IVar="-1" Cut="0.0000000000000000e+00" cType="1" res="-5.1219169050455093e-02" rms="3.5562032461166382e-01" purity="2.0850974321365356e-01" nType="-1"/>
        </Node>
      </Node>
    </BinaryTree>
    <BinaryTree type="DecisionTree" boostWeight="1.0000000000000000e+00" itree="18">
      <Node pos="s" depth="0" NCoef="0" IVar="15" Cut="-1.7042348161339760e-02" cType="0" res="1.0565293580293655e-01" rms="2.7343380451202393e-01" purity="8.6718273162841797e-01" nType="0">
        <Node pos="l" depth="1" NCoef="0" IVar="-1" Cut="0.0000000000000000e+00" cType="1" res="2.7585491538047791e-02" rms="2.4408909678459167e-01" purity="9.1218793392181396e-01" nType="1"/>
        <Node pos="r" depth="1" NCoef="0" IVar="0" Cut="2.0874606072902679e-01" cType="0" res="-1.2112157046794891e-01" rms="3.7720668315887451e-01" purity="4.9620106816291809e-01" nType="0">
          <Node pos="l" depth="2" NCoef="0" IVar="-1" Cut="0.0000000000000000e+00" cType="1" res="-3.2607549801468849e-03" rms="3.8636663556098938e-01" purity="7.4839180707931519e-01" nType="1"/>
          <Node pos="r" depth="2" NCoef="0" IVar="-1" Cut="0.0000000000000000e+00" cType="1" res="-5.3834088146686554e-02" rms="3.1545957922935486e-01" purity="1.6572503745555878e-01" nType="-1"/>
        </Node>
      </Node>
    </BinaryTree>
    <BinaryTree type="DecisionTree" boostWeight="1.0000000000000000e+00" itree="19">
      <Node pos="s" depth="0" NCoef="0" IVar="20" Cut="1.1361616849899292e+00" cType="1" res="9.8629407584667206e-02" rms="2.7166780829429626e-01" purity="8.6718273162841797e-01" nType="0">
        <Node pos="l" depth="1" NCoef="0" IVar="-1" Cut="0.0000000000000000e+00" cType="1" res="2.5699907913804054e-02" rms="2.4599179625511169e-01" purity="9.0203046798706055e-01" nType="1"/>
        <Node pos="r" depth="1" NCoef="0" IVar="20" Cut="2.2884705066680908e+00" cType="1" res="-1.7237640917301178e-01" rms="4.0421387553215027e-01" purity="4.2458662390708923e-01" nType="0">
          <Node pos="l" depth="2" NCoef="0" IVar="-1" Cut="0.0000000000000000e+00" cType="1" res="-1.6768792644143105e-02" rms="4.0257090330123901e-01" purity="5.6423383951187134e-01" nType="1"/>
          <Node pos="r" depth="2" NCoef="0" IVar="-1" Cut="0.0000000000000000e+00" cType="1" res="-5.5430792272090912e-02" rms="3.7644335627555847e-01" purity="2.4516931176185608e-01" nType="-1"/>
        </Node>
      </Node>
    </BinaryTree>
    <BinaryTree type="DecisionTree" boostWeight="1.0000000000000000e+00" itree="20">
      <Node pos="s" depth="0" NCoef="0" IVar="19" Cut="8.3146464824676514e-01" cType="1" res="9.2046126723289490e-02" rms="2.7023932337760925e-01" purity="8.6718273162841797e-01" nType="0">
        <Node pos="l" depth="1" NCoef="0" IVar="-1" Cut="0.0000000000000000e+00" cType="1" res="2.5084767490625381e-02" rms="2.5152003765106201e-01" purity="9.1782569885253906e-01" nType="1"/>
        <Node pos="r" depth="1" NCoef="0" IVar="9" Cut="1.0244185104966164e-02" cType="1" res="-1.6055871546268463e-01" rms="3.4547245502471924e-01" purity="2.6816704869270325e-01" nType="0">
          <Node pos="l" depth="2" NCoef="0" IVar="-1" Cut="0.0000000000000000e+00" cType="1" res="-1.1137110181152821e-02" rms="3.9455592632293701e-01" purity="4.5208349823951721e-01" nType="-1"/>
          <Node pos="r" depth="2" NCoef="0" IVar="-1" Cut="0.0000000000000000e+00" cType="1" res="-4.3855927884578705e-02" rms="2.9663589596748352e-01" purity="1.5666773915290833e-01" nType="-1"/>
        </Node>
      </Node>
    </BinaryTree>
    <BinaryTree type="DecisionTree" boostWeight="1.0000000000000000e+00" itree="21">
      <Node pos="s" depth="0" NCoef="0" IVar="0" Cut="1.6165609657764435e-01" cType="0" res="8.5936583578586578e-02" rms="2.6902008056640625e-01" purity="8.6718273162841797e-01" nType="0">
        <Node pos="l" depth="1" NCoef="0" IVar="-1" Cut="0.0000000000000000e+00" cType="1" res="2.7721801772713661e-02" rms="2.2394306957721710e-01" purity="9.3555241823196411e-01" nType="1"/>
        <Node pos="r" depth="1" NCoef="0" IVar="16" Cut="1.0116083621978760e+00" cType="0" res="-7.1038112044334412e-02" rms="3.8321179151535034e-01" purity="5.4607009887695312e-01" nType="0">
          <Node pos="l" depth="2" NCoef="0" IVar="-1" Cut="0.0000000000000000e+00" cType="1" res="9.2863617464900017e-03" rms="3.4575980901718140e-01" purity="7.8016179800033569e-01" nType="1"/>
          <Node pos="r" depth="2" NCoef="0" IVar="-1" Cut="0.0000000000000000e+00" cType="1" res="-3.9395108819007874e-02" rms="3.7966087460517883e-01" purity="2.8085464239120483e-01" nType="-1"/>
        </Node>
      </Node>
    </BinaryTree>
    <BinaryTree type="DecisionTree" boostWeight="1.0000000000000000e+00" itree="22">
      <Node pos="s" depth="0" NCoef="0" IVar="15" Cut="-1.9100069999694824e-02" cType="0" res="8.0292508006095886e-02" rms="2.6712548732757568e-01" purity="8.6718273162841797e-01" nType="0">
        <Node pos="l" depth="1" NCoef="0" IVar="-1" Cut="0.0000000000000000e+00" cType="1" res="2.4028467014431953e-02" rms="2.4275746941566467e-01" purity="9.1004341840744019e-01" nType="1"/>
        <Node pos="r" depth="1" NCoef="0" IVar="2" Cut="5.0049977302551270e+00" cType="1" res="-1.3067075610160828e-01" rms="3.6763969063758850e-01" purity="4.7671034932136536e-01" nType="0">
          <Node pos="l" depth="2" NCoef="0" IVar="-1" Cut="0.0000000000000000e+00" cType="1" res="8.6487084627151489e-04" rms="3.5452464222908020e-01" purity="7.6898300647735596e-01" nType="1"/>
          <Node pos="r" depth="2" NCoef="0" IVar="-1" Cut="0.0000000000000000e+00" cType="1" res="-4.6690184623003006e-02" rms="3.5244503617286682e-01" purity="3.0895557999610901e-01" nType="-1"/>
        </Node>
      </Node>
    </BinaryTree>
    <BinaryTree type="DecisionTree" boostWeight="1.0000000000000000e+00" itree="23">
      <Node pos="s" depth="0" NCoef="0" IVar="20" Cut="1.0581897497177124e+00" cType="1" res="7.4970886111259460e-02" rms="2.6577714085578918e-01" purity="8.6718273162841797e-01" nType="0">
        <Node pos="l" depth="1" NCoef="0" IVar="-1" Cut="0.0000000000000000e+00" cType="1" res="2.2772168740630150e-02" rms="2.4139402806758881e-01" purity="9.0297836065292358e-01" nType="1"/>
        <Node pos="r" depth="1" NCoef="0" IVar="20" Cut="2.1616666316986084e+00" cType="1" res="-1.6131106019020081e-01" rms="3.9606866240501404e-01" purity="4.4235518574714661e-01" nType="0">
          <Node pos="l" depth="2" NCoef="0" IVar="-1" Cut="0.0000000000000000e+00" cType="1" res="-1.6809472814202309e-02" rms="3.9125129580497742e-01" purity="5.8919894695281982e-01" nType="1"/>
          <Node pos="r" depth="2" NCoef="0" IVar="-1" Cut="0.0000000000000000e+00" cType="1" res="-5.3221665322780609e-02" rms="3.7729015946388245e-01" purity="2.5833690166473389e-01" nType="-1"/>
        </Node>
      </Node>
    </BinaryTree>
    <BinaryTree type="DecisionTree" boostWeight="1.0000000000000000e+00" itree="24">
      <Node pos="s" depth="0" NCoef="0" IVar="0" Cut="1.6165609657764435e-01" cType="0" res="6.9980494678020477e-02" rms="2.6459062099456787e-01" purity="8.6718273162841797e-01" nType="0">
        <Node pos="l" depth="1" NCoef="0" IVar="-1" Cut="0.0000000000000000e+00" cType="1" res="2.5506967678666115e-02" rms="2.2263836860656738e-01" purity="9.3555241823196411e-01" nType="1"/>
        <Node pos="r" depth="1" NCoef="0" IVar="16" Cut="1.0116083621978760e+00" cType="0" res="-7.3298282921314240e-02" rms="3.7564730644226074e-01" purity="5.4607009887695312e-01" nType="0">
          <Node pos="l" depth="2" NCoef="0" IVar="-1" Cut="0.0000000000000000e+00" cType="1" res="6.8920324556529522e-03" rms="3.4139591455459595e-01" purity="7.8016179800033569e-01" nType="1"/>
          <Node pos="r" depth="2" NCoef="0" IVar="-1" Cut="0.0000000000000000e+00" cType="1" res="-3.8029469549655914e-02" rms="3.7621334195137024e-01" purity="2.8085464239120483e-01" nType="-1"/>
        </Node>
      </Node>
    </BinaryTree>
    <BinaryTree type="DecisionTree" boostWeight="1.0000000000000000e+00" itree="25">
      <Node pos="s" depth="0" NCoef="0" IVar="19" Cut="7.8107285499572754e-01" cType="1" res="6.5396405756473541e-02" rms="2.6303559541702271e-01" purity="8.6718273162841797e-01" nType="0">
        <Node pos="l" depth="1" NCoef="0" IVar="-1" Cut="0.0000000000000000e+00" cType="1" res="2.1431859582662582e-02" rms="2.4634994566440582e-01" purity="9.1810351610183716e-01" nType="1"/>
        <Node pos="r" depth="1" NCoef="0" IVar="19" Cut="2.0465965270996094e+00" cType="1" res="-1.5211971104145050e-01" rms="3.4048491716384888e-01" purity="2.7914339303970337e-01" nType="0">
          <Node pos="l" depth="2" NCoef="0" IVar="-1" Cut="0.0000000000000000e+00" cType="1" res="-1.0227350518107414e-02" rms="4.1034951806068420e-01" purity="5.9070396423339844e-01" nType="1"/>
          <Node pos="r" depth="2" NCoef="0" IVar="-1" Cut="0.0000000000000000e+00" cType="1" res="-4.2952820658683777e-02" rms="2.9010075330734253e-01" purity="1.2941557168960571e-01" nType="-1"/>
        </Node>
      </Node>
    </BinaryTree>
    <BinaryTree type="DecisionTree" boostWeight="1.0000000000000000e+00" itree="26">
      <Node pos="s" depth="0" NCoef="0" IVar="20" Cut="1.0581897497177124e+00" cType="1" res="6.1073645949363708e-02" rms="2.6211529970169067e-01" purity="8.6718273162841797e-01" nType="0">
        <Node pos="l" depth="1" NCoef="0" IVar="-1" Cut="0.0000000000000000e+00" cType="1" res="2.0648077130317688e-02" rms="2.3943564295768738e-01" purity="9.0297836065292358e-01" nType="1"/>
        <Node pos="r" depth="1" NCoef="0" IVar="7" Cut="9.1264871880412102e-03" cType="1" res="-1.5444052219390869e-01" rms="3.9159238338470459e-01" purity="4.4235518574714661e-01" nType="0">
          <Node pos="l" depth="2" NCoef="0" IVar="-1" Cut="0.0000000000000000e+00" cType="1" res="-1.9177475944161415e-02" rms="3.9136567711830139e-01" purity="5.6197470426559448e-01" nType="1"/>
          <Node pos="r" depth="2" NCoef="0" IVar="-1" Cut="0.0000000000000000e+00" cType="1" res="-5.7460602372884750e-02" rms="3.6389386653900146e-01" purity="2.2703388333320618e-01" nType="-1"/>
        </Node>
      </Node>
    </BinaryTree>
    <BinaryTree type="DecisionTree" boostWeight="1.0000000000000000e+00" itree="27">
      <Node pos="s" depth="0" NCoef="0" IVar="15" Cut="-1.6219258308410645e-02" cType="0" res="5.7016156613826752e-02" rms="2.6109716296195984e-01" purity="8.6718273162841797e-01" nType="0">
        <Node pos="l" depth="1" NCoef="0" IVar="-1" Cut="0.0000000000000000e+00" cType="1" res="2.0956048741936684e-02" rms="2.3718200623989105e-01" purity="9.1297101974487305e-01" nType="1"/>
        <Node pos="r" depth="1" NCoef="0" IVar="9" Cut="1.1389649473130703e-02" cType="1" res="-1.1697569489479065e-01" rms="3.5830834507942200e-01" purity="5.0479525327682495e-01" nType="0">
          <Node pos="l" depth="2" NCoef="0" IVar="-1" Cut="0.0000000000000000e+00" cType="1" res="-1.2457729317247868e-02" rms="3.4789583086967468e-01" purity="6.3387131690979004e-01" nType="1"/>
          <Node pos="r" depth="2" NCoef="0" IVar="-1" Cut="0.0000000000000000e+00" cType="1" res="-5.9820782393217087e-02" rms="3.4105151891708374e-01" purity="2.3425005376338959e-01" nType="-1"/>
        </Node>
      </Node>
    </BinaryTree>
    <BinaryTree type="DecisionTree" boostWeight="1.0000000000000000e+00" itree="28">
      <Node pos="s" depth="0" NCoef="0" IVar="0" Cut="1.7863644659519196e-01" cType="0" res="5.3237657994031906e-02" rms="2.5996109843254089e-01" purity="8.6718273162841797e-01" nType="0">
        <Node pos="l" depth="1" NCoef="0" IVar="-1" Cut="0.0000000000000000e+00" cType="1" res="2.3402836173772812e-02" rms="2.1781761944293976e-01" purity="9.3738085031509399e-01" nType="1"/>
        <Node pos="r" depth="1" NCoef="0" IVar="13" Cut="1.1150423437356949e-02" cType="1" res="-7.1303583681583405e-02" rms="3.6621123552322388e-01" purity="5.6845253705978394e-01" nType="0">
          <Node pos="l" depth="2" NCoef="0" IVar="-1" Cut="0.0000000000000000e+00" cType="1" res="-9.9456368479877710e-04" rms="3.4970405697822571e-01" purity="6.9332408905029297e-01" nType="1"/>
          <Node pos="r" depth="2" NCoef="0" IVar="-1" Cut="0.0000000000000000e+00" cType="1" res="-5.2101116627454758e-02" rms="3.5467389225959778e-01" purity="2.6508885622024536e-01" nType="-1"/>
        </Node>
      </Node>
    </BinaryTree>
    <BinaryTree type="DecisionTree" boostWeight="1.0000000000000000e+00" itree="29">
      <Node pos="s" depth="0" NCoef="0" IVar="20" Cut="8.1313532590866089e-01" cType="1" res="4.9769658595323563e-02" rms="2.5847676396369934e-01" purity="8.6718273162841797e-01" nType="0">
        <Node pos="l" depth="1" NCoef="0" IVar="-1" Cut="0.0000000000000000e+00" cType="1" res="1.9292449578642845e-02" rms="2.3412799835205078e-01" purity="9.0629941225051880e-01" nType="1"/>
        <Node pos="r" depth="1" NCoef="0" IVar="15" Cut="-1.0611690580844879e-02" cType="0" res="-1.2533891201019287e-01" rms="3.8014686107635498e-01" purity="5.0303500890731812e-01" nType="0">
          <Node pos="l" depth="2" NCoef="0" IVar="-1" Cut="0.0000000000000000e+00" cType="1" res="-1.4818207360804081e-02" rms="3.9013069868087769e-01" purity="6.5703296661376953e-01" nType="1"/>
          <Node pos="r" depth="2" NCoef="0" IVar="-1" Cut="0.0000000000000000e+00" cType="1" res="-6.0821324586868286e-02" rms="3.2533809542655945e-01" purity="1.6983138024806976e-01" nType="-1"/>
        </Node>
      </Node>
    </BinaryTree>
    <BinaryTree type="DecisionTree" boostWeight="1.0000000000000000e+00" itree="30">
      <Node pos="s" depth="0" NCoef="0" IVar="19" Cut="6.0470157861709595e-01" cType="1" res="4.6476956456899643e-02" rms="2.5751259922981262e-01" purity="8.6718273162841797e-01" nType="0">
        <Node pos="l" depth="1" NCoef="0" IVar="-1" Cut="0.0000000000000000e+00" cType="1" res="1.8410049378871918e-02" rms="2.4120865762233734e-01" purity="9.1913926601409912e-01" nType="1"/>
        <Node pos="r" depth="1" NCoef="0" IVar="7" Cut="8.8281026110053062e-03" cType="1" res="-1.3656565546989441e-01" rms="3.3872726559638977e-01" purity="3.2322710752487183e-01" nType="0">
          <Node pos="l" depth="2" NCoef="0" IVar="-1" Cut="0.0000000000000000e+00" cType="1" res="-1.3404366560280323e-02" rms="3.5774040222167969e-01" purity="4.8734042048454285e-01" nType="-1"/>
          <Node pos="r" depth="2" NCoef="0" IVar="-1" Cut="0.0000000000000000e+00" cType="1" res="-4.1264612227678299e-02" rms="3.1681182980537415e-01" purity="2.1801556646823883e-01" nType="-1"/>
        </Node>
      </Node>
    </BinaryTree>
    <BinaryTree type="DecisionTree" boostWeight="1.0000000000000000e+00" itree="31">
      <Node pos="s" depth="0" NCoef="0" IVar="0" Cut="1.7863644659519196e-01" cType="0" res="4.3408289551734924e-02" rms="2.5678163766860962e-01" purity="8.6718273162841797e-01" nType="0">
        <Node pos="l" depth="1" NCoef="0" IVar="-1" Cut="0.0000000000000000e+00" cType="1" res="2.1599881350994110e-02" rms="2.1667279303073883e-01" purity="9.3738085031509399e-01" nType="1"/>
        <Node pos="r" depth="1" NCoef="0" IVar="16" Cut="1.0116083621978760e+00" cType="0" res="-7.1143165230751038e-02" rms="3.6130672693252563e-01" purity="5.6845253705978394e-01" nType="0">
          <Node pos="l" depth="2" NCoef="0" IVar="-1" Cut="0.0000000000000000e+00" cType="1" res="4.1542020626366138e-03" rms="3.2591235637664795e-01" purity="7.9369544982910156e-01" nType="1"/>
          <Node pos="r" depth="2" NCoef="0" IVar="-1" Cut="0.0000000000000000e+00" cType="1" res="-3.8659427314996719e-02" rms="3.7247437238693237e-01" purity="2.8483057022094727e-01" nType="-1"/>
        </Node>
      </Node>
    </BinaryTree>
    <BinaryTree type="DecisionTree" boostWeight="1.0000000000000000e+00" itree="32">
      <Node pos="s" depth="0" NCoef="0" IVar="15" Cut="-2.2186651825904846e-02" cType="0" res="4.0600005537271500e-02" rms="2.5555366277694702e-01" purity="8.6718273162841797e-01" nType="0">
        <Node pos="l" depth="1" NCoef="0" IVar="-1" Cut="0.0000000000000000e+00" cType="1" res="1.7104439437389374e-02" rms="2.3797786235809326e-01" purity="9.0717792510986328e-01" nType="1"/>
        <Node pos="r" depth="1" NCoef="0" IVar="2" Cut="4.0054974555969238e+00" cType="1" res="-1.3433919847011566e-01" rms="3.4973156452178955e-01" purity="4.4971802830696106e-01" nType="0">
          <Node pos="l" depth="2" NCoef="0" IVar="-1" Cut="0.0000000000000000e+00" cType="1" res="-4.5327711268328130e-04" rms="3.2830291986465454e-01" purity="7.9489248991012573e-01" nType="1"/>
          <Node pos="r" depth="2" NCoef="0" IVar="-1" Cut="0.0000000000000000e+00" cType="1" res="-4.5757945626974106e-02" rms="3.4511050581932068e-01" purity="3.2900628447532654e-01" nType="-1"/>
        </Node>
      </Node>
    </BinaryTree>
    <BinaryTree type="DecisionTree" boostWeight="1.0000000000000000e+00" itree="33">
      <Node pos="s" depth="0" NCoef="0" IVar="21" Cut="1.2966792583465576e+00" cType="1" res="3.7923946976661682e-02" rms="2.5471815466880798e-01" purity="8.6718273162841797e-01" nType="0">
        <Node pos="l" depth="1" NCoef="0" IVar="-1" Cut="0.0000000000000000e+00" cType="1" res="1.6043318435549736e-02" rms="2.3422789573669434e-01" purity="8.9045506715774536e-01" nType="1"/>
        <Node pos="r" depth="1" NCoef="0" IVar="0" Cut="2.3976272344589233e-01" cType="0" res="-1.5046751499176025e-01" rms="3.8838317990303040e-01" purity="5.7841807603836060e-01" nType="0">
          <Node pos="l" depth="2" NCoef="0" IVar="-1" Cut="0.0000000000000000e+00" cType="1" res="-2.2856375202536583e-02" rms="3.7652117013931274e-01" purity="7.7361857891082764e-01" nType="1"/>
          <Node pos="r" depth="2" NCoef="0" IVar="-1" Cut="0.0000000000000000e+00" cType="1" res="-6.0980498790740967e-02" rms="3.7673583626747131e-01" purity="2.7331194281578064e-01" nType="-1"/>
        </Node>
      </Node>
    </BinaryTree>
    <BinaryTree type="DecisionTree" boostWeight="1.0000000000000000e+00" itree="34">
      <Node pos="s" depth="0" NCoef="0" IVar="20" Cut="1.6374094486236572e+00" cType="1" res="3.5396106541156769e-02" rms="2.5391957163810730e-01" purity="8.6718273162841797e-01" nType="0">
        <Node pos="l" depth="1" NCoef="0" IVar="-1" Cut="0.0000000000000000e+00" cType="1" res="1.4740720391273499e-02" rms="2.3962467908859253e-01" purity="8.9570981264114380e-01" nType="1"/>
        <Node pos="r" depth="1" NCoef="0" IVar="20" Cut="2.9171960353851318e+00" cType="1" res="-1.9155898690223694e-01" rms="3.7848314642906189e-01" purity="3.2934445142745972e-01" nType="0">
          <Node pos="l" depth="2" NCoef="0" IVar="-1" Cut="0.0000000000000000e+00" cType="1" res="-2.9866561293601990e-02" rms="3.8351497054100037e-01" purity="4.3073353171348572e-01" nType="-1"/>
          <Node pos="r" depth="2" NCoef="0" IVar="-1" Cut="0.0000000000000000e+00" cType="1" res="-5.8794874697923660e-02" rms="3.5730376839637756e-01" purity="1.9202432036399841e-01" nType="-1"/>
        </Node>
      </Node>
    </BinaryTree>
    <BinaryTree type="DecisionTree" boostWeight="1.0000000000000000e+00" itree="35">
      <Node pos="s" depth="0" NCoef="0" IVar="0" Cut="1.7963530123233795e-01" cType="0" res="3.3036265522241592e-02" rms="2.5328603386878967e-01" purity="8.6718273162841797e-01" nType="0">
        <Node pos="l" depth="1" NCoef="0" IVar="-1" Cut="0.0000000000000000e+00" cType="1" res="1.9398711621761322e-02" rms="2.1552573144435883e-01" purity="9.3746393918991089e-01" nType="1"/>
        <Node pos="r" depth="1" NCoef="0" IVar="4" Cut="1.7875323537737131e-03" cType="1" res="-7.1115389466285706e-02" rms="3.5447028279304504e-01" purity="5.6979376077651978e-01" nType="0">
          <Node pos="l" depth="2" NCoef="0" IVar="-1" Cut="0.0000000000000000e+00" cType="1" res="6.1570142861455679e-04" rms="3.3290410041809082e-01" purity="7.4461567401885986e-01" nType="1"/>
          <Node pos="r" depth="2" NCoef="0" IVar="-1" Cut="0.0000000000000000e+00" cType="1" res="-4.4028501957654953e-02" rms="3.5579171776771545e-01" purity="2.8692921996116638e-01" nType="-1"/>
        </Node>
      </Node>
    </BinaryTree>
    <BinaryTree type="DecisionTree" boostWeight="1.0000000000000000e+00" itree="36">
      <Node pos="s" depth="0" NCoef="0" IVar="19" Cut="5.7950568199157715e-01" cType="1" res="3.0925797298550606e-02" rms="2.5214540958404541e-01" purity="8.6718273162841797e-01" nType="0">
        <Node pos="l" depth="1" NCoef="0" IVar="-1" Cut="0.0000000000000000e+00" cType="1" res="1.5201603062450886e-02" rms="2.3698140680789948e-01" purity="9.1927373409271240e-01" nType="1"/>
        <Node pos="r" depth="1" NCoef="0" IVar="19" Cut="2.0491178035736084e+00" cType="1" res="-1.2922544777393341e-01" rms="3.3436715602874756e-01" purity="3.3087453246116638e-01" nType="0">
          <Node pos="l" depth="2" NCoef="0" IVar="-1" Cut="0.0000000000000000e+00" cType="1" res="-1.3859390281140804e-02" rms="3.8398480415344238e-01" purity="6.4311408996582031e-01" nType="1"/>
          <Node pos="r" depth="2" NCoef="0" IVar="-1" Cut="0.0000000000000000e+00" cType="1" res="-4.2902909219264984e-02" rms="2.9020160436630249e-01" purity="1.2933683395385742e-01" nType="-1"/>
        </Node>
      </Node>
    </BinaryTree>
    <BinaryTree type="DecisionTree" boostWeight="1.0000000000000000e+00" itree="37">
      <Node pos="s" depth="0" NCoef="0" IVar="20" Cut="8.0199646949768066e-01" cType="1" res="2.8908334672451019e-02" rms="2.5153544545173645e-01" purity="8.6718273162841797e-01" nType="0">
        <Node pos="l" depth="1" NCoef="0" IVar="-1" Cut="0.0000000000000000e+00" cType="1" res="1.5049826353788376e-02" rms="2.2955434024333954e-01" purity="9.0643858909606934e-01" nType="1"/>
        <Node pos="r" depth="1" NCoef="0" IVar="7" Cut="9.1264871880412102e-03" cType="1" res="-1.1879671365022659e-01" rms="3.6899462342262268e-01" purity="5.0680381059646606e-01" nType="0">
          <Node pos="l" depth="2" NCoef="0" IVar="-1" Cut="0.0000000000000000e+00" cType="1" res="-1.6806244850158691e-02" rms="3.6198779940605164e-01" purity="6.2207400798797607e-01" nType="1"/>
          <Node pos="r" depth="2" NCoef="0" IVar="-1" Cut="0.0000000000000000e+00" cType="1" res="-5.1450058817863464e-02" rms="3.6187511682510376e-01" purity="2.7927067875862122e-01" nType="-1"/>
        </Node>
      </Node>
    </BinaryTree>
    <BinaryTree type="DecisionTree" boostWeight="1.0000000000000000e+00" itree="38">
      <Node pos="s" depth="0" NCoef="0" IVar="21" Cut="1.3768862485885620e+00" cType="1" res="2.7005804702639580e-02" rms="2.5081884860992432e-01" purity="8.6718273162841797e-01" nType="0">
        <Node pos="l" depth="1" NCoef="0" IVar="-1" Cut="0.0000000000000000e+00" cType="1" res="1.3349761255085468e-02" rms="2.3248666524887085e-01" purity="8.8937300443649292e-01" nType="1"/>
        <Node pos="r" depth="1" NCoef="0" IVar="7" Cut="9.1372774913907051e-03" cType="1" res="-1.5091337263584137e-01" rms="3.8559192419052124e-01" purity="5.6721949577331543e-01" nType="0">
          <Node pos="l" depth="2" NCoef="0" IVar="-1" Cut="0.0000000000000000e+00" cType="1" res="-2.6738122105598450e-02" rms="3.6481234431266785e-01" purity="6.7918807268142700e-01" nType="1"/>
          <Node pos="r" depth="2" NCoef="0" IVar="-1" Cut="0.0000000000000000e+00" cType="1" res="-6.7398265004158020e-02" rms="3.9581167697906494e-01" purity="3.2982170581817627e-01" nType="-1"/>
        </Node>
      </Node>
    </BinaryTree>
    <BinaryTree type="DecisionTree" boostWeight="1.0000000000000000e+00" itree="39">
      <Node pos="s" depth="0" NCoef="0" IVar="15" Cut="-1.4778854325413704e-02" cType="0" res="2.5210123509168625e-02" rms="2.5013256072998047e-01" purity="8.6718273162841797e-01" nType="0">
        <Node pos="l" depth="1" NCoef="0" IVar="-1" Cut="0.0000000000000000e+00" cType="1" res="1.4691418036818504e-02" rms="2.2991897165775299e-01" purity="9.1437977552413940e-01" nType="1"/>
        <Node pos="r" depth="1" NCoef="0" IVar="9" Cut="1.1923599988222122e-02" cType="1" res="-1.0509674251079559e-01" rms="3.3831995725631714e-01" purity="5.2093011140823364e-01" nType="0">
          <Node pos="l" depth="2" NCoef="0" IVar="-1" Cut="0.0000000000000000e+00" cType="1" res="-1.8049851059913635e-02" rms="3.3258977532386780e-01" purity="6.2043702602386475e-01" nType="1"/>
          <Node pos="r" depth="2" NCoef="0" IVar="-1" Cut="0.0000000000000000e+00" cType="1" res="-6.6669702529907227e-02" rms="3.1902232766151428e-01" purity="1.6619664430618286e-01" nType="-1"/>
        </Node>
      </Node>
    </BinaryTree>
    <BinaryTree type="DecisionTree" boostWeight="1.0000000000000000e+00" itree="40">
      <Node pos="s" depth="0" NCoef="0" IVar="0" Cut="1.7863644659519196e-01" cType="0" res="2.3568993434309959e-02" rms="2.4930265545845032e-01" purity="8.6718273162841797e-01" nType="0">
        <Node pos="l" depth="1" NCoef="0" IVar="-1" Cut="0.0000000000000000e+00" cType="1" res="1.7070919275283813e-02" rms="2.1366371214389801e-01" purity="9.3738085031509399e-01" nType="1"/>
        <Node pos="r" depth="1" NCoef="0" IVar="13" Cut="1.1150423437356949e-02" cType="1" res="-7.1597196161746979e-02" rms="3.4811159968376160e-01" purity="5.6845253705978394e-01" nType="0">
          <Node pos="l" depth="2" NCoef="0" IVar="-1" Cut="0.0000000000000000e+00" cType="1" res="-4.0718158707022667e-03" rms="3.3379018306732178e-01" purity="6.9332408905029297e-01" nType="1"/>
          <Node pos="r" depth="2" NCoef="0" IVar="-1" Cut="0.0000000000000000e+00" cType="1" res="-5.0645817071199417e-02" rms="3.4633478522300720e-01" purity="2.6508885622024536e-01" nType="-1"/>
        </Node>
      </Node>
    </BinaryTree>
    <BinaryTree type="DecisionTree" boostWeight="1.0000000000000000e+00" itree="41">
      <Node pos="s" depth="0" NCoef="0" IVar="19" Cut="3.5274258255958557e-01" cType="1" res="2.2077618166804314e-02" rms="2.4827498197555542e-01" purity="8.6718273162841797e-01" nType="0">
        <Node pos="l" depth="1" NCoef="0" IVar="-1" Cut="0.0000000000000000e+00" cType="1" res="1.3246869668364525e-02" rms="2.3243291676044464e-01" purity="9.2063397169113159e-01" nType="1"/>
        <Node pos="r" depth="1" NCoef="0" IVar="9" Cut="9.8038772121071815e-03" cType="1" res="-1.1048743128776550e-01" rms="3.3087342977523804e-01" purity="3.9414206147193909e-01" nType="0">
          <Node pos="l" depth="2" NCoef="0" IVar="-1" Cut="0.0000000000000000e+00" cType="1" res="-9.4028236344456673e-03" rms="3.4896394610404968e-01" purity="6.0728335380554199e-01" nType="1"/>
          <Node pos="r" depth="2" NCoef="0" IVar="-1" Cut="0.0000000000000000e+00" cType="1" res="-3.8786016404628754e-02" rms="3.1558546423912048e-01" purity="2.8824681043624878e-01" nType="-1"/>
        </Node>
      </Node>
    </BinaryTree>
    <BinaryTree type="DecisionTree" boostWeight="1.0000000000000000e+00" itree="42">
      <Node pos="s" depth="0" NCoef="0" IVar="20" Cut="7.3516345024108887e-01" cType="1" res="2.0647810772061348e-02" rms="2.4773018062114716e-01" purity="8.6718273162841797e-01" nType="0">
        <Node pos="l" depth="1" NCoef="0" IVar="-1" Cut="0.0000000000000000e+00" cType="1" res="1.3042039237916470e-02" rms="2.2618748247623444e-01" purity="9.0722817182540894e-01" nType="1"/>
        <Node pos="r" depth="1" NCoef="0" IVar="20" Cut="2.1679408550262451e+00" cType="1" res="-1.0896899551153183e-01" rms="3.6102658510208130e-01" purity="5.2308851480484009e-01" nType="0">
          <Node pos="l" depth="2" NCoef="0" IVar="-1" Cut="0.0000000000000000e+00" cType="1" res="-1.6537986695766449e-02" rms="3.5163593292236328e-01" purity="6.5348255634307861e-01" nType="1"/>
          <Node pos="r" depth="2" NCoef="0" IVar="-1" Cut="0.0000000000000000e+00" cType="1" res="-4.7457762062549591e-02" rms="3.6053246259689331e-01" purity="2.5790756940841675e-01" nType="-1"/>
        </Node>
      </Node>
    </BinaryTree>
    <BinaryTree type="DecisionTree" boostWeight="1.0000000000000000e+00" itree="43">
      <Node pos="s" depth="0" NCoef="0" IVar="21" Cut="1.2966792583465576e+00" cType="1" res="1.9305318593978882e-02" rms="2.4711608886718750e-01" purity="8.6718273162841797e-01" nType="0">
        <Node pos="l" depth="1" NCoef="0" IVar="-1" Cut="0.0000000000000000e+00" cType="1" res="1.1462223716080189e-02" rms="2.2923190891742706e-01" purity="8.9045506715774536e-01" nType="1"/>
        <Node pos="r" depth="1" NCoef="0" IVar="8" Cut="1.0773734189569950e-02" cType="0" res="-1.3462792336940765e-01" rms="3.7572160363197327e-01" purity="5.7841807603836060e-01" nType="0">
          <Node pos="l" depth="2" NCoef="0" IVar="-1" Cut="0.0000000000000000e+00" cType="1" res="-2.9909769073128700e-02" rms="3.6331897974014282e-01" purity="6.3119298219680786e-01" nType="1"/>
          <Node pos="r" depth="2" NCoef="0" IVar="-1" Cut="0.0000000000000000e+00" cType="1" res="-7.6199799776077271e-02" rms="3.8906818628311157e-01" purity="2.7299913763999939e-01" nType="-1"/>
        </Node>
      </Node>
    </BinaryTree>
    <BinaryTree type="DecisionTree" boostWeight="1.0000000000000000e+00" itree="44">
      <Node pos="s" depth="0" NCoef="0" IVar="15" Cut="-1.2721132487058640e-02" cType="0" res="1.8038380891084671e-02" rms="2.4651369452476501e-01" purity="8.6718273162841797e-01" nType="0">
        <Node pos="l" depth="1" NCoef="0" IVar="-1" Cut="0.0000000000000000e+00" cType="1" res="1.3003227300941944e-02" rms="2.2635060548782349e-01" purity="9.1627067327499390e-01" nType="1"/>
        <Node pos="r" depth="1" NCoef="0" IVar="9" Cut="1.0829652659595013e-02" cType="1" res="-9.2387326061725616e-02" rms="3.2973316311836243e-01" purity="5.4785573482513428e-01" nType="0">
          <Node pos="l" depth="2" NCoef="0" IVar="-1" Cut="0.0000000000000000e+00" cType="1" res="-9.2008858919143677e-03" rms="3.1376376748085022e-01" purity="7.0759564638137817e-01" nType="1"/>
          <Node pos="r" depth="2" NCoef="0" IVar="-1" Cut="0.0000000000000000e+00" cType="1" res="-4.8014033585786819e-02" rms="3.3271127939224243e-01" purity="3.4254541993141174e-01" nType="-1"/>
        </Node>
      </Node>
    </BinaryTree>
    <BinaryTree type="DecisionTree" boostWeight="1.0000000000000000e+00" itree="45">
      <Node pos="s" depth="0" NCoef="0" IVar="0" Cut="1.9062258303165436e-01" cType="0" res="1.6868693754076958e-02" rms="2.4577246606349945e-01" purity="8.6718273162841797e-01" nType="0">
        <Node pos="l" depth="1" NCoef="0" IVar="-1" Cut="0.0000000000000000e+00" cType="1" res="1.5406163409352303e-02" rms="2.1049445867538452e-01" purity="9.3830651044845581e-01" nType="1"/>
        <Node pos="r" depth="1" NCoef="0" IVar="14" Cut="9.1805112361907959e-01" cType="0" res="-6.7510902881622314e-02" rms="3.4018236398696899e-01" purity="5.8339655399322510e-01" nType="0">
          <Node pos="l" depth="2" NCoef="0" IVar="-1" Cut="0.0000000000000000e+00" cType="1" res="-1.0050119832158089e-02" rms="3.1880617141723633e-01" purity="6.1535990238189697e-01" nType="1"/>
          <Node pos="r" depth="2" NCoef="0" IVar="-1" Cut="0.0000000000000000e+00" cType="1" res="-6.2144655734300613e-02" rms="4.0763092041015625e-01" purity="3.3754271268844604e-01" nType="-1"/>
        </Node>
      </Node>
    </BinaryTree>
    <BinaryTree type="DecisionTree" boostWeight="1.0000000000000000e+00" itree="46">
      <Node pos="s" depth="0" NCoef="0" IVar="15" Cut="-2.4655917659401894e-02" cType="0" res="1.5816375613212585e-02" rms="2.4489973485469818e-01" purity="8.6718273162841797e-01" nType="0">
        <Node pos="l" depth="1" NCoef="0" IVar="-1" Cut="0.0000000000000000e+00" cType="1" res="1.0529260151088238e-02" rms="2.3190028965473175e-01" purity="9.0502989292144775e-01" nType="1"/>
        <Node pos="r" depth="1" NCoef="0" IVar="4" Cut="2.6347418315708637e-03" cType="1" res="-1.2234979867935181e-01" rms="3.3252599835395813e-01" purity="4.3152856826782227e-01" nType="0">
          <Node pos="l" depth="2" NCoef="0" IVar="-1" Cut="0.0000000000000000e+00" cType="1" res="-1.7110362648963928e-02" rms="3.2675752043724060e-01" purity="5.8610856533050537e-01" nType="1"/>
          <Node pos="r" depth="2" NCoef="0" IVar="-1" Cut="0.0000000000000000e+00" cType="1" res="-5.6592155247926712e-02" rms="3.2466042041778564e-01" purity="2.4050152301788330e-01" nType="-1"/>
        </Node>
      </Node>
    </BinaryTree>
    <BinaryTree type="DecisionTree" boostWeight="1.0000000000000000e+00" itree="47">
      <Node pos="s" depth="0" NCoef="0" IVar="7" Cut="9.1943852603435516e-03" cType="1" res="1.4785429462790489e-02" rms="2.4432229995727539e-01" purity="8.6718273162841797e-01" nType="0">
        <Node pos="l" depth="1" NCoef="0" IVar="-1" Cut="0.0000000000000000e+00" cType="1" res="1.3531936332583427e-02" rms="2.1632172167301178e-01" purity="9.0784293413162231e-01" nType="1"/>
        <Node pos="r" depth="1" NCoef="0" IVar="22" Cut="7.3304229974746704e-01" cType="1" res="-6.7948639392852783e-02" rms="3.2497087121009827e-01" purity="6.9575351476669312e-01" nType="0">
          <Node pos="l" depth="2" NCoef="0" IVar="-1" Cut="0.0000000000000000e+00" cType="1" res="-9.9173067137598991e-03" rms="2.9860681295394897e-01" purity="7.6279765367507935e-01" nType="1"/>
          <Node pos="r" depth="2" NCoef="0" IVar="-1" Cut="0.0000000000000000e+00" cType="1" res="-5.4220136255025864e-02" rms="3.7767100334167480e-01" purity="4.5598208904266357e-01" nType="-1"/>
        </Node>
      </Node>
    </BinaryTree>
    <BinaryTree type="DecisionTree" boostWeight="1.0000000000000000e+00" itree="48">
      <Node pos="s" depth="0" NCoef="0" IVar="20" Cut="1.1361616849899292e+00" cType="1" res="1.3776596635580063e-02" rms="2.4354399740695953e-01" purity="8.6718273162841797e-01" nType="0">
        <Node pos="l" depth="1" NCoef="0" IVar="-1" Cut="0.0000000000000000e+00" cType="1" res="9.8109301179647446e-03" rms="2.2777056694030762e-01" purity="9.0203046798706055e-01" nType="1"/>
        <Node pos="r" depth="1" NCoef="0" IVar="20" Cut="2.9227309226989746e+00" cType="1" res="-1.2851616740226746e-01" rms="3.6317133903503418e-01" purity="4.2458662390708923e-01" nType="0">
          <Node pos="l" depth="2" NCoef="0" IVar="-1" Cut="0.0000000000000000e+00" cType="1" res="-2.2397909313440323e-02" rms="3.6223143339157104e-01" purity="5.2078056335449219e-01" nType="1"/>
          <Node pos="r" depth="2" NCoef="0" IVar="-1" Cut="0.0000000000000000e+00" cType="1" res="-5.3143881261348724e-02" rms="3.4773150086402893e-01" purity="1.9113606214523315e-01" nType="-1"/>
        </Node>
      </Node>
    </BinaryTree>
    <BinaryTree type="DecisionTree" boostWeight="1.0000000000000000e+00" itree="49">
      <Node pos="s" depth="0" NCoef="0" IVar="21" Cut="1.0226387977600098e+00" cType="1" res="1.2888489291071892e-02" rms="2.4307316541671753e-01" purity="8.6718273162841797e-01" nType="0">
        <Node pos="l" depth="1" NCoef="0" IVar="-1" Cut="0.0000000000000000e+00" cType="1" res="1.0140573605895042e-02" rms="2.2382937371730804e-01" purity="8.9408397674560547e-01" nType="1"/>
        <Node pos="r" depth="1" NCoef="0" IVar="7" Cut="9.1372774913907051e-03" cType="1" res="-1.0706970840692520e-01" rms="3.5505044460296631e-01" purity="6.1890202760696411e-01" nType="0">
          <Node pos="l" depth="2" NCoef="0" IVar="-1" Cut="0.0000000000000000e+00" cType="1" res="-1.9929300993680954e-02" rms="3.3353701233863831e-01" purity="7.2636181116104126e-01" nType="1"/>
          <Node pos="r" depth="2" NCoef="0" IVar="-1" Cut="0.0000000000000000e+00" cType="1" res="-5.3989071398973465e-02" rms="3.7884229421615601e-01" purity="3.6949381232261658e-01" nType="-1"/>
        </Node>
      </Node>
    </BinaryTree>
    <BinaryTree type="DecisionTree" boostWeight="1.0000000000000000e+00" itree="50">
      <Node pos="s" depth="0" NCoef="0" IVar="19" Cut="3.2754668593406677e-01" cType="1" res="1.2049981392920017e-02" rms="2.4250201880931854e-01" purity="8.6718273162841797e-01" nType="0">
        <Node pos="l" depth="1" NCoef="0" IVar="-1" Cut="0.0000000000000000e+00" cType="1" res="1.0189850814640522e-02" rms="2.2760845720767975e-01" purity="9.2077344655990601e-01" nType="1"/>
        <Node pos="r" depth="1" NCoef="0" IVar="19" Cut="2.0297794342041016e+00" cType="1" res="-1.0287930816411972e-01" rms="3.2388612627983093e-01" purity="4.0163102746009827e-01" nType="0">
          <Node pos="l" depth="2" NCoef="0" IVar="-1" Cut="0.0000000000000000e+00" cType="1" res="-1.4743299223482609e-02" rms="3.5386791825294495e-01" purity="6.9915610551834106e-01" nType="1"/>
          <Node pos="r" depth="2" NCoef="0" IVar="-1" Cut="0.0000000000000000e+00" cType="1" res="-4.1266497224569321e-02" rms="2.8744089603424072e-01" purity="1.3060522079467773e-01" nType="-1"/>
        </Node>
      </Node>
    </BinaryTree>
    <BinaryTree type="DecisionTree" boostWeight="1.0000000000000000e+00" itree="51">
      <Node pos="s" depth="0" NCoef="0" IVar="0" Cut="1.0971618443727493e-01" cType="0" res="1.1297275312244892e-02" rms="2.4204036593437195e-01" purity="8.6718273162841797e-01" nType="0">
        <Node pos="l" depth="1" NCoef="0" IVar="-1" Cut="0.0000000000000000e+00" cType="1" res="1.0852427221834660e-02" rms="2.2094772756099701e-01" purity="9.2400020360946655e-01" nType="1"/>
        <Node pos="r" depth="1" NCoef="0" IVar="14" Cut="9.3444812297821045e-01" cType="0" res="-9.0520232915878296e-02" rms="3.4002536535263062e-01" purity="4.6648758649826050e-01" nType="0">
          <Node pos="l" depth="2" NCoef="0" IVar="-1" Cut="0.0000000000000000e+00" cType="1" res="-1.6391132026910782e-02" rms="3.2153153419494629e-01" purity="4.9492123723030090e-01" nType="-1"/>
          <Node pos="r" depth="2" NCoef="0" IVar="-1" Cut="0.0000000000000000e+00" cType="1" res="-5.3935807198286057e-02" rms="3.9467269182205200e-01" purity="2.7813294529914856e-01" nType="-1"/>
        </Node>
      </Node>
    </BinaryTree>
    <BinaryTree type="DecisionTree" boostWeight="1.0000000000000000e+00" itree="52">
      <Node pos="s" depth="0" NCoef="0" IVar="15" Cut="-1.1692272499203682e-02" cType="0" res="1.0594198480248451e-02" rms="2.4148511886596680e-01" purity="8.6718273162841797e-01" nType="0">
        <Node pos="l" depth="1" NCoef="0" IVar="-1" Cut="0.0000000000000000e+00" cType="1" res="1.0559961199760437e-02" rms="2.2257503867149353e-01" purity="9.1717243194580078e-01" nType="1"/>
        <Node pos="r" depth="1" NCoef="0" IVar="9" Cut="1.2040808796882629e-02" cType="1" res="-8.0858588218688965e-02" rms="3.1948894262313843e-01" purity="5.6245207786560059e-01" nType="0">
          <Node pos="l" depth="2" NCoef="0" IVar="-1" Cut="0.0000000000000000e+00" cType="1" res="-1.5754986554384232e-02" rms="3.1440672278404236e-01" purity="6.5181958675384521e-01" nType="1"/>
          <Node pos="r" depth="2" NCoef="0" IVar="-1" Cut="0.0000000000000000e+00" cType="1" res="-6.2423456460237503e-02" rms="3.0870822072029114e-01" purity="1.7507986724376678e-01" nType="-1"/>
        </Node>
      </Node>
    </BinaryTree>
    <BinaryTree type="DecisionTree" boostWeight="1.0000000000000000e+00" itree="53">
      <Node pos="s" depth="0" NCoef="0" IVar="20" Cut="7.3516345024108887e-01" cType="1" res="9.9299540743231773e-03" rms="2.4084858596324921e-01" purity="8.6718273162841797e-01" nType="0">
        <Node pos="l" depth="1" NCoef="0" IVar="-1" Cut="0.0000000000000000e+00" cType="1" res="9.4479294493794441e-03" rms="2.2147771716117859e-01" purity="9.0722817182540894e-01" nType="1"/>
        <Node pos="r" depth="1" NCoef="0" IVar="25" Cut="7.9932659864425659e-01" cType="1" res="-9.7696371376514435e-02" rms="3.4932631254196167e-01" purity="5.2308851480484009e-01" nType="0">
          <Node pos="l" depth="2" NCoef="0" IVar="-1" Cut="0.0000000000000000e+00" cType="1" res="-1.6544831916689873e-02" rms="3.4318289160728455e-01" purity="6.1816442012786865e-01" nType="1"/>
          <Node pos="r" depth="2" NCoef="0" IVar="-1" Cut="0.0000000000000000e+00" cType="1" res="-5.4445922374725342e-02" rms="3.4807732701301575e-01" purity="2.6917362213134766e-01" nType="-1"/>
        </Node>
      </Node>
    </BinaryTree>
    <BinaryTree type="DecisionTree" boostWeight="1.0000000000000000e+00" itree="54">
      <Node pos="s" depth="0" NCoef="0" IVar="13" Cut="2.7216624468564987e-02" cType="1" res="9.3025229871273041e-03" rms="2.4033656716346741e-01" purity="8.6718273162841797e-01" nType="0">
        <Node pos="l" depth="1" NCoef="0" IVar="-1" Cut="0.0000000000000000e+00" cType="1" res="8.7676579132676125e-03" rms="2.2674134373664856e-01" purity="8.9562880992889404e-01" nType="1"/>
        <Node pos="r" depth="1" NCoef="0" IVar="8" Cut="1.1757045052945614e-02" cType="0" res="-1.0021995007991791e-01" rms="3.1949272751808167e-01" purity="6.0901510715484619e-01" nType="0">
          <Node pos="l" depth="2" NCoef="0" IVar="-1" Cut="0.0000000000000000e+00" cType="1" res="-1.8755042925477028e-02" rms="2.8538143634796143e-01" purity="6.9693511724472046e-01" nType="1"/>
          <Node pos="r" depth="2" NCoef="0" IVar="-1" Cut="0.0000000000000000e+00" cType="1" res="-6.8098872900009155e-02" rms="3.6861193180084229e-01" purity="3.2408833503723145e-01" nType="-1"/>
        </Node>
      </Node>
    </BinaryTree>
    <BinaryTree type="DecisionTree" boostWeight="1.0000000000000000e+00" itree="55">
      <Node pos="s" depth="0" NCoef="0" IVar="21" Cut="1.5640358924865723e+00" cType="1" res="8.6969062685966492e-03" rms="2.3966017365455627e-01" purity="8.6718273162841797e-01" nType="0">
        <Node pos="l" depth="1" NCoef="0" IVar="-1" Cut="0.0000000000000000e+00" cType="1" res="7.2779245674610138e-03" rms="2.2645568847656250e-01" purity="8.8675987720489502e-01" nType="1"/>
        <Node pos="r" depth="1" NCoef="0" IVar="8" Cut="1.0773734189569950e-02" cType="0" res="-1.3736858963966370e-01" rms="3.6902099847793579e-01" purity="5.4474568367004395e-01" nType="0">
          <Node pos="l" depth="2" NCoef="0" IVar="-1" Cut="0.0000000000000000e+00" cType="1" res="-3.3226925879716873e-02" rms="3.6037141084671021e-01" purity="5.9977757930755615e-01" nType="1"/>
          <Node pos="r" depth="2" NCoef="0" IVar="-1" Cut="0.0000000000000000e+00" cType="1" res="-6.8062424659729004e-02" rms="3.7449029088020325e-01" purity="2.4673956632614136e-01" nType="-1"/>
        </Node>
      </Node>
    </BinaryTree>
    <BinaryTree type="DecisionTree" boostWeight="1.0000000000000000e+00" itree="56">
      <Node pos="s" depth="0" NCoef="0" IVar="7" Cut="9.2800473794341087e-03" cType="1" res="8.1474138423800468e-03" rms="2.3921547830104828e-01" purity="8.6718273162841797e-01" nType="0">
        <Node pos="l" depth="1" NCoef="0" IVar="-1" Cut="0.0000000000000000e+00" cType="1" res="1.0090010240674019e-02" rms="2.1700491011142731e-01" purity="9.0339529514312744e-01" nType="1"/>
        <Node pos="r" depth="1" NCoef="0" IVar="22" Cut="1.3194761276245117e+00" cType="1" res="-7.3298886418342590e-02" rms="3.2181647419929504e-01" purity="6.7343103885650635e-01" nType="0">
          <Node pos="l" depth="2" NCoef="0" IVar="-1" Cut="0.0000000000000000e+00" cType="1" res="-1.5787022188305855e-02" rms="3.0528685450553894e-01" purity="7.2364836931228638e-01" nType="1"/>
          <Node pos="r" depth="2" NCoef="0" IVar="-1" Cut="0.0000000000000000e+00" cType="1" res="-6.0294132679700851e-02" rms="3.7637543678283691e-01" purity="3.5267856717109680e-01" nType="-1"/>
        </Node>
      </Node>
    </BinaryTree>
    <BinaryTree type="DecisionTree" boostWeight="1.0000000000000000e+00" itree="57">
      <Node pos="s" depth="0" NCoef="0" IVar="0" Cut="1.9062258303165436e-01" cType="0" res="7.5827850960195065e-03" rms="2.3862199485301971e-01" purity="8.6718273162841797e-01" nType="0">
        <Node pos="l" depth="1" NCoef="0" IVar="-1" Cut="0.0000000000000000e+00" cType="1" res="1.1722072958946228e-02" rms="2.0709913969039917e-01" purity="9.3830651044845581e-01" nType="1"/>
        <Node pos="r" depth="1" NCoef="0" IVar="4" Cut="1.9694096408784389e-03" cType="1" res="-6.1599794775247574e-02" rms="3.2713332772254944e-01" purity="5.8339655399322510e-01" nType="0">
          <Node pos="l" depth="2" NCoef="0" IVar="-1" Cut="0.0000000000000000e+00" cType="1" res="-2.8940597549080849e-03" rms="3.1019440293312073e-01" purity="7.4514198303222656e-01" nType="1"/>
          <Node pos="r" depth="2" NCoef="0" IVar="-1" Cut="0.0000000000000000e+00" cType="1" res="-4.3272990733385086e-02" rms="3.3635494112968445e-01" purity="2.7114257216453552e-01" nType="-1"/>
        </Node>
      </Node>
    </BinaryTree>
    <BinaryTree type="DecisionTree" boostWeight="1.0000000000000000e+00" itree="58">
      <Node pos="s" depth="0" NCoef="0" IVar="19" Cut="3.2754668593406677e-01" cType="1" res="7.1674757637083530e-03" rms="2.3787073791027069e-01" purity="8.6718273162841797e-01" nType="0">
        <Node pos="l" depth="1" NCoef="0" IVar="-1" Cut="0.0000000000000000e+00" cType="1" res="8.2264384254813194e-03" rms="2.2385007143020630e-01" purity="9.2077344655990601e-01" nType="1"/>
        <Node pos="r" depth="1" NCoef="0" IVar="9" Cut="1.0244185104966164e-02" cType="1" res="-9.3939259648323059e-02" rms="3.1846615672111511e-01" purity="4.0163102746009827e-01" nType="0">
          <Node pos="l" depth="2" NCoef="0" IVar="-1" Cut="0.0000000000000000e+00" cType="1" res="-1.2958586215972900e-02" rms="3.3829140663146973e-01" purity="5.8934742212295532e-01" nType="1"/>
          <Node pos="r" depth="2" NCoef="0" IVar="-1" Cut="0.0000000000000000e+00" cType="1" res="-3.9178419858217239e-02" rms="2.9860559105873108e-01" purity="2.6284697651863098e-01" nType="-1"/>
        </Node>
      </Node>
    </BinaryTree>
    <BinaryTree type="DecisionTree" boostWeight="1.0000000000000000e+00" itree="59">
      <Node pos="s" depth="0" NCoef="0" IVar="9" Cut="1.2214339338243008e-02" cType="1" res="6.7343888804316521e-03" rms="2.3746059834957123e-01" purity="8.6718273162841797e-01" nType="0">
        <Node pos="l" depth="1" NCoef="0" IVar="-1" Cut="0.0000000000000000e+00" cType="1" res="6.7609199322760105e-03" rms="2.2739818692207336e-01" purity="8.9042413234710693e-01" nType="1"/>
        <Node pos="r" depth="1" NCoef="0" IVar="15" Cut="-4.8691858537495136e-03" cType="0" res="-1.1702043563127518e-01" rms="3.2162323594093323e-01" purity="5.5168598890304565e-01" nType="0">
          <Node pos="l" depth="2" NCoef="0" IVar="-1" Cut="0.0000000000000000e+00" cType="1" res="-2.0537648350000381e-02" rms="3.1082540750503540e-01" purity="7.9183942079544067e-01" nType="1"/>
          <Node pos="r" depth="2" NCoef="0" IVar="-1" Cut="0.0000000000000000e+00" cType="1" res="-6.1018921434879303e-02" rms="3.1859335303306580e-01" purity="2.4873340129852295e-01" nType="-1"/>
        </Node>
      </Node>
    </BinaryTree>
    <BinaryTree type="DecisionTree" boostWeight="1.0000000000000000e+00" itree="60">
      <Node pos="s" depth="0" NCoef="0" IVar="20" Cut="1.7265201807022095e+00" cType="1" res="6.2936930917203426e-03" rms="2.3694589734077454e-01" purity="8.6718273162841797e-01" nType="0">
        <Node pos="l" depth="1" NCoef="0" IVar="-1" Cut="0.0000000000000000e+00" cType="1" res="5.9999558143317699e-03" rms="2.2699852287769318e-01" purity="8.9465278387069702e-01" nType="1"/>
        <Node pos="r" depth="1" NCoef="0" IVar="19" Cut="1.3437258005142212e+00" cType="1" res="-1.4296217262744904e-01" rms="3.5400551557540894e-01" purity="3.1621167063713074e-01" nType="0">
          <Node pos="l" depth="2" NCoef="0" IVar="-1" Cut="0.0000000000000000e+00" cType="1" res="-3.7237953394651413e-02" rms="3.9596694707870483e-01" purity="4.3007284402847290e-01" nType="-1"/>
          <Node pos="r" depth="2" NCoef="0" IVar="-1" Cut="0.0000000000000000e+00" cType="1" res="-2.9757469892501831e-02" rms="2.0419219136238098e-01" purity="5.1788453012704849e-02" nType="-1"/>
        </Node>
      </Node>
    </BinaryTree>
    <BinaryTree type="DecisionTree" boostWeight="1.0000000000000000e+00" itree="61">
      <Node pos="s" depth="0" NCoef="0" IVar="21" Cut="8.3548921346664429e-01" cType="1" res="5.8994013816118240e-03" rms="2.3664818704128265e-01" purity="8.6718273162841797e-01" nType="0">
        <Node pos="l" depth="1" NCoef="0" IVar="-1" Cut="0.0000000000000000e+00" cType="1" res="7.9873669892549515e-03" rms="2.1702872216701508e-01" purity="8.9665520191192627e-01" nType="1"/>
        <Node pos="r" depth="1" NCoef="0" IVar="8" Cut="1.0903078131377697e-02" cType="0" res="-8.3809524774551392e-02" rms="3.3564886450767517e-01" purity="6.4932650327682495e-01" nType="0">
          <Node pos="l" depth="2" NCoef="0" IVar="-1" Cut="0.0000000000000000e+00" cType="1" res="-2.0506123080849648e-02" rms="3.2226511836051941e-01" purity="6.9950878620147705e-01" nType="1"/>
          <Node pos="r" depth="2" NCoef="0" IVar="-1" Cut="0.0000000000000000e+00" cType="1" res="-5.8870024979114532e-02" rms="3.7566462159156799e-01" purity="3.5513094067573547e-01" nType="-1"/>
        </Node>
      </Node>
    </BinaryTree>
    <BinaryTree type="DecisionTree" boostWeight="1.0000000000000000e+00" itree="62">
      <Node pos="s" depth="0" NCoef="0" IVar="22" Cut="8.7871938943862915e-01" cType="1" res="5.5547566153109074e-03" rms="2.3615704476833344e-01" purity="8.6718273162841797e-01" nType="0">
        <Node pos="l" depth="1" NCoef="0" IVar="-1" Cut="0.0000000000000000e+00" cType="1" res="8.6383428424596786e-03" rms="2.1491821110248566e-01" purity="8.9712750911712646e-01" nType="1"/>
        <Node pos="r" depth="1" NCoef="0" IVar="8" Cut="1.1025778949260712e-02" cType="0" res="-7.1097455918788910e-02" rms="3.1910413503646851e-01" purity="7.0153832435607910e-01" nType="0">
          <Node pos="l" depth="2" NCoef="0" IVar="-1" Cut="0.0000000000000000e+00" cType="1" res="-1.6809621825814247e-02" rms="2.9986983537673950e-01" purity="7.5237476825714111e-01" nType="1"/>
          <Node pos="r" depth="2" NCoef="0" IVar="-1" Cut="0.0000000000000000e+00" cType="1" res="-5.8873396366834641e-02" rms="3.7899962067604065e-01" purity="4.2041128873825073e-01" nType="-1"/>
        </Node>
      </Node>
    </BinaryTree>
    <BinaryTree type="DecisionTree" boostWeight="1.0000000000000000e+00" itree="63">
      <Node pos="s" depth="0" NCoef="0" IVar="15" Cut="-1.0869183577597141e-02" cType="0" res="5.2206423133611679e-03" rms="2.3559477925300598e-01" purity="8.6718273162841797e-01" nType="0">
        <Node pos="l" depth="1" NCoef="0" IVar="-1" Cut="0.0000000000000000e+00" cType="1" res="8.4816962480545044e-03" rms="2.1781852841377258e-01" purity="9.1788113117218018e-01" nType="1"/>
        <Node pos="r" depth="1" NCoef="0" IVar="4" Cut="2.7396522928029299e-03" cType="1" res="-7.2400115430355072e-02" rms="3.0829885601997375e-01" purity="5.7399857044219971e-01" nType="0">
          <Node pos="l" depth="2" NCoef="0" IVar="-1" Cut="0.0000000000000000e+00" cType="1" res="-1.0010387748479843e-02" rms="2.9473111033439636e-01" purity="6.9960838556289673e-01" nType="1"/>
          <Node pos="r" depth="2" NCoef="0" IVar="-1" Cut="0.0000000000000000e+00" cType="1" res="-4.5379955321550369e-02" rms="3.1748956441879272e-01" purity="3.7290713191032410e-01" nType="-1"/>
        </Node>
      </Node>
    </BinaryTree>
    <BinaryTree type="DecisionTree" boostWeight="1.0000000000000000e+00" itree="64">
      <Node pos="s" depth="0" NCoef="0" IVar="13" Cut="2.4458993226289749e-02" cType="1" res="4.9141179770231247e-03" rms="2.3504295945167542e-01" purity="8.6718273162841797e-01" nType="0">
        <Node pos="l" depth="1" NCoef="0" IVar="-1" Cut="0.0000000000000000e+00" cType="1" res="7.2211162187159061e-03" rms="2.2187393903732300e-01" purity="8.9747315645217896e-01" nType="1"/>
        <Node pos="r" depth="1" NCoef="0" IVar="8" Cut="1.2069762684404850e-02" cType="0" res="-8.4644973278045654e-02" rms="3.0687507987022400e-01" purity="6.2577939033508301e-01" nType="0">
          <Node pos="l" depth="2" NCoef="0" IVar="-1" Cut="0.0000000000000000e+00" cType="1" res="-1.5592411160469055e-02" rms="2.7396380901336670e-01" purity="7.1831619739532471e-01" nType="1"/>
          <Node pos="r" depth="2" NCoef="0" IVar="-1" Cut="0.0000000000000000e+00" cType="1" res="-5.8539640158414841e-02" rms="3.5736423730850220e-01" purity="3.5108765959739685e-01" nType="-1"/>
        </Node>
      </Node>
    </BinaryTree>
    <BinaryTree type="DecisionTree" boostWeight="1.0000000000000000e+00" itree="65">
      <Node pos="s" depth="0" NCoef="0" IVar="7" Cut="9.3942629173398018e-03" cType="1" res="4.6011693775653839e-03" rms="2.3445756733417511e-01" purity="8.6718273162841797e-01" nType="0">
        <Node pos="l" depth="1" NCoef="0" IVar="-1" Cut="0.0000000000000000e+00" cType="1" res="7.3241638019680977e-03" rms="2.1820500493049622e-01" purity="8.9748829603195190e-01" nType="1"/>
        <Node pos="r" depth="1" NCoef="0" IVar="22" Cut="6.0272365808486938e-01" cType="1" res="-7.9389519989490509e-02" rms="3.1849336624145508e-01" purity="6.4278304576873779e-01" nType="0">
          <Node pos="l" depth="2" NCoef="0" IVar="-1" Cut="0.0000000000000000e+00" cType="1" res="-1.6057983040809631e-02" rms="2.9873412847518921e-01" purity="7.2294723987579346e-01" nType="1"/>
          <Node pos="r" depth="2" NCoef="0" IVar="-1" Cut="0.0000000000000000e+00" cType="1" res="-4.5991338789463043e-02" rms="3.5335320234298706e-01" purity="4.1711354255676270e-01" nType="-1"/>
        </Node>
      </Node>
    </BinaryTree>
    <BinaryTree type="DecisionTree" boostWeight="1.0000000000000000e+00" itree="66">
      <Node pos="s" depth="0" NCoef="0" IVar="20" Cut="6.1263620853424072e-01" cType="1" res="4.2794039472937584e-03" rms="2.3401257395744324e-01" purity="8.6718273162841797e-01" nType="0">
        <Node pos="l" depth="1" NCoef="0" IVar="-1" Cut="0.0000000000000000e+00" cType="1" res="7.2628399357199669e-03" rms="2.1500214934349060e-01" purity="9.0865945816040039e-01" nType="1"/>
        <Node pos="r" depth="1" NCoef="0" IVar="25" Cut="5.5952858924865723e-01" cType="1" res="-7.9503938555717468e-02" rms="3.3283472061157227e-01" purity="5.5633288621902466e-01" nType="0">
          <Node pos="l" depth="2" NCoef="0" IVar="-1" Cut="0.0000000000000000e+00" cType="1" res="-1.3526024296879768e-02" rms="3.2624793052673340e-01" purity="6.6081470251083374e-01" nType="1"/>
          <Node pos="r" depth="2" NCoef="0" IVar="-1" Cut="0.0000000000000000e+00" cType="1" res="-4.4262427836656570e-02" rms="3.3581361174583435e-01" purity="3.3550992608070374e-01" nType="-1"/>
        </Node>
      </Node>
    </BinaryTree>
    <BinaryTree type="DecisionTree" boostWeight="1.0000000000000000e+00" itree="67">
      <Node pos="s" depth="0" NCoef="0" IVar="0" Cut="1.9062258303165436e-01" cType="0" res="4.0306653827428818e-03" rms="2.3359999060630798e-01" purity="8.6718273162841797e-01" nType="0">
        <Node pos="l" depth="1" NCoef="0" IVar="-1" Cut="0.0000000000000000e+00" cType="1" res="9.7850663587450981e-03" rms="2.0431199669837952e-01" purity="9.3830651044845581e-01" nType="1"/>
        <Node pos="r" depth="1" NCoef="0" IVar="14" Cut="9.3366885185241699e-01" cType="0" res="-5.6228648871183395e-02" rms="3.1812277436256409e-01" purity="5.8339655399322510e-01" nType="0">
          <Node pos="l" depth="2" NCoef="0" IVar="-1" Cut="0.0000000000000000e+00" cType="1" res="-8.5315266624093056e-03" rms="2.9582467675209045e-01" purity="6.1706531047821045e-01" nType="1"/>
          <Node pos="r" depth="2" NCoef="0" IVar="-1" Cut="0.0000000000000000e+00" cType="1" res="-4.9599789083003998e-02" rms="3.8842725753784180e-01" purity="3.8262739777565002e-01" nType="-1"/>
        </Node>
      </Node>
    </BinaryTree>
    <BinaryTree type="DecisionTree" boostWeight="1.0000000000000000e+00" itree="68">
      <Node pos="s" depth="0" NCoef="0" IVar="15" Cut="-2.4655917659401894e-02" cType="0" res="3.8255928084254265e-03" rms="2.3300240933895111e-01" purity="8.6718273162841797e-01" nType="0">
        <Node pos="l" depth="1" NCoef="0" IVar="-1" Cut="0.0000000000000000e+00" cType="1" res="5.8649946004152298e-03" rms="2.2245405614376068e-01" purity="9.0502989292144775e-01" nType="1"/>
        <Node pos="r" depth="1" NCoef="0" IVar="9" Cut="9.6779614686965942e-03" cType="1" res="-9.8053246736526489e-02" rms="3.1354576349258423e-01" purity="4.3152856826782227e-01" nType="0">
          <Node pos="l" depth="2" NCoef="0" IVar="-1" Cut="0.0000000000000000e+00" cType="1" res="-4.9665779806673527e-03" rms="3.0484583973884583e-01" purity="6.9544178247451782e-01" nType="1"/>
          <Node pos="r" depth="2" NCoef="0" IVar="-1" Cut="0.0000000000000000e+00" cType="1" res="-4.0286555886268616e-02" rms="3.1112566590309143e-01" purity="3.2885915040969849e-01" nType="-1"/>
        </Node>
      </Node>
    </BinaryTree>
    <BinaryTree type="DecisionTree" boostWeight="1.0000000000000000e+00" itree="69">
      <Node pos="s" depth="0" NCoef="0" IVar="19" Cut="3.2754668593406677e-01" cType="1" res="3.5966932773590088e-03" rms="2.3259598016738892e-01" purity="8.6718273162841797e-01" nType="0">
        <Node pos="l" depth="1" NCoef="0" IVar="-1" Cut="0.0000000000000000e+00" cType="1" res="6.4546121284365654e-03" rms="2.1949480473995209e-01" purity="9.2077344655990601e-01" nType="1"/>
        <Node pos="r" depth="1" NCoef="0" IVar="9" Cut="6.1474149115383625e-03" cType="1" res="-8.3603084087371826e-02" rms="3.1156891584396362e-01" purity="4.0163102746009827e-01" nType="0">
          <Node pos="l" depth="2" NCoef="0" IVar="-1" Cut="0.0000000000000000e+00" cType="1" res="4.5455329120159149e-02" rms="2.0468708872795105e-01" purity="9.4737553596496582e-01" nType="1"/>
          <Node pos="r" depth="2" NCoef="0" IVar="-1" Cut="0.0000000000000000e+00" cType="1" res="-2.6920923963189125e-02" rms="3.1095683574676514e-01" purity="3.9263844490051270e-01" nType="-1"/>
        </Node>
      </Node>
    </BinaryTree>
    <BinaryTree type="DecisionTree" boostWeight="1.0000000000000000e+00" itree="70">
      <Node pos="s" depth="0" NCoef="0" IVar="9" Cut="1.2214339338243008e-02" cType="1" res="3.3951527439057827e-03" rms="2.3226927220821381e-01" purity="8.6718273162841797e-01" nType="0">
        <Node pos="l" depth="1" NCoef="0" IVar="-1" Cut="0.0000000000000000e+00" cType="1" res="5.1891445182263851e-03" rms="2.2342815995216370e-01" purity="8.9042413234710693e-01" nType="1"/>
        <Node pos="r" depth="1" NCoef="0" IVar="15" Cut="-4.8691858537495136e-03" cType="0" res="-1.0363371670246124e-01" rms="3.1038850545883179e-01" purity="5.5168598890304565e-01" nType="0">
          <Node pos="l" depth="2" NCoef="0" IVar="-1" Cut="0.0000000000000000e+00" cType="1" res="-2.0353453233838081e-02" rms="3.0376812815666199e-01" purity="7.9183942079544067e-01" nType="1"/>
          <Node pos="r" depth="2" NCoef="0" IVar="-1" Cut="0.0000000000000000e+00" cType="1" res="-5.4572239518165588e-02" rms="3.0725395679473877e-01" purity="2.4873340129852295e-01" nType="-1"/>
        </Node>
      </Node>
    </BinaryTree>
    <BinaryTree type="DecisionTree" boostWeight="1.0000000000000000e+00" itree="71">
      <Node pos="s" depth="0" NCoef="0" IVar="8" Cut="1.0580108501017094e-02" cType="0" res="3.1778193078935146e-03" rms="2.3185324668884277e-01" purity="8.6718273162841797e-01" nType="0">
        <Node pos="l" depth="1" NCoef="0" IVar="-1" Cut="0.0000000000000000e+00" cType="1" res="5.4873400367796421e-03" rms="2.1862511336803436e-01" purity="8.8684177398681641e-01" nType="1"/>
        <Node pos="r" depth="1" NCoef="0" IVar="4" Cut="2.3470732849091291e-03" cType="1" res="-9.5755413174629211e-02" rms="3.3460032939910889e-01" purity="6.4008671045303345e-01" nType="0">
          <Node pos="l" depth="2" NCoef="0" IVar="-1" Cut="0.0000000000000000e+00" cType="1" res="-1.6736343502998352e-02" rms="3.1296393275260925e-01" purity="7.5329023599624634e-01" nType="1"/>
          <Node pos="r" depth="2" NCoef="0" IVar="-1" Cut="0.0000000000000000e+00" cType="1" res="-6.7040733993053436e-02" rms="3.5518568754196167e-01" purity="3.2465562224388123e-01" nType="-1"/>
        </Node>
      </Node>
    </BinaryTree>
    <BinaryTree type="DecisionTree" boostWeight="1.0000000000000000e+00" itree="72">
      <Node pos="s" depth="0" NCoef="0" IVar="21" Cut="1.5640358924865723e+00" cType="1" res="3.0331511516124010e-03" rms="2.3131522536277771e-01" purity="8.6718273162841797e-01" nType="0">
        <Node pos="l" depth="1" NCoef="0" IVar="-1" Cut="0.0000000000000000e+00" cType="1" res="4.7528264112770557e-03" rms="2.1972450613975525e-01" purity="8.8675987720489502e-01" nType="1"/>
        <Node pos="r" depth="1" NCoef="0" IVar="15" Cut="-5.5993990972638130e-03" cType="0" res="-1.1377730965614319e-01" rms="3.5374689102172852e-01" purity="5.4474568367004395e-01" nType="0">
          <Node pos="l" depth="2" NCoef="0" IVar="-1" Cut="0.0000000000000000e+00" cType="1" res="-2.3471323773264885e-02" rms="3.5193490982055664e-01" purity="6.9388103485107422e-01" nType="1"/>
          <Node pos="r" depth="2" NCoef="0" IVar="-1" Cut="0.0000000000000000e+00" cType="1" res="-5.5772833526134491e-02" rms="3.4700125455856323e-01" purity="2.5993204116821289e-01" nType="-1"/>
        </Node>
      </Node>
    </BinaryTree>
    <BinaryTree type="DecisionTree" boostWeight="1.0000000000000000e+00" itree="73">
      <Node pos="s" depth="0" NCoef="0" IVar="22" Cut="1.2515094280242920e+00" cType="1" res="2.8634401969611645e-03" rms="2.3096789419651031e-01" purity="8.6718273162841797e-01" nType="0">
        <Node pos="l" depth="1" NCoef="0" IVar="-1" Cut="0.0000000000000000e+00" cType="1" res="5.9827459044754505e-03" rms="2.1526369452476501e-01" purity="8.9124733209609985e-01" nType="1"/>
        <Node pos="r" depth="1" NCoef="0" IVar="8" Cut="1.1205633170902729e-02" cType="0" res="-7.9860366880893707e-02" rms="3.2417356967926025e-01" purity="6.6322588920593262e-01" nType="0">
          <Node pos="l" depth="2" NCoef="0" IVar="-1" Cut="0.0000000000000000e+00" cType="1" res="-2.0529467612504959e-02" rms="3.0840671062469482e-01" purity="7.2184240818023682e-01" nType="1"/>
          <Node pos="r" depth="2" NCoef="0" IVar="-1" Cut="0.0000000000000000e+00" cType="1" res="-5.4463375359773636e-02" rms="3.6834910511970520e-01" purity="3.8560035824775696e-01" nType="-1"/>
        </Node>
      </Node>
    </BinaryTree>
    <BinaryTree type="DecisionTree" boostWeight="1.0000000000000000e+00" itree="74">
      <Node pos="s" depth="0" NCoef="0" IVar="25" Cut="9.1123229265213013e-01" cType="1" res="2.7082066517323256e-03" rms="2.3056675493717194e-01" purity="8.6718273162841797e-01" nType="0">
        <Node pos="l" depth="1" NCoef="0" IVar="-1" Cut="0.0000000000000000e+00" cType="1" res="6.2274173833429813e-03" rms="2.1734496951103210e-01" purity="8.9810746908187866e-01" nType="1"/>
        <Node pos="r" depth="1" NCoef="0" IVar="21" Cut="5.8818441629409790e-01" cType="1" res="-7.1456044912338257e-02" rms="2.9701259732246399e-01" purity="6.5129268169403076e-01" nType="0">
          <Node pos="l" depth="2" NCoef="0" IVar="-1" Cut="0.0000000000000000e+00" cType="1" res="-2.0685834810137749e-02" rms="2.7931314706802368e-01" purity="7.2892677783966064e-01" nType="1"/>
          <Node pos="r" depth="2" NCoef="0" IVar="-1" Cut="0.0000000000000000e+00" cType="1" res="-5.0843138247728348e-02" rms="3.3669635653495789e-01" purity="3.9786121249198914e-01" nType="-1"/>
        </Node>
      </Node>
    </BinaryTree>
    <BinaryTree type="DecisionTree" boostWeight="1.0000000000000000e+00" itree="75">
      <Node pos="s" depth="0" NCoef="0" IVar="13" Cut="2.1101875230669975e-02" cType="1" res="2.5664097629487514e-03" rms="2.3013621568679810e-01" purity="8.6718273162841797e-01" nType="0">
        <Node pos="l" depth="1" NCoef="0" IVar="-1" Cut="0.0000000000000000e+00" cType="1" res="6.3880230300128460e-03" rms="2.1667955815792084e-01" purity="8.9980310201644897e-01" nType="1"/>
        <Node pos="r" depth="1" NCoef="0" IVar="8" Cut="1.2090610340237617e-02" cType="0" res="-6.8979449570178986e-02" rms="2.9515898227691650e-01" purity="6.4993488788604736e-01" nType="0">
          <Node pos="l" depth="2" NCoef="0" IVar="-1" Cut="0.0000000000000000e+00" cType="1" res="-1.3490254059433937e-02" rms="2.6593399047851562e-01" purity="7.3742932081222534e-01" nType="1"/>
          <Node pos="r" depth="2" NCoef="0" IVar="-1" Cut="0.0000000000000000e+00" cType="1" res="-4.9635838717222214e-02" rms="3.4845343232154846e-01" purity="3.8079389929771423e-01" nType="-1"/>
        </Node>
      </Node>
    </BinaryTree>
    <BinaryTree type="DecisionTree" boostWeight="1.0000000000000000e+00" itree="76">
      <Node pos="s" depth="0" NCoef="0" IVar="15" Cut="-1.0869183577597141e-02" cType="0" res="2.4066523183137178e-03" rms="2.2964824736118317e-01" purity="8.6718273162841797e-01" nType="0">
        <Node pos="l" depth="1" NCoef="0" IVar="-1" Cut="0.0000000000000000e+00" cType="1" res="6.7648901604115963e-03" rms="2.1343846619129181e-01" purity="9.1788113117218018e-01" nType="1"/>
        <Node pos="r" depth="1" NCoef="0" IVar="4" Cut="3.2781925983726978e-03" cType="1" res="-6.2829606235027313e-02" rms="2.9879981279373169e-01" purity="5.7399857044219971e-01" nType="0">
          <Node pos="l" depth="2" NCoef="0" IVar="-1" Cut="0.0000000000000000e+00" cType="1" res="-1.0976566933095455e-02" rms="2.8963235020637512e-01" purity="6.8025285005569458e-01" nType="1"/>
          <Node pos="r" depth="2" NCoef="0" IVar="-1" Cut="0.0000000000000000e+00" cType="1" res="-4.3908905237913132e-02" rms="3.0740231275558472e-01" purity="3.3940842747688293e-01" nType="-1"/>
        </Node>
      </Node>
    </BinaryTree>
    <BinaryTree type="DecisionTree" boostWeight="1.0000000000000000e+00" itree="77">
      <Node pos="s" depth="0" NCoef="0" IVar="20" Cut="2.0272688865661621e+00" cType="1" res="2.2788187488913536e-03" rms="2.2921665012836456e-01" purity="8.6718273162841797e-01" nType="0">
        <Node pos="l" depth="1" NCoef="0" IVar="-1" Cut="0.0000000000000000e+00" cType="1" res="3.6585580091923475e-03" rms="2.2220283746719360e-01" purity="8.9056038856506348e-01" nType="1"/>
        <Node pos="r" depth="1" NCoef="0" IVar="19" Cut="1.4098106622695923e+00" cType="1" res="-1.3328923285007477e-01" rms="3.3729964494705200e-01" purity="2.7403298020362854e-01" nType="0">
          <Node pos="l" depth="2" NCoef="0" IVar="-1" Cut="0.0000000000000000e+00" cType="1" res="-3.6752719432115555e-02" rms="3.8259455561637878e-01" purity="3.8097068667411804e-01" nType="-1"/>
          <Node pos="r" depth="2" NCoef="0" IVar="-1" Cut="0.0000000000000000e+00" cType="1" res="-2.8099978342652321e-02" rms="1.7851349711418152e-01" purity="4.2860660701990128e-02" nType="-1"/>
        </Node>
      </Node>
    </BinaryTree>
    <BinaryTree type="DecisionTree" boostWeight="1.0000000000000000e+00" itree="78">
      <Node pos="s" depth="0" NCoef="0" IVar="7" Cut="9.1801080852746964e-03" cType="1" res="2.1479576826095581e-03" rms="2.2899448871612549e-01" purity="8.6718273162841797e-01" nType="0">
        <Node pos="l" depth="1" NCoef="0" IVar="-1" Cut="0.0000000000000000e+00" cType="1" res="7.8985560685396194e-03" rms="2.0619185268878937e-01" purity="9.0860867500305176e-01" nType="1"/>
        <Node pos="r" depth="1" NCoef="0" IVar="4" Cut="2.4685557000339031e-03" cType="1" res="-5.1373969763517380e-02" rms="2.9826214909553528e-01" purity="6.9980138540267944e-01" nType="0">
          <Node pos="l" depth="2" NCoef="0" IVar="-1" Cut="0.0000000000000000e+00" cType="1" res="-8.1167323514819145e-03" rms="2.8432175517082214e-01" purity="7.8966790437698364e-01" nType="1"/>
          <Node pos="r" depth="2" NCoef="0" IVar="-1" Cut="0.0000000000000000e+00" cType="1" res="-4.0882468223571777e-02" rms="3.2004895806312561e-01" purity="4.7163382172584534e-01" nType="-1"/>
        </Node>
      </Node>
    </BinaryTree>
    <BinaryTree type="DecisionTree" boostWeight="1.0000000000000000e+00" itree="79">
      <Node pos="s" depth="0" NCoef="0" IVar="21" Cut="6.8844312429428101e-01" cType="1" res="1.9977383781224489e-03" rms="2.2851021587848663e-01" purity="8.6718273162841797e-01" nType="0">
        <Node pos="l" depth="1" NCoef="0" IVar="-1" Cut="0.0000000000000000e+00" cType="1" res="6.2217763625085354e-03" rms="2.0949128270149231e-01" purity="8.9872288703918457e-01" nType="1"/>
        <Node pos="r" depth="1" NCoef="0" IVar="8" Cut="1.0909164324402809e-02" cType="0" res="-6.2541611492633820e-02" rms="3.1380504369735718e-01" purity="6.7370462417602539e-01" nType="0">
          <Node pos="l" depth="2" NCoef="0" IVar="-1" Cut="0.0000000000000000e+00" cType="1" res="-1.6591414809226990e-02" rms="3.0205944180488586e-01" purity="7.2284072637557983e-01" nType="1"/>
          <Node pos="r" depth="2" NCoef="0" IVar="-1" Cut="0.0000000000000000e+00" cType="1" res="-4.6677026897668839e-02" rms="3.5919052362442017e-01" purity="3.7077271938323975e-01" nType="-1"/>
        </Node>
      </Node>
    </BinaryTree>
    <BinaryTree type="DecisionTree" boostWeight="1.0000000000000000e+00" itree="80">
      <Node pos="s" depth="0" NCoef="0" IVar="19" Cut="4.0313437581062317e-01" cType="1" res="1.9065683009102941e-03" rms="2.2816000878810883e-01" purity="8.6718273162841797e-01" nType="0">
        <Node pos="l" depth="1" NCoef="0" IVar="-1" Cut="0.0000000000000000e+00" cType="1" res="5.1669664680957794e-03" rms="2.1634216606616974e-01" purity="9.2029315233230591e-01" nType="1"/>
        <Node pos="r" depth="1" NCoef="0" IVar="9" Cut="6.1474149115383625e-03" cType="1" res="-7.5273036956787109e-02" rms="3.0584716796875000e-01" purity="3.8094571232795715e-01" nType="0">
          <Node pos="l" depth="2" NCoef="0" IVar="-1" Cut="0.0000000000000000e+00" cType="1" res="4.3716173619031906e-02" rms="2.0168793201446533e-01" purity="9.4714701175689697e-01" nType="1"/>
          <Node pos="r" depth="2" NCoef="0" IVar="-1" Cut="0.0000000000000000e+00" cType="1" res="-2.4931354448199272e-02" rms="3.0558776855468750e-01" purity="3.7120053172111511e-01" nType="-1"/>
        </Node>
      </Node>
    </BinaryTree>
    <BinaryTree type="DecisionTree" boostWeight="1.0000000000000000e+00" itree="81">
      <Node pos="s" depth="0" NCoef="0" IVar="0" Cut="2.0061102509498596e-01" cType="0" res="1.8129446543753147e-03" rms="2.2790721058845520e-01" purity="8.6718273162841797e-01" nType="0">
        <Node pos="l" depth="1" NCoef="0" IVar="-1" Cut="0.0000000000000000e+00" cType="1" res="8.2559492439031601e-03" rms="2.0026253163814545e-01" purity="9.3880552053451538e-01" nType="1"/>
        <Node pos="r" depth="1" NCoef="0" IVar="14" Cut="9.0243345499038696e-01" cType="0" res="-4.7658346593379974e-02" rms="3.0627205967903137e-01" purity="5.9517580270767212e-01" nType="0">
          <Node pos="l" depth="2" NCoef="0" IVar="-1" Cut="0.0000000000000000e+00" cType="1" res="-8.7445573881268501e-03" rms="2.9107853770256042e-01" purity="6.2534368038177490e-01" nType="1"/>
          <Node pos="r" depth="2" NCoef="0" IVar="-1" Cut="0.0000000000000000e+00" cType="1" res="-5.4681193083524704e-02" rms="3.7470722198486328e-01" purity="3.0982968211174011e-01" nType="-1"/>
        </Node>
      </Node>
    </BinaryTree>
    <BinaryTree type="DecisionTree" boostWeight="1.0000000000000000e+00" itree="82">
      <Node pos="s" depth="0" NCoef="0" IVar="9" Cut="1.2214339338243008e-02" cType="1" res="1.7555402591824532e-03" rms="2.2739833593368530e-01" purity="8.6718273162841797e-01" nType="0">
        <Node pos="l" depth="1" NCoef="0" IVar="-1" Cut="0.0000000000000000e+00" cType="1" res="4.2043114081025124e-03" rms="2.1950177848339081e-01" purity="8.9042413234710693e-01" nType="1"/>
        <Node pos="r" depth="1" NCoef="0" IVar="15" Cut="-4.8691858537495136e-03" cType="0" res="-9.1187350451946259e-02" rms="3.0056661367416382e-01" purity="5.5168598890304565e-01" nType="0">
